tree
version=v4
num_class=1
num_tree_per_iteration=1
label_index=0
max_feature_idx=639
objective=binary sigmoid:1
feature_names=feature1 feature2 feature3 feature4 feature5 feature6 feature7 feature8 feature9 feature12 feature14 feature16 feature17 feature18 feature19 feature22 feature24 feature25 feature31 feature33 feature35 feature36 feature37 feature38 feature41 feature43 feature44 feature45 feature46 feature47 feature48 feature49 feature52 feature53 feature54 feature55 feature56 feature57 feature58 feature59 feature60 feature61 feature62 feature63 feature64 feature65 feature67 feature70 feature71 feature72 feature73 feature74 feature75 feature76 feature77 feature78 feature79 feature80 feature81 feature82 feature83 feature84 feature85 feature86 feature87 feature88 feature89 feature91 feature92 feature93 feature94 feature95 feature96 feature97 feature98 feature99 feature100 feature101 feature102 feature103 feature104 feature105 feature106 feature107 feature108 feature109 feature110 feature111 feature112 feature113 feature114 feature115 feature116 feature117 feature118 feature119 feature120 feature121 feature122 feature123 feature124 feature125 feature127 feature128 feature129 feature133 feature135 feature136 feature137 feature138 feature139 feature140 feature141 feature142 feature143 feature145 feature146 feature147 feature148 feature149 feature150 feature151 feature152 feature153 feature154 feature155 feature156 feature157 feature158 feature159 feature161 feature162 feature163 feature164 feature165 feature166 feature167 feature168 feature169 feature170 feature171 feature172 feature173 feature174 feature175 feature176 feature177 feature178 feature179 feature180 feature181 feature182 feature183 feature184 feature185 feature186 feature187 feature188 feature189 feature190 feature191 feature192 feature193 feature194 feature195 feature196 feature197 feature198 feature199 feature200 feature201 feature202 feature203 feature204 feature205 feature206 feature208 feature209 feature210 feature212 feature214 feature215 feature216 feature217 feature218 feature220 feature222 feature224 feature225 feature226 feature227 feature229 feature231 feature232 feature233 feature234 feature242 feature243 feature244 feature253 feature255 feature258 feature259 feature260 feature262 feature263 feature264 feature265 feature268 feature269 feature272 feature273 feature274 feature275 feature276 feature277 feature278 feature279 feature280 feature282 feature283 feature284 feature286 feature287 feature288 feature289 feature290 feature291 feature293 feature294 feature295 feature296 feature297 feature298 feature299 feature300 feature303 feature304 feature305 feature306 feature307 feature308 feature309 feature310 feature311 feature312 feature315 feature316 feature317 feature318 feature320 feature322 feature324 feature328 feature330 feature331 feature332 feature334 feature335 feature336 feature338 feature339 feature340 feature341 feature342 feature343 feature344 feature345 feature346 feature349 feature350 feature352 feature353 feature354 feature355 feature356 feature357 feature358 feature359 feature360 feature361 feature366 feature367 feature368 feature369 feature370 feature371 feature378 feature379 feature384 feature385 feature386 feature387 feature388 feature389 feature391 feature392 feature393 feature395 feature398 feature400 feature401 feature405 feature426 feature427 feature428 feature429 feature431 feature432 feature434 feature435 feature436 feature437 feature438 feature440 feature441 feature443 feature444 feature445 feature446 feature448 feature449 feature450 feature451 feature452 feature453 feature454 feature455 feature459 feature461 feature465 feature466 feature467 feature468 feature469 feature470 feature472 feature474 feature475 feature476 feature477 feature478 feature481 feature482 feature487 feature488 feature489 feature490 feature491 feature493 feature494 feature495 feature497 feature499 feature500 feature501 feature502 feature503 feature504 feature505 feature506 feature507 feature508 feature509 feature512 feature513 feature515 feature516 feature517 feature518 feature525 feature526 feature527 feature528 feature529 feature530 feature531 feature532 feature533 feature534 feature535 feature537 feature538 feature539 feature540 feature541 feature542 feature543 feature544 feature545 feature546 feature547 feature548 feature551 feature553 feature554 feature559 feature561 feature562 feature563 feature564 feature565 feature566 feature567 feature568 feature570 feature571 feature572 feature574 feature575 feature578 feature587 feature588 feature589 feature597 feature599 feature600 feature602 feature603 feature608 feature610 feature611 feature616 feature619 feature620 feature622 feature623 feature626 feature628 feature629 feature631 feature632 feature634 feature635 feature637 feature638 feature640 feature641 feature642 feature643 feature644 feature646 feature647 feature648 feature649 feature650 feature651 feature652 feature653 feature654 feature655 feature656 feature658 feature659 feature660 feature664 feature665 feature666 feature667 feature668 feature670 feature671 feature672 feature675 feature676 feature677 feature680 feature681 feature684 feature687 feature688 feature689 feature690 feature691 feature692 feature693 feature694 feature695 feature697 feature698 feature699 feature702 feature703 feature704 feature705 feature706 feature707 feature708 feature709 feature712 feature713 feature714 feature715 feature716 feature720 feature721 feature723 feature726 feature727 feature729 feature732 feature733 feature735 feature738 feature741 feature742 feature749 feature750 feature751 feature753 feature754 feature755 feature758 feature759 feature760 feature762 feature763 feature777 feature782 feature783 feature785 feature786 feature787 feature788 feature790 feature791 feature792 feature793 feature794 feature795 feature796 feature799 feature800 feature805 feature810 feature811 feature815 feature817 feature820 feature829 feature842 feature854 feature855 feature856 feature857 feature861 feature862 feature869 feature870 feature871 feature872 feature873 feature874 feature875 feature876 feature878 feature880 feature884 feature885 feature887 feature888 feature890 feature891 feature892 feature893 feature894 feature895 feature897 feature898 feature916 feature917 feature918 feature919 feature920 feature922 feature928 feature930 feature935 feature936 feature937 feature938 feature939 feature940 feature941 feature942 feature943 feature944 feature945 feature946 feature947 feature948 feature949 feature950 feature951 feature952 feature953 feature954 feature986 feature987 feature988 feature989 feature990 feature991 feature992 feature993 feature994 feature996 feature997 feature998 feature999 feature1000 feature1001 feature1002 feature1003 feature1004 feature1035 feature1036 feature1037 feature1038 feature1042 feature1043 feature1045 feature1049 feature1050 feature1051 feature1052 feature1053 feature1054 feature1055 feature1056 feature1057 feature1059 feature1063 feature1064 feature1065 feature1066 feature1067 feature1068 feature1069 feature1076
feature_infos=[0:1761] [0:1759] [0:141] [0:106448] [0:191] [0:284] [0:125] [0:290] [0:298] [0:187] [1:227] [0:243] [0:275] [0:28] [1:248] [0:140184] [0:248] [0:1722] [2:633] [1:50524] [0:65748] [0:3652] [0:85495] [3:14172] [0:7705] [2:59900] [0:6511] [0:12018] [1331:562259] [4096:654139] [0:9421] [0:15863] [0:8713] [0:16442] [0:546171] [0:637426] [0:1028] [0:2397] [0:25796] [0:38063] none [0:833] [0:736] [0:159808] [5:2077] [0:485] [3:12579] [11:247] [1:26450] [3:8098] [0:123709] [0:12739] [6:25492] [1:20367] [0:103121] [1:24643] [0:18552] [0:8327] [5:2039] [0:3207] [0:2266] [0:16456] [0:756] [0:13249] [0:4625] [0:172779] [0:1172] [2:166350] [5:618] [4:7872] [0:463678] [3:49025] [1:7130] [9:3219] [4:53582] [0:81461] [0:3590] [2:157252] [1:41782] [1652:599031] [1:35596] [1:127733] [1:123293] [2044:540543] [2:125422] [3:76889] [0:43222] [6:39059] [1:10467] [1:13557] [0:100501] [1:5074] [2:68601] [0:64535] [0:574910] [11:8326] [4:103856] [6329:658575] [5479:598792] [0:18514] [0:81372] [0:36524] [0:314284] [1:1319] [7:9799] [0:134262] [1697:602418] [6076:671743] [0:21038] [0:185877] [0:225033] [0:673] [1857:613966] [6122:672552] [0:324717] [0:297354] [1:852] [1031:342731] [0:64130] [4:260009] [5:92170] [1:75063] [2:259281] [1:235171] [3167:622982] [1:264710] [2:161242] [1:90148] [6:66667] [5967:614726] [0:29653] [5:215606] [4:11465] [2:133071] [0:104422] [2:2248] [2:3481] [0:12022] [0:18088] [2:162919] [2:183212] [0:32239] [2:48736] [0:30643] [0:71237] [0:119064] [2507:651405] [3465:668872] [0:20117] [2500:639247] [7205:682213] [0:585428] [0:210082] [0:44299] [0:234812] [0:3259] [16:608770] [34:612517] [7230:654200] [7085:655446] [7076:657309] [4871:615504] [5244:585933] [0:81242] [0:141710] [0:3193] [0:11743] [5000:566962] [3:79766] [1377:427568] [7328:667605] [0:11298] [3:1594] [0:43821] [1:3220] [6667:673130] [4788:609684] [5396:618539] [4931:621505] [5656:639974] [0:12208] [0:368] [0:402] [0:2461] [0:92187] [0:89207] [0:98464] [0:686] [0:761] [7502:678406] [0:1136] [0:2253] [0:8271] [0:4] [0:71970] [0:170494] [0:2] [0:66558] [0:156457] [0:30723] [0:15773] [0:170158] [0:6272] [0:193959] [0:52252] [0:33403] [0:221933] [0:6396] [0:223124] [0:100172] [0:207100] [1:38] [1:1034] [1:18652] [3:995] [0:10477] [0:556] [9:2109] [8:21782] [0:3560] [0:867] [0:2065] [0:158271] [0:100800] [0:122374] [6:409] [0:284037] [0:40287] [2:123] [3:1459] [0:393] [10:12387] [2:1831] [6:823] [5:5044] [0:23278] [0:10765] [0:18368] [6:19384] [4:17999] [1:3743] [2:29965] [9:31594] [0:227133] [2:1450] [5:657] [0:149343] [0:203073] [0:190] [1:80] [0:16524] [0:4511] [0:8131] [6:1036] [1:2076] [0:1332] [2:1089] [0:2076] [0:1333] [0:1328] [0:2046] [0:1333] [1:3192] [0:1046] [0:3151] [0:753] [0:93] [0:1885] [0:3166] [1:7221] [4:7744] [0:6799] [0:7129] [0:5468] [0:10282] [0:1275] [0:4071] [0:2318] [0:4040] [1:6014] [0:7040] [0:7] [0:12] [0:11] [0:11] [0:481] [0:1057] [0:476] [0:1051] [0:1] [0:1] [0:1] [0:1] [0:1] [0:1] [0:3] [0:3] [0:3] [0:82] [0:4] [0:1] [0:1] [0:1] [0:1746] [0:17] [0:13] [0:31] [0:1] [0:63] [0:1] [0:1] [0:31] [0:1] [0:101] [0:217] [0:113] [0:1] [0:1] [0:1] [0:100] [0:450] [0:47] [0:116] [0:168] [0:241] [0:64] [0:83] [0:278] [0:118] [0:176] [0:1] [0:1] [0:64] [0:97] [0:690] [0:93] [0:236] [0:684] [0:590] [0:1] [0:1] [0:1] [0:101] [0:101] [0:458] [0:702] [0:135] [0:69] [0:243] [0:463] [0:717] [0:155] [0:379] [0:407] [0:147] [0:225] [0:103] [0:101] [0:257] [0:381] [0:620] [0:146] [0:172] [0:585] [0:243] [0:261] [0:448] [0:113] [0:17] [0:13] [0:255] [0:395] [0:328] [0:237] [0:360] [0:1066] [0:1783] [0:9323] [0:1567] [0:38] [0:43] [0:1] [0:33] [0:33] [0:28] [0:50] [0:17] [0:61] [0:1] [0:1] [0:75] [0:37] [0:75] [0:74] [0:676] [0:691] [0:753] [0:1] [0:1] [0:3] [0:4] [0:2] [0:1] [0:1] [0:1] [0:1] [0:1] [0:3199] [0:1] [0:1] [0:1] [0:1] [0:1] [0:10] [0:1] [0:1] [0:117] [0:122] [0:35] [0:115] [0:123] [0:35] [0:1] [0:1] [0:6] [0:1] [0:14] [0:9] [0:1] [0:5] [0:1] [0:17] [0:1] [0:13] [0:1] [0:9] [0:1] [0:24] [-1:1] [0:1] [0:1] [0:1] [0:1] [0:5] [0:1] [0:1] [0:23] [0:1] [0:23] [0:1] [0:1] [0:34] [0:1] [0:1] [0:1] [0:1] [0:1] [0:12] [0:1] [0:1] [0:1] [0:1] [0:1] [0:1] [0:1] [0:6] [0:1] [0:7] [0:1] [0:1] [0:1] [0:1] [0:13] [0:1] [0:1] [0:1] [0:1] [0:1] [0:1] [0:1] [0:1] [0:1] [0:1] [0:1] [0:1] [0:1] [0:1] [0:1] [0:1] [-1:1] [0:1] [0:1] [0:1] [0:1284] [0:1] [0:14] [0:1] [0:1] [0:28] [0:1] [0:1] [0:19] [0:1] [0:1] [0:1] [0:27] [0:202] [0:511] [0:305] [0:2] [0:2] [0:1] [0:2] [0:78] [0:172] [0:145] [0:153] [0:96] [0:42] [0:72] [0:1] [0:1] [0:1] [0:1] [0:1] [0:1] [0:1] [0:1] [0:1] [0:1] [0:1] [0:2] [0:4] [3:24249] [0:118] [0:31] [0:996] [0:1727] [0:990] [0:1308] [1:1286] [0:137] [0:85] [0:1673] [0:1605] [0:1673] [0:1557] [0:6971] [1:5940] [0:16312] [0:8031] [0:7046] [0:6101] [1:11155] [0:7041] [1:5116] [4:3016] [0:224] [0:1294] [0:6587] [4:10653] [0:137] [0:137] [0:133] [0:74] [0:74] [0:74] [0:3336] [0:5395] [1:3134] [0:3134] [0:3134] [0:3134] [0:31] [0:31] [0:31] [0:3134] [0:62319] [0:198929] [0:152144] [4321:449995] [5313:535304] [4304:503164] [4238:601712] [4342:623841] [4846:651440] [5766:670851] [0:78495] [0:225035] [0:167953] [4297:464433] [5270:554056] [4300:521934] [4178:613007] [4221:632823] [4818:656066] [5826:672433] [0:37] [0:22] [0:48] [0:76] [0:74] [0:121] [0:168] [0:276] [0:458] [0:40] [0:22] [0:49] [0:77] [0:77] [0:124] [0:171] [0:287] [0:472] [0:59388] [0:39735] [0:19232] [0:75375] [0:13475] [0:8736] [0:17827] [0:1830] [0:1756] [0:1638] [0:2691] [0:3400] [0:4823] [0:7137] [0:28435] [0:20019] [0:39592] [0:49909] [0:50250] [0:51714] [0:69081] [0:83903] [0:117161] [0:168455] [0:168455]
tree_sizes=3402 3476 3467 3484 3501 3487 3494 3482 3495 3508 3500 3488 3498 3490 3497 3491 3478 3485 3495 3496 3491 3476 3499 3494 3486 3504 3489 3516 3490 3475 3462 3471 3472 3481 3477 3453 3470 3489 3464 3484 3459 3458 3477 3472 3437 3440 3443 3427 3407 3430 3461 3435 3456 3453 3442 3455 3466 3430 3423 3452 3401 3426 3439 3422 3413 3453 3443 3406 3451 3401 3434 3412 3438 3467 3470 3406 3402 3416 3420 3438 3420 3363 3380 3403 3402 3437 3400 3385 3386 3447 3387 3392 3434 3388 3373 3389 3374 3363 3366 3370

Tree=0
num_leaves=31
num_cat=0
split_feature=605 596 249 249 582 490 595 176 263 595 263 582 613 573 275 592 596 490 574 162 263 595 582 159 582 160 582 250 263 588
split_gain=4636.23 1589.94 711.96 602.402 493.552 412.775 327.557 317.809 264.859 210.031 180.487 177.138 157.252 136.816 123.748 123.57 121.292 118.397 114.185 108.13 105.874 99.6403 81.1059 78.5261 78.0597 75.217 72.0036 68.4403 67.5087 67.4029
threshold=20.500000000000004 57542.500000000007 16.500000000000004 10.500000000000002 503160.50000000006 1.0000000180025095e-35 227213.50000000003 609682.50000000012 120.50000000000001 235113.50000000003 129.50000000000003 101419.00000000001 3.5000000000000004 29.500000000000004 510.50000000000006 414475.00000000006 9865.5000000000018 1.0000000180025095e-35 29.500000000000004 57932.500000000007 120.50000000000001 176644.00000000003 13738.000000000002 231969.00000000003 226379.00000000003 42192.500000000007 499416.50000000006 5214.5000000000009 120.50000000000001 15982.500000000002
decision_type=2 2 2 2 2 2 2 2 2 2 2 2 2 2 2 2 2 2 2 2 2 2 2 2 2 2 2 2 2 2
left_child=1 3 6 16 8 -3 15 9 11 18 -6 -4 27 21 -9 22 -1 -13 28 -12 -14 -10 -2 29 -15 -11 -8 -5 -7 -20
right_child=2 5 4 12 10 7 26 14 13 25 19 17 20 24 -16 -17 -18 -19 23 -21 -22 -23 -24 -25 -26 -27 -28 -29 -30 -31
leaf_value=-1.3050026369147503 -1.4448864635645249 -1.4968274260688808 -1.6691073984392919 -1.4577549257453843 -1.5244996589010327 -1.5962348869622638 -1.6937876939687178 -1.5824864279022981 -1.727078109495219 -1.5784181947355589 -1.472078349905932 -1.5457794940819984 -1.5305095274877176 -1.6850899461118634 -1.4016876388011503 -1.3839662313222312 -1.436609197950518 -1.7273928599629269 -1.3016501951556261 -1.6819235671017583 -1.6079982800176658 -1.7621090953326004 -1.6091498287403778 -1.6332483872821006 -1.740435417904036 -1.6892527610070203 -1.5599576389686498 -1.5412546346670737 -1.6689754383993116 -1.5563782695669988
leaf_weight=114.64400488138199 32.585810363292694 189.1823970079422 733.51054906845093 216.3592267036438 119.52528011798859 167.54647433757782 842.48172056674957 316.09555315971375 1027.8382532000542 63.852357149124146 26.517197906970978 36.411674737930298 313.06124693155289 478.76075226068497 43.007992625236511 29.287651419639587 179.9475519657135 2534.4372586607933 10.949887692928312 331.92671608924866 403.69465470314026 3865.7061346769333 387.5996390581131 178.10058295726776 544.85585749149323 1491.0316952466965 42.216434478759766 179.68369925022125 534.96138066053391 202.37503278255463
leaf_count=869 247 1434 5560 1640 906 1270 6386 2396 7791 484 201 276 2373 3629 326 222 1364 19211 83 2516 3060 29302 2938 1350 4130 11302 320 1362 4055 1534
internal_value=-1.6854 -1.60111 -1.72058 -1.51255 -1.73 -1.6401 -1.65208 -1.64911 -1.73513 -1.66108 -1.63091 -1.71245 -1.54621 -1.7478 -1.56083 -1.58257 -1.38539 -1.72482 -1.62751 -1.6664 -1.57415 -1.75475 -1.59641 -1.58423 -1.71455 -1.6847 -1.6874 -1.49564 -1.65163 -1.5433
internal_weight=0 4604.49 11033.7 1407.39 9699.49 3197.1 1334.17 3007.92 9221.52 2648.82 477.969 3304.36 1112.8 5917.16 359.104 449.473 294.592 2570.85 1093.93 358.444 716.756 4893.54 420.185 391.426 1023.62 1554.88 884.698 396.043 702.508 213.325
internal_count=118537 34902 83635 10668 73522 24234 10113 22800 69899 20078 3623 25047 8435 44852 2722 3407 2233 19487 8292 2717 5433 37093 3185 2967 7759 11786 6706 3002 5325 1617
is_linear=0
shrinkage=1


Tree=1
num_leaves=31
num_cat=0
split_feature=605 596 249 582 250 593 490 176 595 596 263 263 596 490 604 574 263 577 596 160 574 167 611 249 250 160 263 573 269 318
split_gain=3606.57 1029.75 601.559 381.668 359.974 292.681 267.255 228.827 226.042 176.992 127.75 124.715 114.021 109.625 99.3151 96.6169 94.3598 93.2163 86.7007 85.9498 82.0526 80.8103 72.2814 64.6401 63.3501 56.9988 56.414 55.2017 54.9898 52.9309
threshold=20.500000000000004 55337.500000000007 18.500000000000004 503160.50000000006 2734.5000000000005 115336.50000000001 1.0000000180025095e-35 609682.50000000012 282306.50000000006 262641.50000000006 120.50000000000001 129.50000000000003 411567.50000000006 1.0000000180025095e-35 4.5000000000000009 29.500000000000004 120.50000000000001 43013.500000000007 14176.000000000002 42192.500000000007 29.500000000000004 70035.000000000015 1.5000000000000002 9.5000000000000018 1850.5000000000002 139310.50000000003 120.50000000000001 29.500000000000004 2268.5000000000005 1.0000000180025095e-35
decision_type=2 2 2 2 2 2 2 2 2 2 2 2 2 2 2 2 2 2 2 2 2 2 2 2 2 2 2 2 2 2
left_child=1 4 5 8 18 20 -3 9 10 15 24 -5 23 -10 -6 26 -15 -16 -1 -19 -2 -13 -9 -7 -4 -17 -8 -12 -23 -11
right_child=2 6 3 11 14 12 7 22 13 29 27 21 -14 16 17 25 -18 19 -20 -21 -22 28 -24 -25 -26 -27 -28 -29 -30 -31
leaf_value=0.24629395358623604 0.064609837836335046 0.14714973456922845 0.11961890146661787 0.12881216959024316 0.16304276602104004 0.11815254857015499 0.068324803850766488 0.19181087207916891 0.077024490921615937 0.016541711697460586 -0.049900891602493475 0.155732892560146 -0.030055788466526952 -0.044422237940542994 0.22189002262323304 0.11920153510269704 -0.07245333403914743 0.13700483548327594 0.16854432401119993 0.054210933379590903 0.16432164945512806 -0.038565221487298365 0.082788265432191976 0.017327192926207127 -0.0055232633506742982 0.052762784952205592 0.01194405948920594 -0.0071079628520628506 0.046652778050830457 -0.024497484831239896
leaf_weight=239.2149571031332 219.14026542007923 217.79481582343578 41.934510290622711 127.30202986299992 198.11698141694069 69.882550656795502 238.51743225753307 74.719508275389671 57.08412791788578 592.07171443104744 1694.8946349620819 35.65475195646286 663.49203059077263 1881.5816033631563 45.484655782580376 216.97945046424866 3319.5965834856033 164.96071147918701 358.17562089860439 522.64631469547749 132.38243642449379 182.40061536431313 326.73474696278572 705.73412364721298 1144.2187395393848 318.9304711073637 693.39101772010326 366.65667688846588 129.46941278874874 669.82536754012108
leaf_count=1491 1577 1458 315 867 1337 515 1724 517 426 4483 13366 243 5094 14631 317 1523 26431 1144 2385 3645 944 1379 2280 5305 8768 2326 5196 2796 978 5076
internal_value=0 0.0710804 -0.0325656 -0.0431179 0.13909 0.0203589 0.0400379 0.0325876 -0.0479886 0.0222204 -0.0272459 0.0441349 0.000377606 -0.0608001 0.100222 0.0458303 -0.0623128 0.0832449 0.199678 0.0740736 0.102161 0.0131168 0.10308 0.0264115 -0.00109907 0.0796625 0.0263744 -0.04229 -0.00318791 -0.00524223
internal_weight=0 4877.56 10771.4 8980.79 1528.6 1790.63 3348.96 3131.17 8505.97 2729.72 3247.7 474.827 1439.11 5258.26 931.209 1467.82 5201.18 733.092 597.391 687.607 351.523 347.525 401.454 775.617 1186.15 535.91 931.908 2061.55 311.87 1261.9
internal_count=118537 34902 83635 70200 10319 13435 24583 23125 66733 20328 25245 3467 10914 41488 6443 10769 41062 5106 3876 4789 2521 2600 2797 5820 9083 3849 6920 16162 2357 9559
is_linear=0
shrinkage=0.1


Tree=2
num_leaves=31
num_cat=0
split_feature=605 614 249 582 250 593 270 249 602 594 592 577 593 263 592 275 263 573 263 574 250 263 98 159 393 326 263 263 263 591
split_gain=2842.84 721.673 506.837 318.925 288.457 225.039 213.485 208.817 151.783 133.688 129.977 118.145 100.014 99.552 96.6012 96.5044 96.3863 91.8022 89.1912 70.9697 69.9575 64.7836 62.9137 62.1956 59.6439 58.7811 58.7032 55.718 50.9513 50.3885
threshold=20.500000000000004 8.5000000000000018 18.500000000000004 503160.50000000006 2907.5000000000005 245369.00000000003 7740.0000000000009 9.5000000000000018 2.5000000000000004 249092.50000000003 163844.50000000003 24920.500000000004 43842.500000000007 126.50000000000001 520136.50000000006 294.50000000000006 129.50000000000003 29.500000000000004 129.50000000000003 29.500000000000004 2376.5000000000005 120.50000000000001 54360.000000000007 149280.50000000003 1.0000000180025095e-35 6.5000000000000009 132.50000000000003 120.50000000000001 120.50000000000001 16985.500000000004
decision_type=2 2 2 2 2 2 2 2 2 2 2 2 2 2 2 2 2 2 2 2 2 2 2 2 2 2 2 2 2 2
left_child=1 7 5 6 16 12 10 -1 24 17 21 -10 -2 20 -13 -11 25 -6 -5 -15 -8 -4 -20 -7 29 -3 -14 -25 -12 -9
right_child=2 4 3 18 9 23 13 8 11 15 28 14 26 19 -16 -17 -18 -19 22 -21 -22 -23 -24 27 -26 -27 -28 -29 -30 -31
leaf_value=0.20099901070973952 0.13557824608879562 0.053676483974411153 -0.0074592907345464553 0.10649630034944685 0.02204498083555079 0.036040505119518208 0.089065234062983265 0.22771638674000838 0.23570262104098372 -0.0093271184348775286 -0.0511234032360115 0.06416346929126876 0.079370855836322279 -0.046428669434034869 0.26741741407674707 0.1964382110107584 0.052647113717576646 0.077025012076120516 0.16702372902275045 0.0087571666631129017 -0.003962023107375587 -0.047073777652282156 2.434579333698968e-05 0.0081080679458792066 0.20275693859108734 0.14056491268687063 0.017150327361478399 -0.045101674211108445 -0.074856802318125151 0.10822867581853607
leaf_weight=245.09146448969841 139.40837587416172 102.95971767604351 623.98603408038616 137.93844343721867 935.72439394891262 211.94989571720362 89.009607002139091 40.667661666870117 45.056557402014732 1204.3040092885494 1448.384193316102 859.34268786013126 252.48066835105419 1265.7847058326006 24.037301689386368 23.232768520712852 443.86874879896641 449.63120356202126 24.234429940581322 285.61539469659328 880.48861460387707 1219.8311081901193 326.25863209366798 319.73366436362267 139.97744412720203 319.3830198943615 379.62809014320374 511.81340465694666 2409.1173448339105 267.03144402801991
leaf_count=1390 917 688 4796 867 6643 1601 650 249 277 9027 11575 5605 1771 10489 157 141 3018 3038 149 2278 6915 9938 2451 2455 882 2050 2720 3971 20092 1737
internal_value=0 0.0608538 -0.0301117 -0.0401284 0.035176 0.0179606 -0.0447921 0.115958 0.100812 0.018597 -0.0555068 0.0777504 0.0589113 -0.0205595 0.0696941 -0.00543274 0.0851859 0.0398893 0.0383792 -0.0362689 0.00457881 -0.0336674 0.0115713 -0.0123167 0.14864 0.119383 0.0420028 -0.0246423 -0.0659456 0.124021
internal_weight=0 5100.31 10525.7 8710.65 3479.1 1815.01 8222.22 1621.2 1376.11 2612.89 5701.32 928.437 771.517 2520.9 883.38 1227.54 866.211 1385.36 488.432 1551.4 969.498 1843.82 350.493 1043.5 447.677 422.343 632.109 831.547 3857.5 307.699
internal_count=118537 34902 83635 70200 24605 13435 66733 10297 8907 18849 46401 6039 5408 20332 5762 9168 5756 9681 3467 12767 7565 14734 2600 8027 2868 2738 4491 6426 31667 1986
is_linear=0
shrinkage=0.1


Tree=3
num_leaves=31
num_cat=0
split_feature=614 596 249 595 582 250 250 263 167 269 159 592 592 573 578 490 599 594 393 578 263 613 263 592 160 582 269 577 605 276
split_gain=2284.54 593.218 418.241 245.289 224.443 189.454 188.301 164.002 120.457 101.29 97.85 96.1263 88.0514 87.7857 81.1574 79.4198 76.8039 74.8568 61.4362 69.8354 61.3702 58.3719 58.2042 55.3474 54.5189 53.4021 50.6713 47.04 45.4342 45.1446
threshold=20.500000000000004 57542.500000000007 21.500000000000004 287392.00000000006 503160.50000000006 3707.5000000000005 3304.5000000000005 120.50000000000001 555160.00000000012 6468.5000000000009 84363.500000000015 521930.00000000006 424127.00000000006 29.500000000000004 14260.500000000002 1.0000000180025095e-35 1.5000000000000002 174226.50000000003 2.5000000000000004 58325.000000000007 126.50000000000001 2.5000000000000004 120.50000000000001 137581.50000000003 24688.000000000004 222584.50000000003 2268.5000000000005 22176.000000000004 5.5000000000000009 351.50000000000006
decision_type=2 2 2 2 2 2 2 2 2 2 2 2 2 2 2 2 2 2 2 2 2 2 2 2 2 2 2 2 2 2
left_child=1 5 3 12 7 16 15 9 10 25 -8 22 14 23 -2 -3 27 -6 19 -17 -16 -12 -5 -9 -7 -4 -23 -1 -26 -11
right_child=2 6 4 11 17 24 8 13 -10 29 21 -13 -14 -15 20 18 -18 -19 -20 -21 -22 26 -24 -25 28 -27 -28 -29 -30 -31
leaf_value=0.24305001481578531 0.13782556315019651 0.11167718313524609 -0.021138209089039094 0.00026196222169661801 0.089521883575872763 0.11877756587034341 0.056197069432217112 -0.045373618145140834 0.11554057623026846 0.11164611447452577 0.10355683878789844 0.10055929972162894 0.15409622411254822 -0.026913037136333029 0.059441494567731082 0.12532236767260482 0.079533881840962883 0.00028781381828742376 0.15175119979258841 0.030267881365179085 0.0058061280736694375 -0.021593107996470792 -0.041858605511958531 -0.072185936608609988 0.095612385438474085 -0.058453129619711247 0.010200268813218378 0.13916862235934799 0.040152165555196163 -0.0058902825917816178
leaf_weight=46.829458430409431 72.226889416575432 254.83130616694689 682.74753011018038 531.9937916919589 137.50584536790848 157.97262512892485 379.51506870985031 1112.5061380416155 111.20366743952036 33.73619232326746 54.416952230036259 63.025176018476486 67.475165188312531 778.83674711734056 359.13034027069807 86.95248856395483 230.60695736855268 297.18983615934849 53.336536817252636 695.62847267091274 525.47590961307287 785.50314676761627 855.86235797405243 2499.8977994769812 198.44358071684837 875.10230615735054 1385.4534068927169 630.23881658166647 577.81807229667902 1042.2503787130117
leaf_count=248 494 1499 5365 4113 916 955 2654 9432 717 250 350 438 422 6425 2477 581 1314 2108 336 4809 3872 5946 6976 21907 1166 7274 10081 3479 3728 8205
internal_value=0 0.0502513 -0.0293968 0.00622277 -0.0412155 0.0968399 0.0277098 -0.0455303 0.0136159 -0.0258016 0.00926467 -0.0202278 0.0436886 -0.0573635 0.0359027 0.0628055 0.129377 0.0285149 0.0479069 0.0408294 0.0275809 0.00126082 -0.0257129 -0.0639286 0.0652277 -0.0420994 -0.00130332 0.146354 0.05433 -0.00220508
internal_weight=0 5648.75 9934.96 2475.19 7459.77 1841.91 3806.84 7025.08 2716.09 2633.84 2604.89 1450.88 1024.31 4391.24 956.833 1090.75 907.675 434.696 835.917 782.581 884.606 2225.37 1387.86 3612.4 934.234 1557.85 2170.96 677.068 776.262 1075.99
internal_count=118537 37863 80674 18792 61882 10890 26973 58858 19748 21094 19031 11527 7265 37764 6843 7225 5041 3024 5726 5390 6349 16377 11089 31339 5849 12639 16027 3727 4894 8455
is_linear=0
shrinkage=0.1


Tree=4
num_leaves=31
num_cat=0
split_feature=614 596 249 582 249 592 270 594 573 263 263 608 397 491 249 594 177 490 582 94 318 167 586 573 599 159 578 490 596 263
split_gain=1831.56 450.664 363.184 247.674 195.407 188.498 139.084 125.916 122.222 84.152 82.0125 80.8593 70.464 76.2494 69.4773 68.7281 66.1013 65.9868 63.3578 55.3813 50.4138 50.3615 53.8559 57.5766 50.0147 49.3486 47.7524 47.1692 47.1031 45.4734
threshold=20.500000000000004 95612.000000000015 16.500000000000004 503160.50000000006 12.500000000000002 205753.50000000003 7740.0000000000009 228670.50000000003 29.500000000000004 120.50000000000001 134.50000000000003 1.5000000000000002 1.0000000180025095e-35 1.0000000180025095e-35 27.500000000000004 190805.50000000003 65228.500000000007 1.0000000180025095e-35 24008.500000000004 1804.5000000000002 1.0000000180025095e-35 555160.00000000012 410904.50000000006 29.500000000000004 1.5000000000000002 84363.500000000015 64946.500000000007 1.0000000180025095e-35 14176.000000000002 140.50000000000003
decision_type=2 2 2 2 2 2 2 2 2 2 2 2 2 2 2 2 2 2 2 2 2 2 2 2 2 2 2 2 2 2
left_child=1 4 7 5 28 8 21 24 9 -4 20 14 -8 -14 19 -5 -16 -10 -19 -6 26 22 23 -3 -2 -15 -7 -9 -1 -17
right_child=2 6 3 15 11 10 12 27 17 -11 -12 -13 13 25 16 29 -18 18 -20 -21 -22 -23 -24 -25 -26 -27 -28 -29 -30 -31
leaf_value=0.15238434579970353 0.081932595048147649 -0.0092629559972157612 0.00052991888295967856 0.081438990542947287 0.17389455397017206 0.052350270032831638 0.14618446704282403 0.13179349532021722 0.19128671366795535 -0.04491919684089548 -0.063509699175511178 0.025389788080906962 0.094606579580839109 0.070693965655895169 0.021614051242656987 0.060054896866482826 0.082404903452992687 0.072642952549338322 -0.0053189616815849904 0.083403680146615186 -0.049768535764661337 0.094886137212810417 -0.031679406433184384 0.042056522960659377 0.019977242592295982 0.018193086901528589 -0.025304647221692574 -0.0084724453396588326 0.099088960243418941 -0.019830770886764187
leaf_weight=267.28355130553246 334.6176932156086 659.47563636302948 532.07379004359245 183.03395749628544 76.13208495080471 90.550014086067677 59.268344216048717 24.726517878472805 19.084816336631775 1738.5427369102836 2736.338968090713 550.32906192541122 188.25351322442293 213.21640792489052 396.98470586538315 103.60049034655094 325.55071340501308 117.74241929501295 908.99196165055037 605.77304544299841 1069.0479263439775 51.04421067237854 533.91155876964331 327.02416928112507 213.39324633777142 1116.8478900492191 631.06531555950642 788.57562655210495 436.90386562049389 228.23217701166868
leaf_count=1268 2128 4829 4126 1158 441 715 319 187 127 15269 24921 3438 1048 1421 2531 638 1920 902 7135 3601 9167 321 4134 2269 1404 7923 5065 6035 2400 1697
internal_value=0 0.043837 -0.0271412 -0.0349424 0.0741513 -0.0393527 0.0182406 0.020757 -0.0212406 -0.0342691 -0.0526215 0.0578804 0.0392157 0.0350401 0.0706118 0.0322449 0.0490044 0.00704609 0.00362145 0.0935066 -0.035983 -0.00281637 -0.00609651 0.00774942 0.0578074 0.0266093 -0.0155603 -0.00420799 0.119318 0.0051101
internal_weight=0 5808 9719.62 8358.3 2658.96 7843.44 3149.04 1361.31 3316.44 2270.62 4527 1954.77 1577.59 1518.32 1404.44 514.867 722.535 1045.82 1026.73 681.905 1790.66 1571.46 1520.41 986.5 548.011 1330.06 721.615 813.302 704.187 331.833
internal_count=118537 37863 80674 70920 15599 67427 22264 9754 27559 19395 39868 11931 10711 10392 8493 3493 4451 8164 8037 4042 14947 11553 11232 7098 3532 9344 5780 6222 3668 2335
is_linear=0
shrinkage=0.1


Tree=5
num_leaves=31
num_cat=0
split_feature=605 614 250 583 160 263 612 596 491 249 596 263 573 592 573 608 577 176 159 575 574 263 250 159 588 204 575 592 578 582
split_gain=1481.29 375.865 353.371 247.685 145.101 105.731 100.805 98.4414 93.1323 88.3261 84.3938 77.7817 76.8075 66.5132 64.6945 62.4818 61.3414 56.5988 49.2197 48.3774 47.63 45.8294 44.1316 43.1567 43.0671 39.0821 38.3808 38.2178 37.228 36.9602
threshold=21.500000000000004 9.5000000000000018 2591.5000000000005 164471.00000000003 136785.50000000003 120.50000000000001 2.5000000000000004 25551.500000000004 1.0000000180025095e-35 23.500000000000004 427814.00000000006 129.50000000000003 29.500000000000004 521930.00000000006 29.500000000000004 1.5000000000000002 25463.500000000004 609682.50000000012 42141.500000000007 29.500000000000004 29.500000000000004 126.50000000000001 6714.5000000000009 33267.500000000007 60645.500000000007 29571.000000000004 29.500000000000004 521930.00000000006 14260.500000000002 503160.50000000006
decision_type=2 2 2 2 2 2 2 2 2 2 2 2 2 2 2 2 2 2 2 2 2 2 2 2 2 2 2 2 2 2
left_child=1 7 8 6 14 13 -4 16 -2 20 23 25 29 24 18 -9 -1 19 -3 -13 28 -11 -18 -10 -5 -6 -23 -27 -8 -7
right_child=2 4 3 5 11 12 9 15 10 21 -12 17 -14 -15 -16 -17 22 -19 -20 -21 -22 26 -24 -25 -26 27 -28 -29 -30 -31
leaf_value=0.2013394070438726 0.11207635703962422 0.065413040226629263 0.083473798627236945 0.0091514805744323784 0.0063547537246568912 -0.062533713519454734 0.12701247094032897 0.067033942164238122 0.10780496318646567 0.0015212236177638084 -0.03066484114465455 -0.019682502932005509 -0.023834993644179531 0.068703056747928384 0.078927061621540923 0.018910683728898443 0.10112623002388361 0.061157051785227692 0.012077780454643423 0.030050481930520109 0.063458578737030508 -0.041099745046276351 0.038409534776867066 0.028561101809556056 -0.03407877011349341 0.034932556187802818 0.016503091582811973 0.1094013387530348 -0.0061752311675108565 -0.0087926265708158282
leaf_weight=53.227770373225212 122.71536252647638 264.15507750213146 124.09880370646715 260.36959424614906 459.45179166644812 2901.9129338040948 22.462921530008316 1000.0476540178061 78.363787144422531 577.44568069279194 245.85845134407282 1316.8691852837801 719.9994330406189 71.720751866698265 430.5973903387785 369.48277407884598 659.05428503453732 112.53709713369608 501.54365773499012 229.71198076754808 205.93899323046207 897.15308749675751 135.21701045334339 558.7639554142952 2005.1858619600534 469.63547541201115 132.79254277050495 80.767712458968163 319.31677355617285 133.87789812684059
leaf_count=248 850 1624 858 2102 3264 27359 159 5848 505 4426 2057 9791 6258 411 2558 2222 3327 680 3380 1642 1404 7903 767 3991 16808 3098 1059 513 2430 995
internal_value=0 0.0378035 -0.0255602 -0.032288 0.0189767 -0.0428076 -0.0041655 0.0706271 0.0304476 -0.00921208 0.019103 0.00600511 -0.0531994 -0.0261091 0.0479167 0.0540509 0.0974138 -0.00731346 0.0304777 -0.0122957 0.0254689 -0.0210296 0.0904493 0.0383077 -0.0291105 0.0278865 -0.0336729 0.0458603 0.00257832 -0.0601637
internal_weight=0 6082.3 9377.98 8372.28 3865.27 6093.07 2279.21 2217.03 1005.7 2155.11 882.986 2668.97 3755.79 2337.28 1196.3 1369.53 847.499 1659.12 765.699 1546.58 547.719 1607.39 794.271 637.128 2265.56 1009.85 1029.95 550.403 341.78 3035.79
internal_count=118537 38962 79575 72172 26550 53933 18239 12412 7403 17381 6553 18988 34612 19321 7562 8070 4342 12113 5004 11433 3993 13388 4094 4496 18910 6875 8962 3611 2589 28354
is_linear=0
shrinkage=0.1


Tree=6
num_leaves=31
num_cat=0
split_feature=614 276 595 582 582 243 249 578 204 592 263 573 577 491 582 600 167 158 574 167 159 595 614 595 582 178 594 600 176 249
split_gain=1197.23 293.948 283.461 186.936 158.113 148.884 112.042 102.038 101.355 100.154 93.4858 70.8577 68.9764 66.3654 64.2215 71.0655 58.2847 56.163 55.7218 52.8198 52.2318 50.705 50.3168 43.566 38.8992 37.9838 36.7772 36.1283 44.6039 35.7854
threshold=20.500000000000004 1848.5000000000002 47058.000000000007 503160.50000000006 46660.000000000007 227131.00000000003 27.500000000000004 36526.000000000007 25030.000000000004 521930.00000000006 120.50000000000001 29.500000000000004 29391.000000000004 1.0000000180025095e-35 501374.50000000006 2.5000000000000004 138106.00000000003 20641.000000000004 29.500000000000004 562816.50000000012 199554.50000000003 338188.50000000006 7.5000000000000009 164444.50000000003 74118.500000000015 87206.000000000015 16953.500000000004 1.5000000000000002 588246.50000000012 21.500000000000004
decision_type=2 2 2 2 2 2 2 2 2 2 2 2 2 2 2 2 2 2 2 2 2 2 2 2 2 2 2 2 2 2
left_child=2 7 6 4 29 19 25 -2 27 13 21 23 -10 -9 20 -16 -5 -15 -19 -4 -14 -6 -8 -12 -20 -1 -18 28 -7 -3
right_child=1 3 5 16 10 8 22 9 12 -11 11 -13 14 17 15 -17 26 18 24 -21 -22 -23 -24 -25 -26 -27 -28 -29 -30 -31
leaf_value=0.084666185082991896 0.069868962247075866 0.047618042147582279 -0.012544008751236155 0.10057319355675354 -0.0090842328612042653 -0.021769297335625881 0.066544894256095083 0.071461392353244196 0.12706165879661155 0.093838958567438249 -0.028925685402735192 -0.024727882610806707 0.049534222272216058 0.087386098392798817 0.061655090396373138 0.18985044952233504 0.28622962874103375 -0.027239733075520647 0.065650327239840864 0.11069479413359083 0.013625728290242958 -0.039336975403684207 0.0076069574199011314 -0.064029034331543333 -0.00055659821769439284 0.1701005086457763 0.0074796409560174181 0.024433210253039017 0.071327496930022313 -0.0053045281859115685
leaf_weight=994.25259598344564 248.17774061858654 163.2046851888299 1182.0440655201674 88.529365718364716 964.02719669044018 458.34771497547626 266.30602450668812 108.88640553504229 98.513723805546761 110.8399920463562 410.29101736843586 747.66285430639982 891.35061899572611 58.163815371692181 275.46006701886654 51.295360796153545 4.7909365445375434 991.8466736599803 108.05098088830709 35.832035586237907 742.52405422180891 1302.6082474067807 317.60689008235931 2556.4680742546916 496.61992347240448 54.913801275193691 392.28159045428038 624.73736087977886 57.973370812833309 588.44999542832375
leaf_count=5007 1836 1163 8289 507 7656 3321 1414 723 579 667 3649 6517 5328 417 1697 304 27 8522 752 195 4881 11369 1974 25216 3932 263 2670 4285 326 5051
internal_value=0 -0.0231004 0.033998 -0.03272 -0.0370419 0.0208393 0.0695972 0.00961301 0.0321638 0.00163493 -0.0424745 -0.0522408 0.0454116 -0.00416008 0.041309 0.0817797 0.0272015 -0.00913636 -0.0126528 -0.00891811 0.0332154 -0.0264701 0.0344869 -0.0591744 0.0112742 0.0891379 0.0108429 0.00825683 -0.0113162 0.0061864
internal_weight=0 9340.9 6051.16 7218.31 6732.71 4418.08 1633.08 2122.59 3200.2 1874.41 5981.06 3714.42 2059.14 1763.57 1960.63 326.755 485.602 1654.68 1596.52 1217.88 1633.87 2266.64 583.913 2966.76 604.671 1049.17 397.073 1141.06 516.321 751.655
internal_count=118537 80674 37863 63825 60621 29205 8658 16849 20721 15013 54407 35382 12789 14346 12210 2001 3204 13623 13206 8484 10209 19025 3388 28865 4684 5270 2697 7932 3647 6214
is_linear=0
shrinkage=0.1


Tree=7
num_leaves=31
num_cat=0
split_feature=614 250 249 614 270 594 612 577 596 379 263 593 592 159 393 263 0 578 599 610 263 581 263 599 592 250 179 94 263 579
split_gain=979.76 278.473 240.901 151.381 132.031 120.913 90.0684 81.7429 73.3253 71.6639 63.955 54.7488 54.5136 50.0166 50.0109 46.379 51.2898 46.3081 46.2035 44.3954 43.4976 38.8369 38.1832 37.3723 36.3404 34.1055 33.7586 33.6184 33.5266 32.8757
threshold=21.500000000000004 2874.5000000000005 21.500000000000004 9.5000000000000018 7740.0000000000009 321657.00000000006 2.5000000000000004 42454.500000000007 32428.500000000004 2.5000000000000004 120.50000000000001 24082.500000000004 521930.00000000006 229359.00000000003 2.5000000000000004 120.50000000000001 1650.5000000000002 24670.000000000004 1.5000000000000002 1.5000000000000002 162.50000000000003 98224.000000000015 126.50000000000001 1.5000000000000002 521930.00000000006 1485.5000000000002 559285.00000000012 123685.50000000001 119.50000000000001 42941.500000000007
decision_type=2 2 2 2 2 2 2 2 2 2 2 2 2 2 2 2 2 2 2 2 2 2 2 2 2 2 2 2 2 2
left_child=1 7 5 18 6 11 -4 -1 -9 14 19 -2 17 -11 15 -5 -17 -6 26 21 -12 -8 -13 27 28 -19 -3 -10 -7 -29
right_child=2 3 4 9 12 24 10 8 23 13 20 22 -14 -15 -16 16 -18 25 -20 -21 -22 -23 -24 -25 -26 -27 -28 29 -30 -31
leaf_value=0.13084788096724612 0.10065200399983086 0.047885410663679295 0.060844760992917635 0.0093533391476684005 0.042012221999109173 0.012182594929147479 0.10470090355714222 0.082859964523440119 0.072945454591224312 0.051035552128147893 -0.069285965173187761 0.042859073551502889 0.067358659067842622 0.0063346256290620698 0.059096666431055281 -0.0017923517299284087 -0.039044300190608755 0.052432334380897096 0.009469692560259535 -0.0382266727238499 -0.043430245803440168 -0.0088808132062466513 0.0044901438708500807 0.012524757827753294 0.067269981289645037 -0.022502102740192043 0.12457352955999715 0.10298125809166983 -0.032384106565147529 0.025858319693093781
leaf_weight=145.23233687877655 93.048193283379078 1007.6210544109344 81.764718391001225 848.02380553632975 131.99479052424431 212.2248942553997 33.219177827239037 570.64932583272457 387.70976973325014 436.06815995275974 1154.8888705819845 448.30173359066248 84.343056112527847 587.6125065907836 112.08154906332493 757.01815612614155 722.20584638416767 63.201029606163502 330.47512510418892 1281.1180141344666 1490.2591932788491 321.04612217098475 615.41489896178246 361.15022610872984 46.316326558589935 1558.6647448688745 60.8697559684515 62.285429164767265 824.9141473993659 490.8972430229187
leaf_count=738 521 5588 585 5841 1095 1710 241 2587 2160 2940 11770 2944 526 4391 705 5667 5514 466 1938 11401 14588 2518 4656 2150 297 14110 315 347 7329 2899
internal_value=0 0.0273464 -0.0234949 0.0143852 -0.0336495 0.00461099 -0.043122 0.0585752 0.0529703 0.00317005 -0.0451079 0.027095 -0.0111701 0.0253764 -0.00614897 -0.00929124 -0.01998 -0.0149465 0.0421473 -0.0295625 -0.054719 0.00176965 0.0206607 0.0398704 -0.0193944 -0.0195821 0.0522542 0.0503667 -0.0232646 0.034542
internal_weight=0 6879.9 8440.72 4861.98 6200.5 2240.22 4362.3 2017.92 1872.69 3463.01 4280.53 1156.76 1838.2 1023.68 2439.33 2327.25 1479.22 1753.86 1398.97 1635.38 2645.15 354.265 1063.72 1302.04 1083.46 1621.87 1068.49 940.892 1037.14 553.183
internal_count=118537 43780 74757 32899 57300 17457 41103 10881 10143 25058 40518 8121 16197 7331 17727 17022 11181 15671 7841 14160 26358 2759 7600 7556 9336 14576 5903 5406 9039 3246
is_linear=0
shrinkage=0.1


Tree=8
num_leaves=31
num_cat=0
split_feature=605 249 595 167 249 594 270 242 599 582 582 269 491 362 614 250 263 592 602 275 610 611 577 578 0 491 592 574 263 578
split_gain=805.098 242.352 206.112 136.7 123.559 123.03 84.9247 66.0689 58.1995 55.7088 54.9038 54.2669 47.3538 45.3532 44.78 43.8981 40.0568 40.0046 38.9139 38.1537 36.1473 34.993 34.6141 34.3571 34.3154 34.0025 31.1376 30.9854 29.6636 29.457
threshold=21.500000000000004 23.500000000000004 235113.50000000003 84554.500000000015 18.500000000000004 321657.00000000006 6952.0000000000009 25677.500000000004 1.5000000000000002 387331.00000000006 24008.500000000004 2201.5000000000005 1.0000000180025095e-35 41.500000000000007 8.5000000000000018 2170.5000000000005 136.50000000000003 12048.500000000002 2.5000000000000004 15.500000000000002 1.5000000000000002 1.5000000000000002 9419.5000000000018 32701.500000000004 1634.5000000000002 1.0000000180025095e-35 520136.50000000006 29.500000000000004 120.50000000000001 14260.500000000002
decision_type=2 2 2 2 2 2 2 2 2 2 2 2 2 2 2 2 2 2 2 2 2 2 2 2 2 2 2 2 2 2
left_child=2 5 4 21 8 9 16 -6 29 10 27 -4 -7 19 18 -12 26 -8 -9 -13 -14 -3 -23 -20 -16 -19 -5 -2 -26 -1
right_child=1 3 11 6 7 12 17 14 -10 -11 15 13 20 -15 24 -17 -18 25 23 -21 -22 22 -24 -25 28 -27 -28 -29 -30 -31
leaf_value=0.13132270277265465 0.037185456776459701 0.076587608460239043 -0.020831777537675161 -0.036518866665383211 -0.0023264511361825771 0.080802135037917014 0.091744213937299257 0.085295969104266608 0.028352128763770974 0.087801770630318188 0.046186031321072595 -0.0092169978337268265 0.0093496763607052811 0.035126835092512486 0.045825671969841157 0.00062739359511247131 -0.054664811280548314 0.066594751874411051 0.10817544696570054 0.04302994725907125 -0.030800107651130521 0.10456627164148352 -0.005113458482581091 0.028677636095315318 0.032513876344698364 -0.022991413184802252 0.030553057126132929 0.12685751018995062 -0.0062444757422617696 0.069720753056610463
leaf_weight=83.969113186001778 98.881183885037899 61.919059582054615 702.48261146247387 1315.2839477360249 599.4337430819869 46.442955262959003 32.602475062012672 265.9593620300293 365.01627207547426 121.72295907884836 268.51233880966902 819.51718614250422 287.60267676413059 569.42600053548813 448.36534754186869 996.03731591254473 2209.3416729047894 43.692320697009563 61.762213379144669 168.50978623330593 1017.7836636006832 29.818041808903217 821.80611991137266 453.80447016656399 359.88119958341122 1396.8353732824326 73.060264021158218 63.139269687235355 437.54942509531975 1027.3724882677197
leaf_count=380 661 409 5412 11987 3718 309 273 1317 1921 678 1702 5797 2433 3599 2831 7662 22932 287 308 1096 9392 250 7084 2422 2111 12734 423 359 2934 5116
internal_value=0 -0.0201065 0.0264924 -0.0316041 0.0398494 0.0036186 -0.0380192 0.0268397 0.0629964 0.0228642 0.0173234 0.0022415 -0.018424 0.0126486 0.0354635 0.0103012 -0.0463002 -0.0177951 0.0542278 -0.000306187 -0.0219543 0.0040041 -0.00127323 0.0382011 0.0236921 -0.0202742 -0.0329893 0.0721306 0.0112472 0.0743752
internal_weight=0 8884.48 6363.05 5984.36 4103.11 2900.12 5070.82 2626.76 1476.36 1548.29 1426.57 2259.94 1351.83 1557.45 2027.32 1264.55 3597.69 1473.13 781.526 988.027 1305.39 913.543 851.624 515.567 1245.8 1440.53 1388.34 162.02 797.431 1111.34
internal_count=118537 79575 38962 56379 23058 23196 48636 15641 7417 11062 10384 15904 12134 10492 11923 9364 35342 13294 4047 6893 11825 7743 7334 2730 7876 13021 12410 1020 5045 5496
is_linear=0
shrinkage=0.1


Tree=9
num_leaves=31
num_cat=0
split_feature=605 276 160 263 595 176 573 578 491 593 602 592 593 490 345 275 594 177 263 574 276 263 156 588 269 177 160 263 582 590
split_gain=660.382 203.601 196.774 119.134 107.271 103.762 80.3717 78.7225 75.7503 63.1055 56.5247 55.5081 52.7128 52.4992 46.195 46.1452 45.4623 56.1948 44.6005 41.6929 41.0035 40.7816 37.6962 36.9067 34.3695 32.4796 31.9843 31.0657 30.9094 34.4698
threshold=22.500000000000004 2095.0000000000005 42192.500000000007 120.50000000000001 282306.50000000006 609682.50000000012 29.500000000000004 35038.000000000007 1.0000000180025095e-35 20343.500000000004 2.5000000000000004 521930.00000000006 16647.500000000004 1.0000000180025095e-35 21.500000000000004 1074.5000000000002 115403.50000000001 143154.50000000003 120.50000000000001 29.500000000000004 4024.5000000000005 162.50000000000003 12138.500000000002 15190.500000000002 2483.5000000000005 56443.500000000007 153872.50000000003 120.50000000000001 415420.00000000006 13208.500000000002
decision_type=2 2 2 2 2 2 2 2 2 2 2 2 2 2 2 2 2 2 2 2 2 2 2 2 2 2 2 2 2 2
left_child=2 7 23 8 12 6 16 26 -4 25 -9 14 -3 -12 -6 -7 17 -5 -15 27 22 -20 -14 -1 -13 -10 -2 -16 29 -25
right_child=1 4 3 5 11 15 -8 10 9 -11 13 24 20 18 19 -17 -18 -19 21 -21 -22 -23 -24 28 -26 -27 -28 -29 -30 -31
leaf_value=0.12225741622033387 0.095268494940399656 0.056203286777035705 0.080486771139914329 -0.0036540634763346015 -0.0046625764180055753 0.031458090734686063 0.028554361513441401 0.071377437809586095 0.049359059586246222 0.019022447547024438 0.06283503415092867 -0.023503583782783066 0.036065460195090125 0.0074212896763911941 -0.032881724271507477 0.14281694217937965 -0.023571577819283835 0.080938173646567427 -0.042895568070634958 -0.032834012301142683 -0.057133937900556792 -0.0012830208647807825 -0.015965773264810121 0.1047066399650603 0.065031040235619605 0.1326535387934141 0.025625358994366833 -0.06356476802155217 0.086445755907843452 0.038430585466196945
leaf_weight=84.012196287512779 116.28371673822403 104.61050575971603 272.77880332618952 714.59099143743515 270.83606667071581 618.04463515430689 553.47326973080635 99.776171281933784 145.89066328108311 1979.2307633534074 104.91732134670019 107.89403122663498 151.8843781426549 800.89428901672363 423.33222675323486 39.595456250011921 1583.1723209619522 88.225349724292755 534.85213948041201 1167.5212812945247 222.18566467612982 420.81038416177034 1672.7996804788709 87.118369340896606 73.866902843117714 68.934262797236443 152.33318141847849 1496.3380475640297 226.42270609736443 790.85020077228546
leaf_count=392 781 705 1311 4584 2747 3216 3751 655 737 12588 644 795 1263 6285 3943 184 12253 632 5059 11130 2190 3758 14500 404 477 354 1153 16756 1090 4200
internal_value=0 -0.0206096 0.0211549 0.0138629 -0.0306449 0.0022555 -0.00577798 0.00500343 0.0307886 0.0246098 -0.00195017 -0.0413482 -0.013035 -0.00588058 -0.0442615 0.0381628 -0.013742 0.00564218 -0.00998489 -0.0477355 -0.0165737 -0.0245722 -0.0116348 0.0583633 0.0124765 0.0760871 0.0557737 -0.0567984 0.0535028 0.045007
internal_weight=0 7921.14 7252.34 6063.94 5691.27 3597.1 2939.46 2229.87 2466.83 2194.06 1961.25 3539.79 2151.48 1861.47 3358.03 657.64 2385.99 802.816 1756.56 3087.19 2046.87 955.663 1824.68 1188.4 181.761 214.825 268.617 1919.67 1104.39 877.969
internal_count=118537 72841 45696 39610 54506 24620 21220 18335 14990 13679 16401 35848 18658 15746 34576 3400 17469 5216 15102 31829 17953 8817 15763 6086 1272 1091 1934 20699 5694 4604
is_linear=0
shrinkage=0.1


Tree=10
num_leaves=31
num_cat=0
split_feature=596 270 249 610 592 594 126 577 176 249 492 575 592 263 594 602 599 588 263 577 178 158 614 178 0 612 578 581 629 167
split_gain=545.859 257.331 136.073 105.685 102.762 74.7201 69.901 69.3531 68.9082 64.8272 52.1151 48.804 48.6452 47.8738 47.5065 46.9798 45.7727 44.5937 42.6511 39.4679 39.1025 38.4241 38.3822 35.2651 34.9848 34.9605 34.5239 33.6171 32.0609 31.2281
threshold=154232.00000000003 7740.0000000000009 17.500000000000004 1.5000000000000002 521930.00000000006 92644.500000000015 157292.50000000003 12692.000000000002 136096.50000000003 18.500000000000004 1.0000000180025095e-35 29.500000000000004 29790.500000000004 120.50000000000001 42998.500000000007 2.5000000000000004 1.5000000000000002 66822.500000000015 126.50000000000001 42454.500000000007 49769.000000000007 34175.500000000007 21.500000000000004 457140.50000000006 1643.5000000000002 3.5000000000000004 83234.000000000015 96577.000000000015 5861.0000000000009 68921.000000000015
decision_type=2 2 2 2 2 2 2 2 2 2 2 2 2 2 2 2 2 2 2 2 2 2 2 2 2 2 2 2 2 2
left_child=2 3 16 5 6 -2 12 -4 11 28 18 13 20 -9 -6 -10 19 -8 27 -1 -3 -14 -11 -24 29 -23 -27 -7 -5 -20
right_child=1 4 7 9 14 10 17 8 15 22 -12 -13 21 -15 -16 -17 -18 -19 24 -21 -22 25 23 -25 -26 26 -28 -29 -30 -31
leaf_value=0.11762764528598904 0.063119798325002419 0.34007007312694065 0.085168724248314009 -0.015620001419903887 0.22508444504297176 0.10364745061217401 0.070700776647883976 0.016215746582564278 0.071777653617721246 -0.016197475250924818 0.3293205004071148 0.028039744591922846 0.082196493340917262 -0.017774199687581878 0.050061874990336153 0.021292492085772403 0.022826561880503207 0.013442346075725146 0.11329034365902733 0.053852851432711228 0.044996936087501022 0.016381000034938434 -0.038133173085688581 -0.061250192178087776 -0.040510171923101204 0.0086636348573381674 -0.026348113340062287 0.00092340689910074848 0.050342555578569793 -0.011800630359344193
leaf_weight=106.44758766144514 135.84551720321178 4.7101325616240493 133.44649431854486 550.07109772413969 16.271386548876762 33.516008712351322 158.41030173748732 645.15770107507706 245.8083997964859 509.9340058863163 4.4230704680085173 566.11130549758673 42.276129961013794 1158.4207289218903 330.69279205054045 736.92311944067478 474.76155752688646 962.20396112650633 20.655979298055172 1097.8795189037919 96.542548723518848 319.6269590780139 1963.0885670930147 994.06899652630091 683.2464711368084 349.90098542720079 1443.6386618986726 643.92213858664036 85.082698360085487 589.67727815359831
leaf_count=501 903 30 859 4395 86 220 1160 4027 1189 4120 32 3576 304 8644 1984 4052 2529 7334 171 5252 733 2386 20535 11074 6253 2884 12688 4828 677 5111
internal_value=0 -0.0143401 0.0257364 -0.0267982 0.00644487 -0.00861904 0.00112069 0.0144714 0.0116572 -0.0361544 -0.0135523 0.00242451 -0.00901721 -0.00561566 0.0582698 0.0339202 0.0491233 0.0215364 -0.0143217 0.0594898 0.0587233 -0.0121993 -0.0415349 -0.0459041 -0.0249671 -0.0140878 -0.0195177 0.00600564 -0.00678392 -0.00756708
internal_weight=0 9937.81 5164.96 6213.53 3724.27 2111.29 3377.31 3485.87 3352.42 4102.25 1975.44 2369.69 2256.7 1803.58 346.964 982.732 1679.09 1120.61 1971.02 1204.33 101.253 2155.44 3467.09 2957.16 1293.58 2113.17 1793.54 677.438 635.154 610.333
internal_count=118537 87908 30629 58319 29589 17518 27519 22347 21488 40801 16615 16247 19025 12671 2070 5241 8282 8494 16583 5753 763 18262 35729 31609 11535 17958 15572 5048 5072 5282
is_linear=0
shrinkage=0.1


Tree=11
num_leaves=31
num_cat=0
split_feature=605 276 159 276 594 599 159 582 582 614 392 578 263 574 576 575 179 285 396 263 242 1 577 573 592 0 20 249 593 605
split_gain=457.15 156.599 140.431 90.8778 88.5483 71.1018 55.6196 53.4108 53.042 48.1047 43.6118 38.9161 37.9308 34.8063 34.4845 34.4253 33.7282 32.7869 31.4254 31.378 30.4531 29.5547 32.9072 29.0832 30.2096 27.1938 26.7832 26.5861 27.6569 26.5666
threshold=22.500000000000004 2095.0000000000005 51177.000000000007 620.50000000000011 396076.00000000006 1.5000000000000002 163744.50000000003 398848.50000000006 35266.000000000007 8.5000000000000018 6.5000000000000009 75959.000000000015 120.50000000000001 29.500000000000004 2084.5000000000005 29.500000000000004 547986.00000000012 39.500000000000007 26.500000000000004 120.50000000000001 31593.500000000004 569.50000000000011 24139.500000000004 29.500000000000004 521930.00000000006 1640.5000000000002 15315.500000000002 22.500000000000004 22017.000000000004 8.5000000000000018
decision_type=2 2 2 2 2 2 2 2 2 2 2 2 2 2 2 2 2 2 2 2 2 2 2 2 2 2 2 2 2 2
left_child=2 6 14 15 7 9 17 8 -3 16 27 -10 26 -9 -1 29 -5 21 -6 -13 -12 -2 -23 -20 -25 -14 -8 28 -11 -4
right_child=1 4 3 5 18 -7 12 13 11 10 20 19 25 -15 -16 -17 -18 -19 23 -21 -22 22 -24 24 -26 -27 -28 -29 -30 -31
leaf_value=0.061348553172863488 0.067551942296093556 0.013910142169247124 0.049164694059915449 0.027777724994739763 -0.0070376668995989879 -0.017488503508939525 -0.047121426511090775 0.001525205619596846 -0.006009991061667214 0.11538642261067281 -0.025227296571408198 -0.016284053987018227 0.00064506982003524681 0.077088678285087392 0.029111243435893587 0.063789858892465398 0.10726320155884637 0.070001713604932847 -0.055750136729921962 -0.043145459550467842 0.0038454270110907652 0.087247366537237789 -0.0018682570920799343 -0.034491283028044668 0.074517867529421217 -0.03648799107416132 0.017544871991632505 0.011358448942008409 0.03323909038345798 0.011876003658153752
leaf_weight=722.50456409156322 95.723070330917835 393.51520313322544 297.51863233745098 696.77629871666431 225.9683810248971 1112.265939861536 71.373822741210461 195.79928220063448 735.59719267487526 48.079298481345177 485.30676475167274 691.59842889755964 339.42828562110662 88.516472727060318 613.6558825224638 320.59977701306343 57.814311355352402 145.37151353806257 1235.7816138416529 1171.5509734377265 1398.7230015322566 45.8309445977211 432.15947592258453 699.20511475205421 26.381723128259182 470.72612641751766 624.00853274017572 781.47892602533102 277.72518077492714 533.99606615304947
leaf_count=3429 720 3281 1428 3541 2359 7843 582 1418 6809 249 3589 6062 3069 577 3306 1652 264 1015 14274 12496 9736 313 3258 7074 156 4533 4845 5671 1827 3161
internal_value=0 -0.0176637 0.0172198 0.0107009 -0.0267702 0.00471278 0.00470273 -0.0163689 -0.0203044 0.011305 0.0056133 -0.0254854 -0.00622501 0.0250505 0.046543 0.0359514 0.0338676 0.027582 -0.042351 -0.0331745 -0.00364341 0.0168334 0.00667638 -0.0464194 -0.0305278 -0.0209304 0.0109075 0.0213635 0.0453617 0.025218
internal_weight=0 7688.54 7346.44 6010.28 5463.91 4858.17 2224.62 3276.58 2992.26 3745.9 2991.31 2598.75 1505.54 284.316 1336.16 1152.11 754.591 719.085 2187.34 1863.15 1884.03 573.713 477.99 1961.37 725.587 810.154 695.382 1107.28 325.804 831.515
internal_count=118537 72841 45696 38961 54506 32720 18335 30643 28648 24877 21072 25367 13029 1995 6735 6241 3805 5306 23863 18558 13325 4291 3571 21504 7230 7602 5427 7747 2076 4589
is_linear=0
shrinkage=0.1


Tree=12
num_leaves=31
num_cat=0
split_feature=614 249 204 596 577 263 614 575 592 577 275 263 574 0 269 610 593 17 263 263 243 161 637 159 387 167 492 592 592 150
split_gain=376.227 145.774 117.717 79.7808 73.3218 69.1323 63.4319 62.3565 53.8094 49.8721 49.0658 50.401 46.0459 42.3607 42.2387 36.7033 36.4944 34.8385 34.1513 32.2547 31.5218 30.8027 29.747 30.2092 29.6548 28.4836 28.0842 28.018 30.5745 27.6071
threshold=21.500000000000004 24.500000000000004 2956.5000000000005 427814.00000000006 37448.000000000007 134.50000000000003 3.5000000000000004 29.500000000000004 521930.00000000006 12088.500000000002 33.500000000000007 120.50000000000001 29.500000000000004 1642.5000000000002 6468.5000000000009 1.5000000000000002 49903.000000000007 455.50000000000006 162.50000000000003 126.50000000000001 227131.00000000003 213213.00000000003 84023.500000000015 40017.500000000007 4.5000000000000009 218503.50000000003 1.0000000180025095e-35 462736.50000000006 22719.500000000004 131624.50000000003
decision_type=2 2 2 2 2 2 2 2 2 2 2 2 2 2 2 2 2 2 2 2 2 2 2 2 2 2 2 2 2 2
left_child=2 3 9 12 -4 8 -6 10 14 -1 11 24 19 18 -3 26 21 -18 -7 -2 -9 -11 23 -13 -8 -20 -5 28 -14 -17
right_child=1 5 4 15 6 13 7 20 -10 16 -12 22 27 -15 -16 29 17 -19 25 -21 -22 -23 -24 -25 -26 -27 -28 -29 -30 -31
leaf_value=0.10684874799007019 0.032512686588057831 -0.028544067748996701 0.075224896483868167 0.009871427470712478 0.055239272728857869 -0.055496815462469998 0.017478173656391861 0.0045868940675908012 0.060617946189141028 0.0080269733024394708 0.080438873224817603 0.024695194366355533 0.097896035003005144 -0.047617339860888314 0.001412982224710161 0.1050020943925796 -0.048023623709171459 -0.004796982124735517 0.0034357974047232037 -0.0083435055801735891 0.049046797275084694 0.070213670077964072 0.049527713095392174 -0.011793469595565109 0.061233749690675826 -0.02952007834243774 0.32488465170787506 0.1094760770536112 0.022533139213897799 -0.032007545488451972
leaf_weight=41.678821615874767 253.63829630613327 1108.0738783106208 276.93834564089775 259.37193202227354 512.53558111190796 263.58087734133005 891.23407056927681 201.34503828734159 96.721436962485313 354.05549243092537 96.992518573999405 272.18188835680485 58.699419669806957 1536.8591636940837 818.20620242506266 14.97442516684532 208.28300098329782 1778.4603332132101 461.08395576477051 811.33813762664795 766.72358506917953 102.7719577178359 103.62283081561327 1363.6336720734835 187.47397990524769 608.1847397685051 2.8613430559635153 45.812336847186089 649.26332590728998 822.9813548848033
leaf_count=241 1742 10757 1443 2275 2293 3025 4886 1246 493 2076 446 1443 317 17640 6892 139 1571 12431 4550 6796 4168 576 649 9211 1100 6783 18 247 4681 8402
internal_value=0 -0.0157712 0.0159658 0.00191491 0.0253183 -0.0263225 0.0221741 0.0178099 -0.012165 -0.00161852 0.0105074 0.00810061 0.0147732 -0.0363028 -0.0158195 -0.0193415 -0.00346859 -0.00932871 -0.0232565 0.00138694 0.0397997 0.022017 -0.00243078 -0.00572215 0.0250827 -0.015309 0.0133087 0.0336861 0.0287817 -0.0295592
internal_weight=0 7811.65 7157.93 2918.94 4672.68 4892.71 4395.74 3883.21 2023 2485.25 2915.14 2818.15 1818.75 2869.71 1926.28 1100.19 2443.57 1986.74 1332.85 1064.98 968.069 456.827 1739.44 1635.82 1078.71 1069.27 262.233 753.775 707.963 837.956
internal_count=118537 74757 43780 24617 26885 50140 25442 23149 18142 16895 17735 17289 13783 31998 17649 10834 16654 14002 14358 8538 5414 2652 11303 10654 5986 11333 2293 5245 4998 8541
is_linear=0
shrinkage=0.1


Tree=13
num_leaves=31
num_cat=0
split_feature=269 160 594 612 582 574 599 263 243 249 577 592 592 275 593 177 362 596 29 124 249 587 158 250 242 618 262 249 507 345
split_gain=328.336 157.258 123.539 87.0342 72.1563 61.9051 57.0555 54.7328 50.3251 53.2481 46.8058 46.6521 40.2901 38.4806 33.1945 37.3591 32.8847 32.1995 34.1001 31.2592 30.8522 30.0347 29.6087 28.0446 28.0079 27.722 27.0295 26.0808 25.7748 25.1312
threshold=7219.5000000000009 139310.50000000003 228670.50000000003 3.5000000000000004 286093.50000000006 29.500000000000004 1.5000000000000002 120.50000000000001 223308.50000000003 54.500000000000007 30449.500000000004 27491.500000000004 521930.00000000006 35.500000000000007 16647.500000000004 11446.000000000002 42.500000000000007 553954.50000000012 471357.50000000006 427525.00000000006 21.500000000000004 68919.000000000015 34175.500000000007 1364.5000000000002 30122.000000000004 9264.0000000000018 1782.5000000000002 63.500000000000007 2.5000000000000004 318.50000000000006
decision_type=2 2 2 2 2 2 2 2 2 2 2 2 2 2 2 2 2 2 2 2 2 2 2 2 2 2 2 2 2 2
left_child=2 6 4 -3 20 7 10 19 9 -4 -2 -7 16 23 15 -12 -13 18 -10 -5 25 -15 -8 -9 -16 -1 -6 -22 -26 -20
right_child=1 3 8 5 26 11 22 13 17 -11 14 12 -14 21 24 -17 -18 -19 29 -21 27 -23 -24 -25 28 -27 -28 -29 -30 -31
leaf_value=-0.001186171522498604 0.088742402641537169 0.021161148672008641 -0.045468423365573211 0.023532915336754702 0.0080591429184279015 0.077066280592960876 0.041351687036237567 0.026384693425859251 -0.019215697825521114 0.073478411881690547 0.032252566201949467 -0.0079957085852227251 0.10057206258660033 -0.024077129463633284 -0.0047563802925762802 0.10165781186872767 0.025935717379745857 -0.037853414218991008 0.014109953589141695 -0.025737140195789172 -0.016961177582730535 0.15162211369421194 -0.00039298803395975952 -0.031593910580383987 0.017565579161489969 0.051635350172144157 0.055719027406501212 0.20755100241811109 0.04479858617167682 0.28442370291100938
leaf_weight=407.06801701337099 175.03704785555601 1655.1231739744544 1568.2042538225651 430.70605515688658 216.69762539863586 95.240361720323563 223.2941023632884 88.197438135743141 1224.5658527761698 38.561005741357803 165.53739408403635 985.02596219629049 42.60355594009161 17.838494412600994 211.96153616160154 145.9197870567441 402.2612322717905 661.50801999866962 327.85811157524586 183.6858237683773 1499.1012503057718 21.402596853673458 710.68495965003967 1542.9190853759646 570.86838930100203 131.44034035503864 263.92801681160927 5.19208900630474 888.37232087552547 3.4758136644959441
leaf_count=2495 959 10154 16823 3094 1320 572 1302 589 11680 412 741 7774 224 119 1388 668 2823 7237 3146 1434 12994 111 4770 14923 3311 795 1627 42 4980 30
internal_value=0 0.0122112 -0.0178051 0.00201461 -0.000631116 -0.0063032 0.0302353 -0.0167178 -0.0291375 -0.0426138 0.039173 0.00929855 0.00478476 -0.0261047 0.0347968 0.0647694 0.00184313 -0.0193724 -0.011515 0.00880256 -0.00883335 0.0717515 0.00958726 -0.0284589 0.0292109 0.0117066 0.0342308 -0.0161863 0.0341448 0.0169456
internal_weight=0 8556.68 6347.6 5465 2523.43 3809.88 3091.68 2284.75 3824.17 1606.77 2157.7 1525.13 1429.89 1670.36 1982.66 311.457 1387.29 2217.41 1555.9 614.392 2042.8 39.2411 933.979 1631.12 1671.2 538.508 480.626 1504.29 1459.24 331.334
internal_count=118537 59936 58601 41817 19273 31663 18119 20270 39328 17235 12047 11393 10821 15742 11088 1409 10597 22093 14856 4528 16326 230 6072 15512 9679 3290 2947 13036 8291 3176
is_linear=0
shrinkage=0.1


Tree=14
num_leaves=31
num_cat=0
split_feature=604 250 491 159 592 592 592 578 582 594 158 275 276 573 577 613 204 28 588 546 177 387 249 518 612 263 156 276 337 336
split_gain=276.447 171.114 73.7253 71.9093 71.5987 80.9088 64.3303 62.5823 48.9791 43.0111 42.6265 40.0029 47.615 38.9871 38.2304 36.9476 36.6133 34.6531 33.4488 32.2331 31.8708 31.4606 31.7746 29.7106 31.3366 29.3963 29.153 34.9403 34.6864 28.4988
threshold=10.500000000000002 4151.5000000000009 1.0000000180025095e-35 97840.500000000015 68526.500000000015 521930.00000000006 521930.00000000006 75167.500000000015 13738.000000000002 66669.500000000015 77020.500000000015 54.000000000000007 4013.5000000000005 29.500000000000004 15408.500000000002 13.500000000000002 12868.000000000002 515145.50000000006 178563.50000000003 12.500000000000002 117254.50000000001 4.5000000000000009 10.500000000000002 3.5000000000000004 2.5000000000000004 129.50000000000003 264651.50000000006 217.50000000000003 115.50000000000001 2.5000000000000004
decision_type=2 2 2 2 2 2 2 2 2 2 2 2 2 2 2 2 2 2 2 2 2 2 2 2 2 2 2 2 2 2
left_child=3 2 18 21 14 7 8 26 15 20 -10 12 23 25 -3 -4 19 -18 -2 -11 -5 22 -1 -9 -25 -12 28 -28 -6 -27
right_child=1 4 6 9 5 -7 -8 11 10 16 13 -13 -14 -15 -16 -17 17 -19 -20 -21 -22 -23 -24 24 -26 29 27 -29 -30 -31
leaf_value=0.054247654595388599 0.094111908460754359 0.078820904352902385 0.0313399453964208 0.013973385399711453 0.0075510641718077934 0.023270368556519594 0.073065331963788727 -0.043725695729126011 0.024126440491145679 -0.015329890081510819 0.0053370753862270609 0.094032863268236164 -0.065066249570513046 0.007394163281614294 -0.0011816017146961818 0.16127142885873247 0.0094901858664634253 0.064821434598687139 0.027948701350983998 0.0344617929644302 0.051440094180669665 0.065150060391285944 0.019585606128481411 0.11838310054036294 -0.024986418099106105 -0.042676271393687029 0.22213317474237193 -0.026652506875516443 0.27884378144882588 -0.0045055758217174982
leaf_weight=360.99971561133862 126.89122129231691 63.384111374616623 90.498079501092434 604.76260934025049 549.35384920984507 331.9851157143712 126.85823559015989 1123.7005559802055 477.17155802249908 1072.7301944196224 320.0991432517767 24.518777102231979 441.6039677336812 845.62550674378872 1036.4605307206511 28.866487212479115 1289.9989799186587 124.07499421387911 192.06349468976259 147.94406440854073 363.50769535452127 290.13680753856897 989.01561608165503 15.341374583542345 2436.2158421650529 590.64800598472357 5.7125876769423476 478.20492803305387 4.753624200820922 292.44537775218487
leaf_count=1533 658 495 506 3362 4922 2204 686 12154 3037 7938 2402 143 5550 6265 8760 177 8066 767 1043 1061 1796 1492 5179 135 25183 5642 35 4709 38 2599
internal_value=0 -0.0106333 0.00874092 0.0179175 -0.0198311 -0.0245586 0.00350252 -0.0276846 0.000166629 0.0100161 -0.00279128 -0.0333101 -0.0340874 -0.00906044 0.00342895 0.0627619 0.00339259 0.0143451 0.0542707 -0.00929521 0.0280391 0.035275 0.0288544 -0.030261 -0.0240892 -0.020625 -0.00578279 -0.0237156 0.00987845 -0.0300357
internal_weight=0 9602.4 3091.17 5243.17 6511.24 5411.39 2772.21 5079.41 2645.35 3603.02 2525.99 4041.38 4016.86 2048.82 1099.84 119.365 2634.75 1414.07 318.955 1220.67 968.27 1640.15 1350.02 3575.26 2451.56 1203.19 1038.02 483.918 554.107 883.093
internal_count=118537 87343 23015 31194 64328 55073 21314 52869 20628 22990 19945 43165 43022 16908 9255 683 17832 8833 1701 8999 5158 8204 6712 37472 25318 10643 9704 4744 4960 8241
is_linear=0
shrinkage=0.1


Tree=15
num_leaves=31
num_cat=0
split_feature=269 243 594 204 276 577 612 592 518 596 574 582 638 613 578 578 249 580 593 601 275 492 115 223 573 262 366 393 124 84
split_gain=241.936 127.154 94.1092 80.9333 57.8413 50.828 53.2096 56.9729 42.9458 43.5679 39.382 37.7638 36.3183 33.0412 33.0173 29.9408 28.9183 28.8077 28.5737 28.0528 27.6059 26.1428 25.6758 25.5762 25.4447 24.8939 24.8082 34.4806 24.4523 24.125
threshold=7219.5000000000009 227131.00000000003 122200.00000000001 26420.000000000004 4017.5000000000005 33072.500000000007 3.5000000000000004 521930.00000000006 4.5000000000000009 397409.50000000006 29.500000000000004 224736.50000000003 111003.50000000001 13.500000000000002 66397.500000000015 14260.500000000002 46.500000000000007 448390.00000000006 117521.00000000001 1.5000000000000002 971.50000000000011 1.0000000180025095e-35 186256.50000000003 75650.500000000015 29.500000000000004 1782.5000000000002 96.500000000000014 4.5000000000000009 281206.50000000006 86851.000000000015
decision_type=2 2 2 2 2 2 2 2 2 2 2 2 2 2 2 2 2 2 2 2 2 2 2 2 2 2 2 2 2 2
left_child=2 10 11 14 8 13 -7 12 16 22 20 26 15 -5 -3 -8 23 -11 -12 21 -2 -16 24 -4 -10 -13 27 -1 -14 -29
right_child=1 3 4 5 -6 6 7 -9 9 17 18 25 28 -15 19 -17 -18 -19 -20 -21 -22 -23 -24 -25 -26 -27 -28 29 -30 -31
leaf_value=0.01092907628333077 -0.021169761215297764 0.030291563135791694 -0.042198521435790948 0.086277102408564427 -0.055935138460477832 0.037474048585645091 0.061149200020176681 0.098813096955507176 -0.016673767761753801 -0.029894269790050006 0.031965486738217655 0.006096245319081213 0.070742605405545653 0.014591808225330349 0.0076653332751802144 0.003379814881973549 0.0071470990045904657 0.0088523584138461703 -0.0055923354721509342 -0.016669558975543678 0.11909449200062212 0.27600365759313972 0.029884501018914711 0.03112180165821431 0.012550347708847741 0.063315764178135128 -0.016214825988550261 0.042264601174572869 0.0062429962569468707 0.40576294933244167
leaf_weight=526.53179626911879 1421.8402610495687 337.45695778727531 1116.3454395346344 216.4411408379674 460.25972113758326 1499.2973912209272 94.095294050872326 75.508392386138439 797.25854363292456 1283.9708653055131 301.39457570761442 135.8509408980608 156.04184914380312 91.470626808702946 864.25874366611242 1927.4493129178882 153.13953909277916 225.59980098903179 617.75680845975876 862.90272381156683 14.171492591500281 3.6459839791059485 240.33792463690042 49.693788021802902 475.69329164922237 172.67945744842291 559.22367935627699 3.5425696671009055 94.29490352421999 3.7677226960659027
leaf_count=3801 12099 2384 11715 1162 5649 7653 521 381 7244 14478 1741 739 963 641 5861 13243 1622 1879 4854 7624 67 21 1993 492 3764 936 4237 25 721 27
internal_value=0 0.0103505 -0.0155728 0.0178406 -0.0222266 0.0258871 0.0227577 0.0133582 -0.0186535 -0.0120836 -0.00944 0.00722521 0.0105181 0.0649817 0.00167726 0.00606876 -0.0337081 -0.0241037 0.00672307 -0.00390169 -0.0197855 0.0087926 -9.3048e-05 -0.0390738 -0.00575292 0.0381211 -0.0014955 0.0139237 0.0464474 0.229612
internal_weight=0 8578.03 6203.9 6222.86 4802.3 4154.6 3846.69 2347.39 4342.04 3022.86 2355.16 1401.6 2271.88 307.912 2068.26 2021.54 1319.18 1509.57 919.151 1730.81 1436.01 867.905 1513.29 1166.04 1272.95 308.53 1093.07 533.842 250.337 7.31029
internal_count=118537 59936 58601 41175 48836 25285 23482 15829 43187 29358 18761 9765 15448 1803 15890 13764 13829 16357 6595 13506 12166 5882 13001 12207 11008 1675 8090 3853 1684 52
is_linear=0
shrinkage=0.1


Tree=16
num_leaves=31
num_cat=0
split_feature=276 604 573 263 592 275 0 577 582 70 263 614 631 594 613 124 264 43 612 20 578 178 593 288 578 638 596 65 195 592
split_gain=209.122 153.192 89.6821 91.5759 71.2854 69.7442 56.7616 53.9952 47.0812 43.3302 41.6306 37.3294 32.7565 32.7469 31.1809 30.8315 30.6463 28.8094 27.9792 26.4274 26.3432 34.1234 25.2468 29.2916 24.7104 24.5999 24.148 28.0068 23.5611 23.4988
threshold=840.50000000000011 10.500000000000002 29.500000000000004 126.50000000000001 521930.00000000006 31.500000000000004 1640.5000000000002 27471.500000000004 122476.00000000001 3615.5000000000005 162.50000000000003 47.500000000000007 719.50000000000011 42998.500000000007 6.5000000000000009 432518.50000000006 462.50000000000006 137539.50000000003 1.5000000000000002 27789.500000000004 77670.500000000015 58495.500000000007 52151.500000000007 164.50000000000003 18612.000000000004 159254.00000000003 30021.000000000004 24322.500000000004 79362.500000000015 516132.50000000006
decision_type=2 2 2 2 2 2 2 2 2 2 2 2 2 2 2 2 2 2 2 2 2 2 2 2 2 2 2 2 2 2
left_child=7 9 3 15 8 6 10 -1 -4 17 22 -7 20 14 24 29 -9 -2 -16 -15 -10 -22 23 -5 -11 -23 27 -18 -25 -3
right_child=1 2 4 5 -6 11 -8 16 12 13 -12 -13 -14 19 18 -17 26 -19 -20 -21 21 25 -24 28 -26 -27 -28 -29 -30 -31
leaf_value=0.076425264630581191 0.00017395951503008602 0.0069539411647584056 0.015085641175341617 0.001592533319425453 0.072764060773131786 0.15152744846763988 -0.04116315569509757 0.036200966436733449 0.0063030954565121856 0.10674315439954669 -0.0039779082686470391 -0.088033853837709772 0.018295858972229798 -0.025811857317515782 0.14608522050760334 -0.022183647056757586 -0.043209070504056035 0.04231243309486505 0.041672072375479007 0.0035880821476874424 0.14422993062101261 -0.027624945374701605 -0.048546737444383009 0.039343988855805236 0.0070362994670871556 0.078800577098460098 0.006132864797378723 0.045188774092692612 0.47192086518663096 0.083557576200045766
leaf_weight=189.08834987133741 224.09649483114481 893.70955668389797 926.83019475638866 41.072759374976158 127.98962564766407 31.420348614454269 2296.6570755019784 859.96017319709063 358.9897822290659 26.128283575177193 965.5060769803822 8.2026342600584012 297.93140853196383 358.96898226439953 31.52613390982151 421.61006470769644 40.295086190104485 587.85826773941517 138.01897690445185 2062.1852704510093 11.909356668591498 1277.101033359766 409.57241383567452 2.5012012347578993 510.43727277964354 22.094863519072533 1237.1798475757241 324.24971064925194 2.5355334132909775 41.923347346484661
leaf_count=987 1370 7523 6609 328 662 166 26042 4809 3025 121 10180 66 2635 2734 169 3814 184 3325 812 13646 85 12478 4589 20 2532 211 7775 1386 20 234
internal_value=0 -0.00608822 -0.0139243 -0.0219949 -0.0002688 -0.0300368 -0.0314433 0.0249291 -0.00349779 0.0100995 -0.0157359 0.101934 -0.0122495 0.00475536 0.023704 0.000268904 0.0209735 0.0306824 0.0610872 -0.000770858 -0.0176986 -0.0242704 -0.040649 0.0295034 0.0118916 -0.025815 0.0127979 0.0354177 0.257107 0.0103864
internal_weight=0 12076.8 8137.56 5114.71 3022.85 3757.47 3717.85 2650.77 2894.86 3939.22 1421.19 39.623 1968.03 3127.26 706.111 1357.24 2461.68 811.955 169.545 2421.15 1670.1 1311.11 455.682 46.1095 536.566 1299.2 1601.72 364.545 5.03673 935.633
internal_count=118537 103396 78687 52982 25705 41411 41179 15141 25043 24709 15137 232 18434 20014 3634 11571 14154 4695 981 16380 15799 12774 4957 368 2653 12689 9345 1570 40 7757
is_linear=0
shrinkage=0.1


Tree=17
num_leaves=31
num_cat=0
split_feature=243 596 593 573 177 204 159 249 582 582 577 603 577 249 275 572 302 20 594 113 275 263 263 5 266 379 343 606 570 596
split_gain=186.328 111.087 77.077 64.3951 62.3211 54.352 42.0394 39.8837 35.9466 30.7453 36.6589 32.4327 29.5941 29.5592 29.2604 28.0431 27.9773 26.6759 32.9643 25.0677 24.7486 25.4984 24.9178 25.1303 25.8401 24.4845 24.328 23.9542 23.4129 22.8349
threshold=227131.00000000003 348139.00000000006 119806.00000000001 29.500000000000004 296525.00000000006 27690.500000000004 37681.500000000007 54.500000000000007 22296.500000000004 401338.50000000006 34548.500000000007 4.5000000000000009 57484.500000000007 6.5000000000000009 5.5000000000000009 3066.5000000000005 1.0000000180025095e-35 38408.000000000007 190805.50000000003 323283.50000000006 20.500000000000004 132.50000000000003 162.50000000000003 9.5000000000000018 7.5000000000000009 2.5000000000000004 2.5000000000000004 2.5000000000000004 1185.5000000000002 115057.50000000001
decision_type=2 2 2 2 2 2 2 2 2 2 2 2 2 2 2 2 2 2 2 2 2 2 2 2 2 2 2 2 2 2
left_child=2 3 -1 4 6 17 -2 15 -5 10 14 -11 -8 -6 -10 29 20 18 -3 -14 21 -7 28 24 -24 -12 -18 -22 -23 -4
right_child=1 5 7 8 13 16 12 -9 9 11 25 -13 19 -15 -16 -17 26 -19 -20 -21 27 22 23 -25 -26 -27 -28 -29 -30 -31
leaf_value=0.0034743211203436841 0.024302888320057996 0.099967379711324883 0.0086242640584738555 0.06499389209516325 0.10712621047157729 0.015702086850604789 0.030007600512130712 0.041318873070354839 0.10399029132308774 0.029105725843282637 0.0059347059010126822 0.091282751141220808 -0.015670531022224651 0.024750599624143329 0.023527980307633724 -0.047525964899524258 -0.019190655234320106 -0.0095050131362160988 -0.038152873445587994 0.006267117339095101 0.070474026579922466 0.0381848698415653 0.037210460598017983 -0.0070634388063139184 0.23255888331396057 0.034434744933847287 0.18649134721380245 -0.10411531243555505 -0.037783590865048747 -0.025078015476464099
leaf_weight=1357.5153581462801 597.28401756286621 17.72105597704649 217.97893364727497 237.22908443212509 45.476357355713844 645.04016882926226 219.08448007702827 89.171662729233503 84.287931822240353 251.90836052596569 1152.321762740612 125.78102442622185 1575.6012322977185 1034.1497090533376 97.446584574878216 530.7384534291923 9.0630902089178562 1025.3072583861649 693.34897017106414 778.11020734533668 84.364547897130251 45.934304092079401 81.831287644803524 300.62067409232259 7.3822073414921752 408.22929981350899 15.733968075364828 8.6658621840178949 347.28966631740332 2586.9819674789906
leaf_count=9455 3506 138 1274 1178 188 5283 1670 866 483 1174 6985 675 11880 5287 583 6053 82 10559 7484 5797 533 375 746 3042 66 2576 140 59 3795 26605
internal_value=0 0.00735191 -0.0166903 0.0148223 0.00746957 -0.00768507 0.00040249 -0.0246829 0.0280781 0.0239472 0.0183402 0.0498124 -0.00514607 0.0282205 0.0608462 -0.0264473 0.00595279 -0.0198271 -0.0347107 -0.00841819 0.00423517 0.000979613 -0.011148 0.00676791 0.0533751 0.0133901 0.111317 0.0542109 -0.0289094 -0.0224589
internal_weight=0 9889.21 4782.39 6606.91 4249.71 3282.3 3170.08 3424.87 2357.2 2119.97 1742.29 377.689 2572.8 1079.63 181.735 3335.7 1545.93 1736.38 711.07 2353.71 1521.13 1428.1 783.058 389.834 89.2135 1560.55 24.7971 93.0304 393.224 2804.96
internal_count=118537 74284 44253 41982 28328 32302 22853 34798 13654 12476 10627 1849 19347 5475 1066 33932 14121 18181 7622 17677 13899 13307 8024 3854 812 9561 222 592 4170 27879
is_linear=0
shrinkage=0.1


Tree=18
num_leaves=31
num_cat=0
split_feature=269 599 593 577 276 70 604 336 249 609 275 249 340 545 81 249 397 85 158 362 584 249 362 490 67 616 156 223 246 537
split_gain=161.508 85.679 68.0362 59.5423 56.2059 53.5016 46.5405 38.0285 37.2636 36.8981 36.9218 35.8251 34.8835 31.5185 29.6876 29.628 27.9139 27.8814 26.6638 26.5933 27.4195 26.5779 25.6341 24.5058 24.3348 23.1049 23.0433 26.4946 31.2173 22.5512
threshold=7219.5000000000009 1.5000000000000002 24082.500000000004 28564.500000000004 4017.5000000000005 120737.00000000001 11.500000000000002 4.5000000000000009 54.500000000000007 1.5000000000000002 2.5000000000000004 8.5000000000000018 1.0000000180025095e-35 1628.5000000000002 70870.500000000015 15.500000000000002 1.0000000180025095e-35 67681.000000000015 34175.500000000007 122.50000000000001 275999.00000000006 47.500000000000007 65.500000000000014 1.0000000180025095e-35 10682.000000000002 1251.0000000000002 181227.00000000003 78768.000000000015 41213.500000000007 671.50000000000011
decision_type=2 2 2 2 2 2 2 2 2 2 2 2 2 2 2 2 2 2 2 2 2 2 2 2 2 2 2 2 2 2
left_child=2 3 13 14 6 17 12 8 19 10 -3 -7 -4 -1 -2 -11 -12 29 24 20 -8 26 -17 -13 -9 -19 27 -14 -29 -5
right_child=1 9 4 5 -6 11 7 18 -10 15 16 23 21 -15 -16 22 -18 25 -20 -21 -22 -23 -24 -25 -26 -27 -28 28 -30 -31
leaf_value=0.043077549341689642 0.021511663920535027 0.029817374764166751 0.023156996547699048 0.051029827627802629 -0.047534735987343202 0.062687479366991913 -0.017385488684362887 0.39194745669006947 0.048836775362278664 0.02594292909746598 0.038449891958245386 0.035131718222652784 -0.0012274831096039695 -0.04173874597341292 0.077555840500615869 -0.014774981043775996 -0.033076139385114153 0.033378389252033923 0.004613314935405702 -0.010289902505217894 -0.042649086724713736 0.031091591320191611 0.015116385168674404 -0.0017100594194026297 0.073953311929988705 -0.0051430346194151853 -0.022038539958732114 0.24955953283172927 -0.0087718464051530429 0.0011463819367509614
leaf_weight=290.82253519445658 167.18999342992902 123.92566505074501 452.83682081848383 103.78527438268065 502.40260682627559 97.125197760760784 686.55428184196353 3.1395426765084258 66.736450370401144 414.99902579933405 58.363238014280796 194.26243612170219 678.62016317993402 51.584785051643848 217.44791037961841 857.86524172127247 837.79362500458956 1636.7464250288904 338.5740024112165 700.51054130867124 1147.8777613416314 159.10023211315274 431.0567743703723 2556.9583948589861 10.307221278548239 172.07324738800526 929.73280585557222 9.2836679890751856 9.4286566376686078 714.79728294909
leaf_count=1682 1081 892 3752 660 6380 435 6512 27 674 2579 271 906 5048 376 1321 8094 6615 9353 3379 7143 14082 1336 3344 18453 71 1128 8008 63 68 4804
internal_value=0 0.00835235 -0.0129936 0.0151635 -0.0155965 0.012492 -0.0125064 -0.020749 -0.0249228 -0.00630117 -0.0213432 0.0029985 -0.00163278 0.0302997 0.0531952 0.00270398 -0.0284179 0.0227839 0.0100981 -0.0268646 -0.0331939 -0.0079176 -0.00477835 0.000891322 0.148198 0.0297138 -0.0117321 0.00200927 0.119393 0.00747093
internal_weight=0 8584.39 6037.51 5860.39 5695.1 5475.75 5192.7 2953.7 2601.68 2724 1020.08 2848.35 2239 342.407 384.638 1703.92 896.157 2627.4 352.021 2534.94 1834.43 1786.17 1288.92 2751.22 13.4468 1808.82 1627.07 697.332 18.7123 818.583
internal_count=118537 59936 58601 38141 56543 35739 50163 31888 28411 21795 7778 19794 18275 2058 2402 14017 6886 15945 3477 27737 20594 14523 11438 19359 98 10481 13187 5179 131 5464
is_linear=0
shrinkage=0.1


Tree=19
num_leaves=31
num_cat=0
split_feature=518 599 276 379 250 573 392 603 20 613 263 0 590 336 512 5 80 593 355 582 160 72 302 179 593 65 604 637 636 581
split_gain=141.38 110.287 60.2512 50.8272 48.8246 50.3267 37.2766 37.3371 34.6416 33.2323 29.8971 29.4296 28.1624 27.7703 27.5209 27.3492 30.3019 25.1314 25.1575 24.1198 23.7121 22.4314 22.0188 21.7959 21.4548 21.1824 20.2888 20.2517 19.6286 19.4154
threshold=3.5000000000000004 1.5000000000000002 594.50000000000011 2.5000000000000004 1422.5000000000002 29.500000000000004 28.500000000000004 5.5000000000000009 28390.000000000004 2.5000000000000004 120.50000000000001 1648.5000000000002 95825.000000000015 5.5000000000000009 1.0000000180025095e-35 152.50000000000003 31691.500000000004 170489.50000000003 29.500000000000004 15147.000000000002 9209.0000000000018 656.00000000000011 1.0000000180025095e-35 21263.000000000004 7325.5000000000009 124429.50000000001 6.5000000000000009 101916.50000000001 59644.000000000007 242667.00000000003
decision_type=2 2 2 2 2 2 2 2 2 2 2 2 2 2 2 2 2 2 2 2 2 2 2 2 2 2 2 2 2 2
left_child=6 2 -2 9 -3 10 7 -1 -8 23 -6 15 -7 17 -5 -12 -17 26 -19 -9 -10 -20 -14 -4 -16 -26 -11 -23 -22 -28
right_child=1 4 3 14 5 12 8 19 20 13 11 -13 22 -15 24 16 -18 18 21 -21 28 27 -24 -25 25 -27 29 -29 -30 -31
leaf_value=0.016292894317333231 0.031525731138807057 0.026427089279785793 0.0075128711301061983 0.05933794667252195 -0.0020148397369617135 0.04849977729479063 -0.056054003266172991 0.062239142259778162 0.10688507186572244 -0.0128627065504617 -0.015668518074489792 -0.040505445600849149 -0.003682461916942575 0.02261766291814598 0.070376697524329387 0.426670493640047 0.048926644954322099 -0.020533116284469632 -0.018216075661380574 -0.021236638188506577 -0.023998627968080857 0.0091370751904490538 0.10534204462770339 0.073086069471593074 0.0054258708369724351 0.029038787202412649 0.0096213409290743998 0.10916171780736204 0.035470882250246208 0.058763054278164722
leaf_weight=503.47207474708557 1297.5897961035371 344.44308529794216 97.565168410539627 177.64494101703167 550.98364443331957 126.92555025219917 335.3322139531374 36.088067375123501 14.392724454402922 399.01995506882668 651.35193131119013 930.82791387289762 957.38265415281057 487.33776417002082 74.33602549880743 2.7798756696283791 8.9954255856573582 1086.6779962815344 378.56691936403513 847.45939199626446 1657.6588696800172 643.18826174736023 18.889962784945965 105.50504734367132 900.61662843078375 657.08114900812507 1119.7056037783623 20.899478372186422 57.423607941716909 86.617618903517723
leaf_count=3610 6576 1865 416 1258 4444 802 3615 286 70 2095 6596 10063 8202 3274 360 32 89 10154 3340 8650 15498 5452 146 482 7449 4843 7615 160 508 587
internal_value=0 0.00504484 0.0119211 0.00784093 -0.0093722 -0.0131685 -0.0181212 -0.00544194 -0.0266383 0.00206692 -0.0220954 -0.0290366 0.00418804 0.000166353 0.0219597 -0.012938 0.138103 -0.00276332 -0.00988601 -0.0178271 -0.0209349 0.00121064 -0.00157294 0.0415814 0.0178912 0.0153865 0.00668425 0.0122849 -0.0220075 0.0131499
internal_weight=0 11124.9 7532.35 6234.76 3592.58 3248.14 3451.83 1387.02 2064.81 4425.08 2144.94 1593.96 1103.2 4222.01 1809.68 663.127 11.7753 3734.68 2129.33 883.547 1729.48 1042.65 976.273 203.07 1632.03 1557.7 1605.34 664.088 1715.08 1206.32
internal_count=118537 86300 54061 47485 32239 30374 32237 12546 19691 33575 21224 16780 9150 32677 13910 6717 121 29403 19106 8936 16076 8952 8348 898 12652 12292 10297 5612 16006 8202
is_linear=0
shrinkage=0.1


Tree=20
num_leaves=31
num_cat=0
split_feature=243 270 612 70 592 577 592 612 546 596 336 204 285 578 613 614 158 599 593 614 124 594 582 536 392 232 263 158 121 507
split_gain=126.053 70.734 57.4676 46.5222 39.2339 34.0282 38.8274 47.1922 36.5749 33.2442 33.4746 27.6367 30.4695 26.8469 26.176 29.6924 25.3912 24.5094 23.2906 22.7472 22.2745 26.6065 21.9989 21.6533 21.4601 21.3901 20.4355 20.0656 19.9824 19.903
threshold=227131.00000000003 5026.0000000000009 3.5000000000000004 899.50000000000011 68526.500000000015 27471.500000000004 521930.00000000006 1.5000000000000002 10.500000000000002 553954.50000000012 6.5000000000000009 9118.0000000000018 29.500000000000004 46001.500000000007 6.5000000000000009 5.5000000000000009 190106.50000000003 1.5000000000000002 12367.500000000002 26.500000000000004 25293.500000000004 536767.50000000012 503160.50000000006 5.5000000000000009 9.5000000000000018 553.50000000000011 132.50000000000003 41011.000000000007 21639.500000000004 15.500000000000002
decision_type=2 2 2 2 2 2 2 2 2 2 2 2 2 2 2 2 2 2 2 2 2 2 2 2 2 2 2 2 2 2
left_child=2 3 24 18 -4 19 8 14 11 10 17 27 -13 -6 15 -8 -14 25 -2 -3 21 -20 -15 -10 -1 -5 -23 -7 -27 -22
right_child=1 5 4 9 13 6 7 -9 23 -11 -12 12 16 22 -16 -17 -18 -19 20 -21 29 26 -24 -25 -26 28 -28 -29 -30 -31
leaf_value=0.020089097721367476 0.077047354349065678 0.058833678850510863 0.0025156205213984696 0.2745732776268926 -0.00037742135581377858 0.038475731659479512 0.039994146514180061 0.063204475772057622 0.19802674636482875 -0.03016730486345592 0.030271851161517746 0.0018741288766150285 0.042952230689347365 -0.031709795210578186 0.10360886681201059 -0.020122343984192353 0.0087109793322523842 -0.020991803096833926 0.048435940431740571 0.003662827727495363 0.0016560367661519367 0.072511593418347467 0.0081583712658370947 0.026811449899157399 -0.006703212263191558 -0.013714091430765435 0.45392526039133047 -0.012944303437903629 0.007094665701194546 0.056978558361262782
leaf_weight=517.48567827418447 62.510044001042843 261.55155869945884 604.24663833156228 2.8151735290884963 368.35300171375275 81.924425557255745 132.46162663400173 302.08541686832905 7.4633018374443045 578.27860449627042 260.38119523972273 1680.4976752474904 411.71849832683802 2313.4221437387168 27.755837142467499 216.35340300947428 456.88000934571028 883.9162169136107 67.452459506690502 104.62717397883534 592.77482291311026 2.6518543735146514 147.21119831502438 717.98848408088088 707.95479859411716 772.06973142176867 2.9869907833635807 1030.3767047226429 1147.1768236830831 73.043121241033077
leaf_count=3491 286 1373 4978 26 3353 494 561 1523 50 6960 1889 10551 2272 26272 138 1109 3085 8753 478 793 4915 26 1024 4680 5135 6225 32 8567 8968 530
internal_value=0 0.0059752 -0.0139795 -0.0033781 -0.020615 0.0136313 0.0115032 0.0337624 0.00805964 -0.00817483 -0.00402732 0.00399524 0.00973426 -0.0255555 0.0101439 0.00270674 0.0249414 -0.00721011 0.0184361 0.0430699 0.0134777 0.0658804 -0.0293246 0.0285729 0.00461079 -0.000872203 0.274553 -0.00915706 -0.00127623 0.00772516
internal_weight=0 9877.74 4658.67 4446.06 3433.23 5431.68 5065.51 678.656 4386.85 3644.64 3066.36 3661.4 2549.1 2828.99 376.571 348.815 868.599 2805.98 801.419 366.179 738.909 73.0913 2460.63 725.452 1225.44 1922.06 5.63885 1112.3 1919.25 665.818
internal_count=118537 74284 44253 39088 35627 35196 33030 3331 29699 32821 25861 24969 15908 30649 1808 1670 5357 23972 6267 2166 5981 536 27296 4730 8626 15219 58 9061 15193 5445
is_linear=0
shrinkage=0.1


Tree=21
num_leaves=31
num_cat=0
split_feature=250 612 276 582 599 362 470 582 592 379 264 167 249 578 395 600 275 379 593 596 577 591 28 604 177 150 637 155 25 258
split_gain=109.735 73.9309 52.3005 46.6504 45.5589 41.6956 40.2106 37.4587 29.1941 27.8482 27.8213 27.3659 26.4797 24.942 28.1618 23.6931 33.9761 23.65 24.6697 23.2206 23.0701 22.6639 23.6327 21.4194 21.5051 21.0242 20.8616 20.6448 20.6331 20.2141
threshold=4323.5000000000009 3.5000000000000004 4013.5000000000005 72291.000000000015 1.5000000000000002 122.50000000000001 1.0000000180025095e-35 503160.50000000006 12048.500000000002 2.5000000000000004 454.50000000000006 566959.00000000012 63.500000000000007 85693.000000000015 219.50000000000003 1.5000000000000002 2.5000000000000004 2.5000000000000004 578715.00000000012 402953.50000000006 17350.000000000004 297975.00000000006 224204.00000000003 7.5000000000000009 602992.50000000012 9514.5000000000018 103878.00000000001 3255.0000000000005 44125.000000000007 222.50000000000003
decision_type=2 2 2 2 2 2 2 2 2 2 2 2 2 2 2 2 2 2 2 2 2 2 2 2 2 2 2 2 2 2
left_child=4 9 3 20 6 7 25 13 28 -2 -10 -4 17 14 -5 16 -6 18 -7 27 -3 -20 -23 24 -11 -1 -21 -17 -8 -25
right_child=1 2 11 5 15 12 8 -9 10 23 -12 -13 -14 -15 -16 19 -18 -19 21 26 -22 22 -24 29 -26 -27 -28 -29 -30 -31
leaf_value=0.054050213080365922 -0.00010700441967054762 0.065709974296586857 -0.04457854935349486 -0.0085968598441326562 0.040451105530375717 -0.01420525882151339 0.10603859688049855 0.023311953907054161 0.031583339987068151 -0.010806011515267631 0.01158836443891726 0.060380846423663807 0.26005573029977247 -0.028278363107331089 0.36189977545965613 0.22523859082457529 -0.025144504059218378 0.018949984880263063 0.39032267670586712 -0.02448570605088525 0.0047264919934446514 0.1999047516273581 0.011984158156939871 0.13007265789443442 0.034901553002355132 -0.015780934612183595 0.082103328097586512 0.014483694701728346 0.036611252396657953 0.033818727600233613
leaf_weight=47.47595302760601 1753.6021362729371 66.006010383367538 612.23729971423745 778.26562428474426 90.414322454482317 772.85478815808892 60.714239783585072 184.26174872368574 1040.8021543174982 262.338871948421 2099.824822075665 25.891433462500572 3.9303746968507758 2328.3384147137403 2.0570193976163855 4.6760834828019133 623.46335269883275 434.59331204369664 1.9899443686008442 272.81513803079724 1030.6895753405988 8.147894684225319 37.456293668597937 23.254863407462835 169.40726232528687 469.29010280221701 19.687192510813475 770.52967812865973 145.12318269908428 353.14908161014318
leaf_count=213 12128 448 8057 7376 634 7273 309 1187 6004 1657 13120 133 33 26802 15 30 4630 4038 23 2870 8347 84 427 186 802 3154 174 5072 683 2628
internal_value=0 -0.00734832 -0.0131832 -0.0101176 0.0104959 -0.0145783 0.0165967 -0.0204962 0.0206058 0.006971 0.0182147 -0.0403199 0.000900303 -0.0230928 -0.00762019 -0.00273333 -0.0168367 8.8714e-05 -0.00990214 0.00669627 0.00839686 0.0599739 0.0455591 0.0223295 0.00712859 -0.00936546 -0.0173116 0.015755 0.0570897 0.0397655
internal_weight=0 8848.47 6286.72 5648.59 5644.82 4551.9 3863.23 3292.92 3346.46 2561.75 3140.63 638.129 1258.97 3108.66 780.323 1781.59 713.878 1255.04 820.449 1067.71 1096.7 47.5941 45.6042 808.15 431.746 516.766 292.502 775.206 205.837 376.404
internal_count=118537 81644 64243 56053 36893 47258 23483 35380 20116 17401 19124 8190 11878 34193 7391 13410 5264 11845 7807 8146 8795 534 511 5273 2459 3367 3044 5102 992 2814
is_linear=0
shrinkage=0.1


Tree=22
num_leaves=31
num_cat=0
split_feature=518 594 574 612 263 20 638 616 392 20 396 580 588 593 601 302 614 124 508 569 387 179 336 59 575 578 36 377 578 204
split_gain=101.044 69.8821 56.8646 48.579 47.7464 38.4282 34.5084 30.4643 29.6728 29.8087 27.3683 28.9888 26.2742 25.7684 25.2718 21.9 20.7987 20.8121 22.9806 20.5603 22.5994 22.4199 20.5791 20.4707 19.9268 19.7476 19.6594 19.4362 19.3706 19.1135
threshold=3.5000000000000004 409547.50000000006 29.500000000000004 3.5000000000000004 120.50000000000001 34274.500000000007 1.0000000180025095e-35 3338.5000000000005 28.500000000000004 28390.000000000004 31.500000000000004 404396.00000000006 14553.500000000002 35846.500000000007 1.5000000000000002 1.0000000180025095e-35 54.500000000000007 236933.00000000003 24.500000000000004 2298.5000000000005 4.5000000000000009 515430.50000000006 7.5000000000000009 1108.0000000000002 29.500000000000004 18612.000000000004 577.00000000000011 1096.5000000000002 44056.500000000007 41134.000000000007
decision_type=2 2 2 2 2 2 2 2 2 2 2 2 2 2 2 2 2 2 2 2 2 2 2 2 2 2 2 2 2 2
left_child=8 2 3 19 -5 24 12 10 14 29 11 -7 -4 -8 -1 25 17 18 -12 -2 21 22 -21 -14 -3 -15 -16 -13 -6 -10
right_child=1 5 6 4 28 7 13 -9 9 -11 16 27 23 15 26 -17 -18 -19 -20 20 -22 -23 -24 -25 -26 -27 -28 -29 -30 -31
leaf_value=0.010259249802356226 0.026299875637841821 -0.043025121271299149 0.059643471418138465 0.012686810620002036 0.0069972615091444595 0.003826221628855514 0.063099790053358903 -0.037518289091592848 -0.054631166916639551 -0.018039394182586051 0.0067733701515360735 0.034301101269050109 0.23655986296173023 0.075227202482026467 -0.01783327912814324 0.10373391178887713 -0.063569459691623295 -0.010609567099321445 0.075596114417387061 -0.0098297706444082696 0.027676104220120925 0.085868444610604389 0.050575183707881582 0.006507176658337329 -0.0023354070345552136 0.019660933418959789 0.30271795925174055 0.11371640328222705 -0.018144613771414863 0.14500286078267147
leaf_weight=641.21793081983924 838.72417556121945 441.0376343280077 100.64564434066415 989.14811559766531 369.72342381626368 229.16476130858064 212.21043771505356 231.99302795529366 310.37783498689532 1682.5460425280035 381.64845608174801 87.681840684264898 3.876890927553176 67.953507721424103 723.89648378267884 34.542520970106125 58.39246267452836 1005.9547687545419 55.583599854260683 785.35404826700687 343.71270791068673 27.741535693407059 60.76403221487999 1673.2194642871618 165.52791478857398 1087.6253320425749 1.9183321855962265 47.520095426589251 1790.370440877974 4.8711708150804034
leaf_count=4865 4326 5356 562 6719 2943 2013 967 2650 3567 16076 3289 697 30 386 7660 212 622 10420 398 5141 2154 156 359 10826 1720 6963 21 388 17003 48
internal_value=0 0.00422525 0.00873332 0.00229698 -0.00550907 -0.00975254 0.0192691 -0.00334305 -0.0155587 -0.0233268 0.000905954 0.0254914 0.0100171 0.0309979 -0.00420642 0.0252738 -0.00505985 -0.00269251 0.0155225 0.014252 0.00595287 -0.00259146 -0.00549178 0.00703898 -0.0319212 0.0229285 -0.0169861 0.0622136 -0.0138413 -0.0515465
internal_weight=0 11090.1 8385.61 5205.54 3149.24 2704.5 3180.07 2097.94 3364.83 1997.8 1865.95 364.367 1777.74 1402.33 1367.03 1190.12 1501.58 1443.19 437.232 2056.3 1217.57 873.86 846.118 1677.1 606.566 1155.58 725.815 135.202 2160.09 315.249
internal_count=118537 86300 58747 38801 26665 27553 19946 20477 32237 19691 17827 3098 11418 8528 12546 7561 14729 14107 3687 12136 7810 5656 5500 10856 7076 7349 7681 1085 19946 3615
is_linear=0
shrinkage=0.1


Tree=23
num_leaves=31
num_cat=0
split_feature=269 283 249 249 613 573 379 275 545 637 223 70 149 242 158 263 577 249 638 394 164 117 604 336 613 140 537 531 130 164
split_gain=88.2598 49.0869 44.4107 44.6784 38.1664 37.9598 35.0596 33.4664 28.0336 27.2846 26.3852 27.6698 26.7844 24.1718 24.0924 23.9734 23.0492 22.5592 22.2461 22.0034 21.8173 21.094 21.0865 20.7058 19.8727 19.6393 20.2422 19.5151 19.1384 19.0234
threshold=6468.5000000000009 3.5000000000000004 21.500000000000004 47.500000000000007 2.5000000000000004 29.500000000000004 2.5000000000000004 105.50000000000001 1611.5000000000002 3225.0000000000005 57386.500000000007 16882.500000000004 101959.50000000001 28883.500000000004 128923.00000000001 129.50000000000003 7744.0000000000009 16.500000000000004 146456.00000000003 90.500000000000014 123296.50000000001 168957.50000000003 42.500000000000007 1.5000000000000002 39.500000000000007 24147.000000000004 1183.5000000000002 1.0000000180025095e-35 11585.500000000002 123296.50000000001
decision_type=2 2 2 2 2 2 2 2 2 2 2 2 2 2 2 2 2 2 2 2 2 2 2 2 2 2 2 2 2 2
left_child=2 6 10 4 -4 7 13 15 9 -6 12 17 -1 -2 23 -3 -5 -12 -15 -11 -7 -16 -10 -8 -9 -17 -27 -14 -13 -23
right_child=1 5 3 16 8 20 14 24 22 19 11 28 27 18 21 25 -18 -19 -20 -21 -22 29 -24 -25 -26 26 -28 -29 -30 -31
leaf_value=0.029648197272727578 -0.013254460801475704 0.0061520817884563993 0.060180886084696274 0.15517612682694226 -0.021816571835613537 0.026027270850115206 0.0270477469935913 0.085365898445803709 -0.041912907186511215 -0.0039525363635588805 0.041906456532538203 -0.036353089686439986 0.0062737345529158828 0.0097194435716649857 -0.0014714890375036654 0.016792603550569916 0.0092659640361419798 0.17668714634548011 0.052118116916067929 0.078397851313209449 0.0012338684277766682 0.079131086042952437 0.31843110896003024 0.06869737528390793 -0.067108300292941639 0.0014119489947400539 -0.025893256582983359 -0.020579210482471327 0.046739848036662673 0.01929700476289084
leaf_weight=251.20749044418335 452.47392939776182 579.92083225399256 60.217863708734512 11.059687126427887 2384.2816902585328 563.12890966981649 269.20098607614636 54.392366446554661 551.39290094003081 764.39387718960643 26.665081724524498 44.036724612116814 564.94817460328341 2943.6656167320907 327.72059381380677 155.70087163150311 513.32678978890181 23.24334442615509 129.18185703456402 33.884122896939516 959.91443511098623 75.125574473291636 1.6287367083132256 214.44866364449263 10.141815356910227 340.86101569607854 1334.1796291731298 519.50285105779767 74.805628705769777 181.53672780841589
leaf_count=1714 3363 4085 291 110 25824 3841 1509 246 6759 8140 162 352 4371 17557 2414 1271 5238 175 697 320 6787 522 23 1174 72 2850 12477 4374 554 1265
internal_value=0 0.0060811 -0.00986436 -0.0150172 -0.018797 -0.00202061 0.0131331 -0.00966387 -0.0200701 -0.016459 0.00493283 0.042191 0.000225526 0.00832441 0.0290057 -0.0115664 0.0123433 0.104676 0.0115019 -0.000457049 0.010401 0.0153421 -0.0408516 0.0455151 0.0614039 -0.017179 -0.0203368 -0.00659008 0.01595 0.0368106
internal_weight=0 8591.59 5824.59 4320.19 3795.8 3998.24 4593.35 2475.2 3735.58 3182.56 1504.41 168.751 1335.66 3525.32 1068.03 2410.66 524.386 49.9084 3072.85 798.278 1523.04 584.383 553.022 483.65 64.5342 1830.74 1675.04 1084.45 118.842 256.662
internal_count=118537 60130 58407 46705 41357 31629 28501 21001 41066 34284 11702 1243 10459 21617 6884 20683 5348 337 18254 8460 10628 4201 6782 2683 318 16598 15327 8745 906 1787
is_linear=0
shrinkage=0.1


Tree=24
num_leaves=31
num_cat=0
split_feature=243 336 322 593 568 592 588 393 616 223 537 576 595 249 612 570 156 275 98 575 582 319 613 3 506 552 592 160 0 278
split_gain=78.6377 49.9066 45.2779 39.5412 32.5552 26.518 37.5677 26.4462 25.1915 24.9256 24.1968 23.6819 22.9224 21.3815 21.1139 20.2807 20.8292 20.109 19.8267 19.7367 19.6521 20.7972 19.3678 26.3738 26.3507 23.1973 19.2737 21.3758 19.0386 23.0337
threshold=227131.00000000003 2.5000000000000004 30.500000000000004 49903.000000000007 1288.5000000000002 511735.50000000006 70195.000000000015 1.0000000180025095e-35 1.0000000180025095e-35 46966.500000000007 1001.5000000000001 3080.5000000000005 520651.50000000006 50.500000000000007 3.5000000000000004 2176.5000000000005 507.00000000000006 6.5000000000000009 11228.500000000002 29.500000000000004 8967.0000000000018 10.500000000000002 12.500000000000002 104117.50000000001 1.5000000000000002 1423.5000000000002 516132.50000000006 228308.50000000003 1641.5000000000002 3948.5000000000005
decision_type=2 2 2 2 2 2 2 2 2 2 2 2 2 2 2 2 2 2 2 2 2 2 2 2 2 2 2 2 2 2
left_child=3 2 8 28 5 6 -4 -7 9 -2 15 13 19 14 -5 22 -17 -16 -14 -12 -8 -22 -3 24 25 -24 -15 -28 29 -1
right_child=1 10 4 11 -6 7 20 -9 -10 -11 12 -13 18 26 17 16 -18 -19 -20 -21 21 -23 23 -25 -26 -27 27 -29 -30 -31
leaf_value=0.056741783644998357 -0.0090880138602791021 0.044739397849925588 0.033560367795839284 0.00031934786548280537 -0.012360806751834841 0.0060947060249890612 0.054992258540026484 0.05699200112531886 -0.036513039024467703 0.016346126980208313 0.0085518366687987995 -0.042940160852669614 0.26945280410242672 0.0058096829132682284 -0.012283855715366119 0.13889806189956036 0.012151456837584897 -0.030268646398052285 -0.017535393726221867 0.029325811221281757 -0.019025875380636961 0.0061966575307620128 0.38461158824524799 0.40496729737081066 0.0095774779862597952 0.11978267813689927 -0.1282941525475719 0.12985557673689299 -0.0028245119444403328 -0.0030128120723674247
leaf_weight=157.27898934110999 2722.2080541439354 177.48490203917027 484.77171249315143 717.74636426195502 635.30282211303711 174.5636382214725 68.645643815398216 245.88545689731836 285.25849436223507 448.84251017868519 1457.5744651630521 281.83143439516425 2.4278854727745047 213.27865097299218 1661.9231130741537 13.61197931319475 273.13756824657321 993.26036605611444 283.33915821090341 666.44306454062462 421.95351692289114 1451.318706061691 4.3117004819214353 3.0508682765066615 17.211266823112965 14.202309232205153 3.7098900377750423 23.690707352012396 369.65954200923443 109.36630247533321
leaf_count=951 22321 951 3167 5429 5274 897 373 1503 2744 3426 9905 3753 15 2132 17558 82 1921 11185 2902 3936 3832 10761 33 31 112 98 24 163 2406 652
internal_value=0 0.00467139 5.99051e-05 -0.0112456 0.00810752 0.0126748 0.00865763 0.0358603 -0.00804855 -0.00548797 0.0156567 -0.0150208 0.0114926 -0.0128433 -0.0148981 0.0356059 0.0181681 -0.0190117 -0.0150971 0.01507 0.00244102 0.000515296 0.0587273 0.122752 0.0986518 0.181458 0.0159527 0.0949035 0.0118665 0.032233
