tree
version=v4
num_class=1
num_tree_per_iteration=1
label_index=0
max_feature_idx=639
objective=binary sigmoid:1
feature_names=feature1 feature2 feature3 feature4 feature5 feature6 feature7 feature8 feature9 feature12 feature14 feature16 feature17 feature18 feature19 feature22 feature24 feature25 feature31 feature33 feature35 feature36 feature37 feature38 feature41 feature43 feature44 feature45 feature46 feature47 feature48 feature49 feature52 feature53 feature54 feature55 feature56 feature57 feature58 feature59 feature60 feature61 feature62 feature63 feature64 feature65 feature67 feature70 feature71 feature72 feature73 feature74 feature75 feature76 feature77 feature78 feature79 feature80 feature81 feature82 feature83 feature84 feature85 feature86 feature87 feature88 feature89 feature91 feature92 feature93 feature94 feature95 feature96 feature97 feature98 feature99 feature100 feature101 feature102 feature103 feature104 feature105 feature106 feature107 feature108 feature109 feature110 feature111 feature112 feature113 feature114 feature115 feature116 feature117 feature118 feature119 feature120 feature121 feature122 feature123 feature124 feature125 feature127 feature128 feature129 feature133 feature135 feature136 feature137 feature138 feature139 feature140 feature141 feature142 feature143 feature145 feature146 feature147 feature148 feature149 feature150 feature151 feature152 feature153 feature154 feature155 feature156 feature157 feature158 feature159 feature161 feature162 feature163 feature164 feature165 feature166 feature167 feature168 feature169 feature170 feature171 feature172 feature173 feature174 feature175 feature176 feature177 feature178 feature179 feature180 feature181 feature182 feature183 feature184 feature185 feature186 feature187 feature188 feature189 feature190 feature191 feature192 feature193 feature194 feature195 feature196 feature197 feature198 feature199 feature200 feature201 feature202 feature203 feature204 feature205 feature206 feature208 feature209 feature210 feature212 feature214 feature215 feature216 feature217 feature218 feature220 feature222 feature224 feature225 feature226 feature227 feature229 feature231 feature232 feature233 feature234 feature242 feature243 feature244 feature253 feature255 feature258 feature259 feature260 feature262 feature263 feature264 feature265 feature268 feature269 feature272 feature273 feature274 feature275 feature276 feature277 feature278 feature279 feature280 feature282 feature283 feature284 feature286 feature287 feature288 feature289 feature290 feature291 feature293 feature294 feature295 feature296 feature297 feature298 feature299 feature300 feature303 feature304 feature305 feature306 feature307 feature308 feature309 feature310 feature311 feature312 feature315 feature316 feature317 feature318 feature320 feature322 feature324 feature328 feature330 feature331 feature332 feature334 feature335 feature336 feature338 feature339 feature340 feature341 feature342 feature343 feature344 feature345 feature346 feature349 feature350 feature352 feature353 feature354 feature355 feature356 feature357 feature358 feature359 feature360 feature361 feature366 feature367 feature368 feature369 feature370 feature371 feature378 feature379 feature384 feature385 feature386 feature387 feature388 feature389 feature391 feature392 feature393 feature395 feature398 feature400 feature401 feature405 feature426 feature427 feature428 feature429 feature431 feature432 feature434 feature435 feature436 feature437 feature438 feature440 feature441 feature443 feature444 feature445 feature446 feature448 feature449 feature450 feature451 feature452 feature453 feature454 feature455 feature459 feature461 feature465 feature466 feature467 feature468 feature469 feature470 feature472 feature474 feature475 feature476 feature477 feature478 feature481 feature482 feature487 feature488 feature489 feature490 feature491 feature493 feature494 feature495 feature497 feature499 feature500 feature501 feature502 feature503 feature504 feature505 feature506 feature507 feature508 feature509 feature512 feature513 feature515 feature516 feature517 feature518 feature525 feature526 feature527 feature528 feature529 feature530 feature531 feature532 feature533 feature534 feature535 feature537 feature538 feature539 feature540 feature541 feature542 feature543 feature544 feature545 feature546 feature547 feature548 feature551 feature553 feature554 feature559 feature561 feature562 feature563 feature564 feature565 feature566 feature567 feature568 feature570 feature571 feature572 feature574 feature575 feature578 feature587 feature588 feature589 feature597 feature599 feature600 feature602 feature603 feature608 feature610 feature611 feature616 feature619 feature620 feature622 feature623 feature626 feature628 feature629 feature631 feature632 feature634 feature635 feature637 feature638 feature640 feature641 feature642 feature643 feature644 feature646 feature647 feature648 feature649 feature650 feature651 feature652 feature653 feature654 feature655 feature656 feature658 feature659 feature660 feature664 feature665 feature666 feature667 feature668 feature670 feature671 feature672 feature675 feature676 feature677 feature680 feature681 feature684 feature687 feature688 feature689 feature690 feature691 feature692 feature693 feature694 feature695 feature697 feature698 feature699 feature702 feature703 feature704 feature705 feature706 feature707 feature708 feature709 feature712 feature713 feature714 feature715 feature716 feature720 feature721 feature723 feature726 feature727 feature729 feature732 feature733 feature735 feature738 feature741 feature742 feature749 feature750 feature751 feature753 feature754 feature755 feature758 feature759 feature760 feature762 feature763 feature777 feature782 feature783 feature785 feature786 feature787 feature788 feature790 feature791 feature792 feature793 feature794 feature795 feature796 feature799 feature800 feature805 feature810 feature811 feature815 feature817 feature820 feature829 feature842 feature854 feature855 feature856 feature857 feature861 feature862 feature869 feature870 feature871 feature872 feature873 feature874 feature875 feature876 feature878 feature880 feature884 feature885 feature887 feature888 feature890 feature891 feature892 feature893 feature894 feature895 feature897 feature898 feature916 feature917 feature918 feature919 feature920 feature922 feature928 feature930 feature935 feature936 feature937 feature938 feature939 feature940 feature941 feature942 feature943 feature944 feature945 feature946 feature947 feature948 feature949 feature950 feature951 feature952 feature953 feature954 feature986 feature987 feature988 feature989 feature990 feature991 feature992 feature993 feature994 feature996 feature997 feature998 feature999 feature1000 feature1001 feature1002 feature1003 feature1004 feature1035 feature1036 feature1037 feature1038 feature1042 feature1043 feature1045 feature1049 feature1050 feature1051 feature1052 feature1053 feature1054 feature1055 feature1056 feature1057 feature1059 feature1063 feature1064 feature1065 feature1066 feature1067 feature1068 feature1069 feature1076
feature_infos=[0:1761] [0:1759] [0:141] [0:106448] [0:191] [0:284] [0:125] [0:290] [0:298] [0:187] [0:227] [0:243] [0:275] [0:28] [1:248] [0:140184] [0:248] [0:1722] [6:633] [1:50524] [0:65748] [0:3652] [0:85495] [4:14172] [0:7705] [4:59900] [0:6511] [0:12018] [1331:562259] [4096:654139] [0:9421] [0:15863] [0:8713] [0:16442] [0:546171] [0:637426] [0:1028] [0:2397] [0:25796] [0:38063] none [0:833] [0:736] [0:159808] [3:2077] [0:485] [3:12579] [2:247] [0:26450] [3:8098] [1:123709] [0:12739] [4:25492] [1:20367] [16:103121] [1:24643] [0:18552] [0:8327] [3:2039] [7:3207] [0:2266] [1:16456] [0:756] [0:13249] [1:4625] [0:172779] [0:1172] [2:166350] [18:618] [4:7872] [0:463678] [2:49025] [1:7130] [0:3219] [20:53582] [0:81461] [0:3590] [1:157252] [2:41782] [1652:599031] [1:35596] [1:127733] [3:123293] [2044:540543] [1:125422] [1:76889] [0:43222] [1:39059] [1:10467] [0:13557] [0:100501] [1:5074] [1:68601] [8:64535] [0:574910] [18:8326] [2:103856] [6329:658575] [5479:598792] [7:18514] [0:81372] [0:36524] [0:314284] [1:1319] [3:9799] [1:134262] [1697:602418] [6076:671743] [0:21038] [1:185877] [0:225033] [0:673] [1857:613966] [6122:672552] [0:324717] [5:297354] [1:852] [1031:342731] [0:64130] [0:260009] [2:92170] [2:75063] [2:259281] [1:235171] [3167:622982] [1:264710] [1:161242] [4:90148] [3:66667] [5967:614726] [0:29653] [0:215606] [1:11465] [1:133071] [0:104422] [2:2248] [2:3481] [2:12022] [2:18088] [2:162919] [1:183212] [12:32239] [10:48736] [4:30643] [0:71237] [0:119064] [2507:651405] [3465:668872] [3:20117] [2500:639247] [7205:682213] [0:585428] [0:210082] [0:44299] [0:234812] [0:3259] [16:608770] [34:612517] [7230:654200] [7085:655446] [7076:657309] [4871:615504] [5244:585933] [0:81242] [0:141710] [0:3193] [0:11743] [5000:566962] [4:79766] [1377:427568] [7328:667605] [0:11298] [3:1594] [0:43821] [1:3220] [6667:673130] [4788:609684] [5396:618539] [4931:621505] [5656:639974] [0:12208] [0:368] [0:402] [0:2461] [0:92187] [1:89207] [1:98464] [0:686] [0:761] [7502:678406] [0:1136] [0:2253] [0:8271] [0:4] [0:71970] [0:170494] [0:2] [0:66558] [0:156457] [0:30723] [0:15773] [0:170158] [0:6272] [0:193959] [0:52252] [0:33403] [0:221933] [0:6396] [0:223124] [0:100172] [0:207100] [1:38] [0:1034] [1:18652] [2:995] [0:10477] [0:556] [9:2109] [12:21782] [0:3560] [0:867] [0:2065] [0:158271] [0:100800] [0:122374] [2:409] [0:284037] [0:40287] [0:123] [0:1459] [2:393] [0:12387] [2:1831] [5:823] [3:5044] [0:23278] [0:10765] [8:18368] [14:19384] [0:17999] [2:3743] [0:29965] [8:31594] [0:227133] [2:1450] [18:657] [0:149343] [0:203081] [0:190] [1:84] [0:16524] [0:4511] [0:8131] [1:1036] [0:2076] [0:1332] [3:1089] [0:2076] [0:1333] [0:1328] [0:2046] [0:1333] [0:3192] [0:1046] [0:3151] [0:753] [0:93] [0:1885] [0:3166] [1:7221] [3:7744] [1:6799] [1:7129] [0:5468] [0:10282] [0:1275] [0:4071] [0:2318] [0:4040] [0:6014] [0:7040] [0:7] [0:13] [0:12] [0:11] [0:481] [0:1057] [0:476] [0:1051] [0:1] [0:1] [0:1] [0:1] [0:1] [0:1] [0:3] [0:3] [0:3] [0:82] [0:4] [0:1] [0:1] [0:1] [0:1746] [0:17] [0:13] [0:31] [0:1] [0:63] [0:1] [0:1] [0:31] [0:1] [0:101] [0:217] [0:113] [0:1] [0:1] [0:1] [0:100] [0:450] [0:47] [0:116] [0:168] [0:241] [0:64] [0:83] [0:278] [0:118] [0:176] [0:1] [0:1] [0:64] [0:97] [0:690] [0:93] [0:236] [0:684] [0:590] [0:1] [0:1] [0:1] [0:101] [0:101] [0:458] [0:702] [0:135] [0:69] [0:243] [0:463] [0:717] [0:155] [0:379] [0:407] [0:147] [0:225] [0:103] [0:101] [0:257] [0:381] [0:620] [0:146] [0:172] [0:585] [0:243] [0:261] [0:448] [0:113] [0:17] [0:13] [0:255] [0:395] [0:328] [0:237] [0:360] [0:1066] [0:1783] [0:9323] [0:1567] [0:38] [0:43] [0:1] [0:33] [0:33] [0:28] [0:50] [0:17] [0:61] [0:1] [0:1] [0:75] [0:37] [0:75] [0:74] [0:676] [0:691] [0:753] [0:1] [0:1] [0:3] [0:4] [0:2] [0:1] [0:1] [0:1] [0:1] [0:1] [0:3199] [0:1] [0:1] [0:1] [0:1] [0:1] [0:10] [0:1] [0:1] [0:117] [0:122] [0:35] [0:115] [0:123] [0:35] [0:1] [0:1] [0:6] [0:1] [0:14] [0:9] [0:1] [0:5] [0:1] [0:17] [0:1] [0:13] [0:1] [0:9] [0:1] [0:24] [-1:1] [0:1] [0:1] [0:1] [0:1] [0:5] [0:1] [0:1] [0:23] [0:1] [0:23] [0:1] [0:1] [0:34] [0:1] [0:1] [0:1] [0:1] [0:1] [0:12] [0:1] [0:1] [0:1] [0:1] [0:1] [0:1] [0:1] [0:6] [0:1] [0:7] [0:1] [0:1] [0:1] [0:1] [0:13] [0:1] [0:1] [0:1] [0:1] [0:1] [0:1] [0:1] [0:1] [0:1] [0:1] [0:1] [0:1] [0:1] [0:1] [0:1] [0:1] [-1:1] [0:1] [0:1] [0:1] [0:1284] [0:1] [0:14] [0:1] [0:1] [0:28] [0:1] [0:1] [0:19] [0:1] [0:1] [0:1] [0:27] [0:202] [0:511] [0:305] [0:2] [0:2] [0:1] [0:2] [0:78] [0:172] [0:145] [0:153] [0:96] [0:42] [0:72] [0:1] [0:1] [0:1] [0:1] [0:1] [0:1] [0:1] [0:1] [0:1] [0:1] [0:1] [0:2] [0:4] [15:24252] [0:118] [0:31] [0:996] [0:1727] [0:990] [0:1308] [0:1286] [0:137] [0:85] [0:1673] [0:1605] [0:1673] [0:1557] [0:6971] [0:5940] [6:16312] [0:8031] [0:7046] [0:6101] [1:11155] [0:7041] [0:5116] [3:3016] [0:224] [12:1294] [0:6587] [3:10653] [0:137] [0:137] [0:133] [0:74] [0:74] [0:74] [1:3336] [0:5395] [1:3134] [0:3134] [0:3134] [0:3134] [0:31] [0:31] [0:31] [0:3134] [0:62319] [0:198929] [0:152144] [4321:449995] [5313:535304] [4304:503164] [4238:601712] [4342:623841] [4846:651440] [5766:670851] [0:78495] [0:225035] [0:167953] [4297:464433] [5270:554056] [4300:521934] [4178:613007] [4221:632823] [4818:656066] [5826:672433] [0:40] [0:23] [0:47] [0:72] [0:72] [0:119] [0:167] [0:274] [0:457] [0:43] [0:23] [0:48] [0:73] [0:75] [0:122] [0:170] [0:285] [0:471] [0:59355] [0:39735] [0:19232] [0:75340] [0:13473] [0:8736] [0:17815] [0:1828] [0:1756] [0:1638] [0:2685] [0:3399] [0:4821] [0:7134] [0:28416] [0:20019] [0:39590] [0:49908] [0:50250] [0:51714] [0:69076] [0:83899] [0:117156] [0:168451] [0:168451]
tree_sizes=3415 3465 3462 3486 3494 3487 3490 3491 3492 3505 3496 3494 3506 3484 3501 3506 3507 3490 3493 3508 3475 3496 3494 3493 3488 3488 3481 3492 3468 3495 3475 3472 3471 3500 3491 3463 3480 3476 3477 3465 3455 3468 3471 3451 3485 3461 3484 3420 3461 3414 3459 3467 3457 3439 3472 3416 3436 3436 3481 3453 3439 3397 3432 3456 3412 3459 3375 3441 3421 3399 3425 3401 3464 3423 3442 3406 3430 3385 3386 3371 3475 3414 3367 3386 3411 3430 3425 3373 3446 3405 3413 3452 3414 3399 3417 3422 3396 3430 3419 3378

Tree=0
num_leaves=31
num_cat=0
split_feature=605 596 249 249 582 490 595 176 595 263 596 263 613 574 596 490 263 275 263 162 490 573 604 592 490 593 577 582 590 577
split_gain=4708.82 1418.86 698.056 608.286 510.95 455.518 340.338 323.624 282.839 213.332 200.268 149.046 148.936 145.248 140.953 140.694 140.013 136.176 117.165 97.3365 87.2911 83.7254 81.1991 80.5588 78.6385 74.1409 72.6611 69.3468 68.7813 68.1998
threshold=20.500000000000004 55894.500000000007 16.500000000000004 13.500000000000002 503159.00000000006 1.0000000180025095e-35 227906.50000000003 604605.00000000012 280641.00000000006 129.50000000000003 252599.50000000003 125.50000000000001 1.5000000000000002 29.500000000000004 14012.000000000002 1.0000000180025095e-35 125.50000000000001 773.00000000000011 120.50000000000001 59393.500000000007 1.0000000180025095e-35 29.500000000000004 2.5000000000000004 521927.50000000006 1.0000000180025095e-35 100587.50000000001 42496.500000000007 19812.500000000004 25814.000000000004 53956.000000000007
decision_type=2 2 2 2 2 2 2 2 2 2 2 2 2 2 2 2 2 2 2 2 2 2 2 2 2 2 2 2 2 2
left_child=1 3 6 14 8 29 25 10 11 -6 13 20 -5 -7 28 -10 24 -9 -17 -11 -4 -13 -19 -8 -14 -2 -18 -22 -1 -3
right_child=2 5 4 12 9 7 23 17 15 19 -12 21 16 -15 -16 18 26 22 -20 -21 27 -23 -24 -25 -26 -27 -28 -29 -30 -31
leaf_value=-1.2632005671697466 -1.5356840172058399 -1.2726309925613375 -1.4664354068988574 -1.4116546186030139 -1.5088667194367873 -1.6564933779045647 -1.6949216095460695 -1.578595444722289 -1.5976580438824484 -1.4863009257024384 -1.6876726803246445 -1.7370333563462588 -1.3990727083859633 -1.5884552647349657 -1.4657804870763915 -1.7309197832235705 -1.4419092497315242 -1.5757238069567194 -1.7607381198683367 -1.6814366761012689 -1.597892692498998 -1.6848782529218429 -1.2547298550117152 -1.5409016096787993 -1.5402867503002449 -1.6176806206932266 -1.6117838925950132 -1.6941794021450627 -1.3931794112514928 -1.5014507308855929
leaf_weight=62.13731449842453 194.59137767553329 14.116120278835295 18.073911011219025 63.98428350687027 113.19281494617462 885.75356590747833 859.5002207159996 340.37000298500061 61.081903636455536 27.704535126686096 1254.883514881134 1801.0586359500885 44.459182560443878 485.88477557897568 236.28010672330856 2035.095994591713 26.517197906970978 12.269151270389555 3738.3971994519234 330.60745251178741 80.07929915189743 371.24077069759369 22.031701743602753 35.356263875961304 348.94521623849869 254.48594409227371 499.0774113535881 1134.3028239011765 118.07409018278122 168.60188519954681
leaf_count=471 1475 107 137 485 858 6714 6515 2580 463 210 9512 13652 337 3683 1791 15426 201 93 28337 2506 607 2814 167 268 2645 1929 3783 8598 895 1278
internal_value=-1.6854 -1.60018 -1.72073 -1.51626 -1.73008 -1.63707 -1.65319 -1.6464 -1.73526 -1.62854 -1.6588 -1.71236 -1.55917 -1.63239 -1.41497 -1.74863 -1.56944 -1.55946 -1.75023 -1.66635 -1.68458 -1.72812 -1.36955 -1.68884 -1.52433 -1.58215 -1.60321 -1.68783 -1.34836 -1.48377
internal_weight=0 4583.39 11054.8 1399.47 9710.84 3183.91 1343.93 3001.19 9239.33 471.505 2626.52 3404.76 982.983 1371.64 416.492 5834.58 918.999 374.671 5773.49 358.312 1232.46 2172.3 34.3009 894.856 393.404 449.077 525.595 1214.38 180.211 182.718
internal_count=118537 34742 83795 10608 73608 24134 10187 22749 70034 3574 19909 25808 7451 10397 3157 44226 6966 2840 43763 2716 9342 16466 260 6783 2982 3404 3984 9205 1366 1385
is_linear=0
shrinkage=1


Tree=1
num_leaves=31
num_cat=0
split_feature=605 596 249 582 249 593 490 595 176 263 263 263 605 574 596 318 593 608 588 573 595 275 162 263 263 599 263 573 593 250
split_gain=3661.1 919.822 584.935 397.601 360.151 310.742 300.261 240.689 230.089 163.183 151.678 145.367 105.923 103.457 102.345 96.5759 96.5755 96.4537 92.0207 80.7733 75.7308 75.238 70.6365 67.4108 65.8951 64.3127 62.2368 58.0907 51.9145 51.887
threshold=20.500000000000004 63238.500000000007 18.500000000000004 503159.00000000006 17.500000000000004 238441.00000000003 1.0000000180025095e-35 164832.00000000003 601744.00000000012 120.50000000000001 120.50000000000001 129.50000000000003 9.5000000000000018 29.500000000000004 14012.000000000002 1.0000000180025095e-35 43708.000000000007 1.5000000000000002 30880.500000000004 29.500000000000004 222854.50000000003 291.00000000000006 76172.500000000015 120.50000000000001 120.50000000000001 1.5000000000000002 125.50000000000001 29.500000000000004 12305.500000000002 1860.5000000000002
decision_type=2 2 2 2 2 2 2 2 2 2 2 2 2 2 2 2 2 2 2 2 2 2 2 2 2 2 2 2 2 2
left_child=1 4 5 7 14 16 -3 26 10 15 20 -5 17 28 -1 -9 -2 -6 -15 -11 -8 -10 -13 -18 -7 -16 29 -14 -12 -4
right_child=2 6 3 11 12 24 8 9 21 19 13 22 27 18 25 -17 23 -19 -20 -21 -22 -23 -24 -25 -26 -27 -28 -29 -30 -31
leaf_value=0.23774195950346522 0.14658416487451123 0.15884554602930612 0.1438105431961729 0.14083526846350711 0.14877723404262391 0.01687538214200834 0.087270897579296361 -0.010657741112889333 0.085554347810831849 -0.074161927404296057 0.14073013370208021 0.14575195332824376 0.034898804616948755 0.28873319429988764 0.18358487883655039 -0.051387482424493605 0.095228292167968215 0.059066716016008713 0.040418555205334994 -0.038335880251683996 0.029400992503591135 0.21037227842453726 -0.0018161738044979231 0.025415773153003914 -0.033734163227677492 0.097724126057313981 -0.028988383777091259 0.11090212541393341 -0.013052944497286757 0.0046688863144708978
leaf_weight=256.58979491889477 135.00303028523922 198.13903726637363 28.05824176967144 121.31523212790489 412.20299927890301 416.24095100164413 380.98717518150806 943.92035311460495 325.01876610517502 3625.0556092113256 22.337892919778824 36.228758692741394 320.59209512174129 15.659296467900274 283.99167332053185 1519.0252854824066 227.00475457310677 168.97930718958378 317.7593292593956 761.51943154633045 556.36298023164272 56.720789641141891 309.94619634747505 354.00902804732323 673.61947512626648 125.91882753372192 1041.959349244833 146.52644115686417 1270.2916497439146 597.92518594861031
leaf_count=1594 950 1315 204 818 2844 3176 2762 7314 2296 28830 167 246 2280 113 1904 11810 1653 1187 2335 6008 4168 364 2343 2602 5177 848 8137 1019 9546 4527
internal_value=0 0.0718261 -0.0327152 -0.0431531 0.130738 0.0192174 0.0396869 -0.0480814 0.0316703 -0.0563767 0.020884 0.0466383 0.0941961 0.00241524 0.188213 -0.0357779 0.070395 0.122694 0.0520809 -0.0679424 0.0529223 0.1041 0.0136275 0.0526918 -0.0144053 0.15721 -0.0140161 0.0587396 -0.0103954 0.0109056
internal_weight=0 4858.08 10790.8 8984.95 1714.8 1805.88 3143.28 8517.46 2945.14 6849.52 2563.4 467.49 1048.3 1626.05 666.5 2462.95 716.017 581.182 333.419 4386.58 937.35 381.74 346.175 581.014 1089.86 409.911 1667.94 467.119 1292.63 625.983
internal_count=118537 34742 83795 70237 11676 13558 23066 66830 21751 53962 19091 3407 7330 12161 4346 19124 5205 4031 2448 34838 6930 2660 2589 4255 8353 2752 12868 3299 9713 4731
is_linear=0
shrinkage=0.1


Tree=2
num_leaves=31
num_cat=0
split_feature=605 614 250 582 250 592 595 594 573 594 250 263 263 491 263 599 263 269 249 592 577 167 573 577 263 275 573 593 594 157
split_gain=2884.45 672.946 511.834 384.084 314.358 257.335 201.879 152.877 151.169 140.7 121.716 115.448 113.784 110.535 104.234 99.124 93.2234 86.08 72.6155 70.0947 66.8462 65.4769 58.2113 56.3586 53.4806 52.4785 63.7975 51.2979 51.2556 60.262
threshold=20.500000000000004 8.5000000000000018 2880.5000000000005 503159.00000000006 2525.5000000000005 206115.50000000003 16604.000000000004 248779.00000000003 29.500000000000004 183881.50000000003 1915.0000000000002 129.50000000000003 120.50000000000001 1.0000000180025095e-35 129.50000000000003 1.5000000000000002 134.50000000000003 2301.5000000000005 20.500000000000004 18421.500000000004 62318.500000000007 562476.00000000012 29.500000000000004 53956.000000000007 120.50000000000001 271.50000000000006 29.500000000000004 23734.500000000004 30230.000000000004 665.00000000000011
decision_type=2 2 2 2 2 2 2 2 2 2 2 2 2 2 2 2 2 2 2 2 2 2 2 2 2 2 2 2 2 2
left_child=1 6 7 5 14 8 20 22 12 18 23 -5 -4 -9 -3 21 -7 -11 27 -10 -1 -12 -2 -8 -20 26 -19 -6 -13 -30
right_child=2 4 3 11 9 16 10 13 19 17 15 28 -14 -15 -16 -17 -18 25 24 -21 -22 -23 -24 -25 -26 -27 -28 -29 29 -31
leaf_value=0.35505888468897273 0.042069147403070717 0.13502345342529265 0.00309728654794824 0.12370343163345005 0.17837824518591522 -0.040743278034233395 0.29783733084646652 0.10861609529408263 0.090283081448629315 -0.028911141567820417 0.089591784494504056 0.14642063132688166 -0.047897969897106131 -0.016880347061876522 0.058123923971980546 0.024955114874215568 -0.068783190161756561 -0.0033118249349211545 0.064020535062103909 -0.00032906246525463134 0.16874834312668366 0.22193802994033807 0.10708121003617228 0.13689251486902343 0.015438133143444045 0.14907244457760102 0.053066179813525127 0.07010951607305585 0.40041268382899303 0.0018148329860201856
leaf_weight=20.368066653609276 374.17117453366518 347.13322569429874 559.36393631249666 138.19432762265205 56.04428443312645 1909.4895151779056 23.501578211784363 79.006189003586769 93.073219574987888 592.61620378494263 640.58350072801113 28.199610516428947 2009.0764962434769 628.5279843583703 358.08859346807003 262.31196470558643 3128.0345626622438 602.56837253272533 365.28203213214874 1031.6789571642876 353.21262735128403 39.698862120509148 217.9523628205061 293.15772187709808 596.77473264932632 30.388185858726501 300.97113117575645 199.67923930287361 3.8353596627712241 342.78682765364647
leaf_count=114 2715 2223 4293 860 357 15167 140 586 693 4423 4216 188 16342 4928 2413 1774 25959 4484 2468 7976 2091 248 1515 1815 4277 172 2150 1377 27 2546
internal_value=0 0.0614607 -0.0302518 -0.0385134 0.0364258 -0.0434546 0.11435 0.0285085 -0.0234038 0.0211228 0.095198 0.0455774 -0.036792 -0.0028669 0.0959764 0.0771782 -0.0581546 0.000899167 0.046474 0.00716909 0.178906 0.097315 0.0659992 0.148837 0.0338843 0.0198151 0.0154678 0.0938377 0.0167729 0.0062253
internal_weight=0 5082.38 10543.4 9243.73 3449.55 8730.72 1632.83 1299.66 3693.19 2744.32 1259.25 513.016 2568.44 707.534 705.222 942.594 5037.52 1526.54 1217.78 1124.75 373.581 680.282 592.124 316.659 962.057 933.928 903.54 255.724 374.822 346.622
internal_count=118537 34742 83795 74051 24344 70430 10398 9744 29304 19708 8193 3621 20635 5514 4636 6238 41126 11229 8479 8669 2205 4464 4230 1955 6745 6806 6634 1734 2761 2573
is_linear=0
shrinkage=0.1


Tree=3
num_leaves=31
num_cat=0
split_feature=614 250 249 614 582 593 263 159 596 269 573 603 596 393 578 263 594 582 595 588 490 275 612 592 573 574 387 159 249 243
split_gain=2296.37 566.117 448.307 292.289 282.95 211.329 192.79 129.01 123.325 118.117 111.984 105.648 95.5494 87.9331 73.723 70.986 68.5081 66.4548 63.8642 58.918 58.119 56.7673 53.5987 53.2687 51.2785 50.9205 50.4571 49.9599 49.8848 49.5503
threshold=20.500000000000004 2525.5000000000005 18.500000000000004 8.5000000000000018 503159.00000000006 115921.00000000001 120.50000000000001 112228.50000000001 31115.000000000004 6451.5000000000009 29.500000000000004 5.5000000000000009 417133.00000000006 3.5000000000000004 65698.000000000015 129.50000000000003 179129.50000000003 101419.50000000001 164832.00000000003 31931.000000000004 1.0000000180025095e-35 37.500000000000007 2.5000000000000004 216301.00000000003 29.500000000000004 29.500000000000004 3.5000000000000004 24234.000000000004 20.500000000000004 223090.00000000003
decision_type=2 2 2 2 2 2 2 2 2 2 2 2 2 2 2 2 2 2 2 2 2 2 2 2 2 2 2 2 2 2
left_child=1 8 5 11 6 25 9 26 -1 17 18 27 24 16 -10 -6 28 -4 -8 -11 -16 -22 -17 -12 -7 -2 -5 -3 -9 -18
right_child=2 3 4 7 15 12 10 13 14 19 23 -13 -14 -15 20 22 29 -19 -20 -21 21 -23 -24 -25 -26 -27 -28 -29 -30 -31
leaf_value=0.14605816410316455 0.054929442859810454 0.1675060942787871 -0.00096183719076423958 0.032308074164643104 0.094735050923771325 0.0027315824314737714 -0.036780579130919026 0.072532965713291681 0.15073217444211695 0.067711240929931416 0.0061325078955115639 0.033841181294398857 -0.02931115458521277 0.11529739053040655 0.1132237195290422 0.093217032047473655 -0.037078109902672178 -0.050238006400290872 -0.069175254678496986 -0.0065850870792592171 0.049197731254303767 0.22651104683467982 -0.0094774603659134871 -0.044497953224516544 0.055856642782488253 0.13326757332172728 0.087224028959770591 0.088684413748854399 0.012081563091098146 0.0020809828130920398
leaf_weight=478.89262856543064 204.46684950590134 92.282466977834702 342.94198686629534 424.33485896140337 143.35816718637943 475.74495046585798 749.52757910639048 165.94242311269045 140.83123207837343 118.61004716902971 359.39048436284065 384.16279390454292 638.17120152711868 70.403777897357941 244.36933860182762 62.962602034211159 507.95983550697565 1355.2402671948075 3235.9836290031672 1066.2483679503202 554.16545693576336 18.663846790790558 263.59410470724106 492.65844178199768 293.95853580534458 139.64362274110317 276.22345928102732 625.23315118253231 769.56073153018951 888.06416273862123
leaf_count=2553 1376 545 2646 2966 848 3608 6189 1086 862 902 2821 2447 5057 451 1403 446 3846 11098 28267 8322 3641 103 1947 4200 2139 891 1922 3843 5431 6681
internal_value=0 0.050435 -0.0294427 0.0319147 -0.0392636 0.0164697 -0.043849 0.0162024 0.104622 -0.0233797 -0.0560482 0.0761627 -0.000700674 0.00518958 0.0839091 0.0360747 0.00186472 -0.0402869 -0.063083 0.000852334 0.0723932 0.0549749 0.0103228 -0.0231422 0.0230206 0.0867199 0.0539609 0.098822 0.0228046 -0.0121675
internal_weight=0 5641.09 9942.5 4204.17 8190.52 1751.99 7720.6 3102.49 1436.92 2883.04 4837.56 1101.68 1407.87 2401.93 958.03 469.915 2331.53 1698.18 3985.51 1184.86 817.199 572.829 326.557 852.049 769.703 344.11 700.558 717.516 935.503 1396.02
internal_count=118537 37780 80757 29218 67686 13071 64445 22383 8562 22968 41477 6835 10804 17495 6009 3241 17044 13744 34456 9224 5147 3744 2393 7021 5747 2267 4888 4388 6517 10527
is_linear=0
shrinkage=0.1


Tree=4
num_leaves=31
num_cat=0
split_feature=605 249 159 594 270 177 263 612 595 250 592 490 582 263 573 611 491 578 379 588 593 608 578 609 573 490 491 592 159 263
split_gain=1850.53 404.496 399.502 238.025 199.031 179.224 170.226 147.616 100.222 99.1957 90.2119 88.1887 81.9485 80.1116 77.1176 68.326 65.0121 64.9342 59.7618 59.6622 56.9229 56.1061 56.093 55.7043 52.3322 49.0581 48.1474 45.397 44.1474 43.4044
threshold=20.500000000000004 21.500000000000004 79917.000000000015 188556.50000000003 7741.5000000000009 613218.00000000012 120.50000000000001 2.5000000000000004 299237.00000000006 2949.5000000000005 521927.50000000006 1.0000000180025095e-35 503159.00000000006 120.50000000000001 29.500000000000004 1.5000000000000002 1.0000000180025095e-35 43464.500000000007 4.5000000000000009 30880.500000000004 18116.500000000004 1.5000000000000002 29984.500000000004 1.5000000000000002 29.500000000000004 1.0000000180025095e-35 1.0000000180025095e-35 18421.500000000004 173309.50000000003 120.50000000000001
decision_type=2 2 2 2 2 2 2 2 2 2 2 2 2 2 2 2 2 2 2 2 2 2 2 2 2 2 2 2 2 2
left_child=2 3 9 15 7 6 11 -3 24 -1 13 -4 16 26 25 -2 -6 -18 -11 -16 -13 -7 -17 -22 -9 -8 -5 -19 -15 -29
right_child=1 4 5 10 12 21 14 8 -10 18 -12 20 -14 28 19 22 17 27 -20 -21 23 -23 -24 -25 -26 -27 -28 29 -30 -31
leaf_value=0.1203324453866367 0.15587340572149791 0.047329704574483919 0.1279179775412366 0.13663208231585211 0.086167928495490487 0.091042896297523046 0.0701943230116302 -0.044433486689864903 -0.062025722885932215 0.057767143624867505 0.093739250985826361 0.10967658719320597 0.066745953556241772 0.002847962188466854 0.18885700770097108 0.10615828602001043 0.024920716213263028 0.052800621199952824 0.15364386682480158 0.031779223993478066 0.0020176573547655316 0.036449062059147268 0.033000784688241865 0.050081747572303895 -0.0094874123862130517 -0.012429963686354737 0.0048437610088284833 -0.01018244953630245 -0.045669053332061428 -0.042699120753967708
leaf_weight=668.42721696197987 61.427414119243622 157.3579713627696 125.02871689200401 28.995406255125999 59.148254938423634 538.10962589085102 75.483317717909813 1348.376520767808 3166.2301138937473 665.13735730946064 77.571227014064789 104.80669678747654 122.92892806231976 246.85047274082899 26.151576161384583 127.42815732955933 277.09172024577856 68.458808653056622 72.055461421608925 320.86117319017649 382.21451985836029 289.53013601899147 590.40011673420668 653.23294387757778 628.15117163211107 1497.6016577780247 631.05246569961309 666.09109741449356 780.71160380542278 1069.8516033887863
leaf_count=3609 387 1153 660 197 413 3043 420 11404 28006 4179 524 594 810 2005 153 844 2235 538 442 2178 2610 1746 4085 4332 4905 10776 4899 5262 6588 9540
internal_value=0 -0.0258733 0.0465551 0.00861669 -0.0374758 0.0304852 0.019713 -0.0480768 -0.050996 0.0924343 -0.011705 0.0481904 -0.0126537 -0.0165518 0.000947344 0.0546497 -0.0172133 -0.020151 0.0671384 0.0436169 0.0394483 0.0719445 0.0459876 0.0323399 -0.0333274 -0.0084653 0.0106331 -0.0270724 -0.0340138 -0.0302223
internal_weight=0 10108.1 5418.64 2544.44 7563.69 4013.02 3185.38 5300.12 5142.76 1405.62 1765.18 1265.28 2263.57 1687.61 1920.1 779.256 2140.64 2081.49 737.193 347.013 1140.25 827.64 717.828 1035.45 1976.53 1573.08 660.048 1804.4 1027.56 1735.94
internal_count=118537 83795 34742 19529 64266 26512 21723 45468 44315 8230 14213 8196 18798 13689 13527 5316 17988 17575 4621 2331 7536 4789 4929 6942 16309 11196 5096 15340 8593 14802
is_linear=0
shrinkage=0.1


Tree=5
num_leaves=31
num_cat=0
split_feature=605 249 160 583 594 270 249 177 596 204 612 608 263 194 250 573 0 588 578 167 573 159 263 582 610 263 263 577 175 600
split_gain=1499.77 353.778 344.756 208.432 145.548 127.274 123.149 116.785 114.016 93.7741 85.7518 83.8155 82.6639 69.4956 63.2421 63.1904 54.9845 52.3351 49.9302 48.0815 50.77 46.5001 45.5097 45.4608 43.0474 39.132 36.7266 35.9692 35.4594 33.4125
threshold=21.500000000000004 16.500000000000004 139372.50000000003 162383.00000000003 85868.000000000015 7741.5000000000009 9.5000000000000018 128674.00000000001 354455.00000000006 16041.000000000002 2.5000000000000004 1.5000000000000002 125.50000000000001 30460.500000000004 1357.5000000000002 29.500000000000004 1646.5000000000002 8104.5000000000009 43464.500000000007 562476.00000000012 29.500000000000004 77703.000000000015 134.50000000000003 503159.00000000006 1.5000000000000002 134.50000000000003 129.50000000000003 12382.500000000002 358077.50000000006 1.5000000000000002
decision_type=2 2 2 2 2 2 2 2 2 2 2 2 2 2 2 2 2 2 2 2 2 2 2 2 2 2 2 2 2 2
left_child=2 8 6 10 7 15 -1 22 21 -6 -3 13 -12 -8 -7 25 27 -15 -16 20 -11 -2 -4 -20 -17 -5 -10 -14 -19 -22
right_child=1 3 4 5 9 14 11 -9 26 19 12 -13 16 17 18 24 -18 28 23 -21 29 -23 -24 -25 -26 -27 -28 -29 -30 -31
leaf_value=0.11827476882372306 0.087263286318909686 0.075743281329374718 0.059008982303186512 -0.04075135417649367 -0.011793773322573239 0.074584631649566011 0.041484503638063726 0.10328109515398708 0.019723529277567653 0.0072962999358626062 0.014852291459128007 0.025708402661319896 0.10470094395858148 0.22515413428328965 0.033977518356848188 -9.5928991635487219e-05 -0.046019296805259756 0.074815255771433942 -0.032931023330220563 0.1054642896973894 0.012227106283077372 0.03208295964066589 0.0066519531207818996 0.057937138689409008 -0.044139437828382956 -0.068340984160281462 -0.031903993254309426 -0.010396727767994204 0.13054921068896327 0.069438989315009747
leaf_weight=404.67495159804821 212.11803626269102 118.10056213289499 289.21627422422171 682.47794833779335 1326.7649036422372 67.407957084476948 501.03237644582987 306.97801941633224 227.9371242672205 894.00933185964823 740.53460504859686 577.77454851567745 28.470315396785736 27.058424532413483 135.14838103950024 275.86958973109722 702.48877164721489 703.59321640431881 1447.6994990557432 70.981427125632763 159.99993830174208 545.33693521469831 389.73634737730026 57.233746089041233 1134.6045248135924 2083.6343417912722 348.40348599851131 586.25685205310583 136.26171977818012 281.98175153136253
leaf_count=2030 1364 797 1682 5892 9583 506 3164 1746 1720 6207 5520 3592 237 144 1105 2244 6079 4085 12713 395 1059 3683 2548 368 9975 19776 2851 4903 792 1777
internal_value=0 -0.0256733 0.0381025 -0.0335678 0.0191582 -0.0433467 0.0680831 0.0520969 0.0220322 0.00727878 -0.0071229 0.0576442 -0.0118788 0.0711328 -0.0203449 -0.0527504 -0.026907 0.088268 -0.0242465 0.0252641 0.021003 0.0475357 0.0289547 -0.0294752 -0.0355251 -0.0615338 -0.0114858 -0.00506612 0.0838578 0.048728
internal_weight=0 9393.72 6070.06 8059.93 3719.67 5884.08 2350.4 985.931 1333.8 2733.74 2175.85 1945.72 2057.75 1367.95 1707.49 4176.59 1317.22 866.913 1640.08 1406.97 1335.99 757.455 678.953 1504.93 1410.47 2766.11 576.341 614.727 839.855 441.982
internal_count=118537 79733 38804 70115 24997 52579 13807 5976 9618 19021 17536 11777 16739 8185 14692 37887 11219 5021 14186 9438 9043 5047 4230 13081 12219 25668 4571 5140 4877 2836
is_linear=0
shrinkage=0.1


Tree=6
num_leaves=31
num_cat=0
split_feature=614 614 592 592 249 250 276 577 603 582 269 249 263 573 160 594 490 263 577 390 573 582 159 573 160 275 263 578 577 593
split_gain=1224.38 333.07 275.366 225.118 186.807 148.096 112.769 96.2131 103.549 93.5394 82.2232 66.2447 66.2166 64.5024 62.757 59.2384 52.8407 49.7809 48.8528 52.2656 48.1151 43.8702 43.2062 42.8941 41.7196 41.1871 38.874 37.8906 37.7484 39.9759
threshold=21.500000000000004 9.5000000000000018 521927.50000000006 206115.50000000003 23.500000000000004 2525.5000000000005 1819.5000000000002 21670.000000000004 5.5000000000000009 23893.500000000004 2358.5000000000005 28.500000000000004 120.50000000000001 29.500000000000004 48894.000000000007 83852.000000000015 1.0000000180025095e-35 132.50000000000003 37214.500000000007 3.5000000000000004 29.500000000000004 503159.00000000006 37527.500000000007 29.500000000000004 141745.50000000003 16.500000000000004 134.50000000000003 67313.500000000015 29779.000000000004 31902.500000000004
decision_type=2 2 2 2 2 2 2 2 2 2 2 2 2 2 2 2 2 2 2 2 2 2 2 2 2 2 2 2 2 2
left_child=1 7 3 4 9 28 16 -1 14 -2 15 25 -6 26 -9 -7 -5 -11 -12 20 22 -10 -20 -14 -22 -4 -8 -18 -3 -30
right_child=2 5 11 6 12 10 13 8 21 17 18 -13 23 -15 -16 -17 27 -19 19 -21 24 -23 -24 -25 -26 -27 -28 -29 29 -31
leaf_value=0.16519676569039227 0.097192737176028526 0.12646615791549456 0.075974497551166129 0.083221993589792598 -0.0045342468458670487 0.028635674375298667 -0.039199077953433567 0.10686999053461269 0.024014011100015754 0.039455859789966449 0.079073949281327313 0.015260260250549249 -0.047067539013542048 -0.033958272116124372 0.060655155579839359 -0.02524990625046554 0.036678612448045517 -0.0066250093529854771 0.052183197673770033 0.069478096572814702 0.06934832344967061 0.20652277716577078 -0.0071692638443680221 -0.0012952071925635428 0.015315111174923729 0.21291420182130183 -0.068466194218587406 -0.026542435653993821 0.093576533857826952 0.035945154156406443
leaf_weight=87.203039094805717 147.84828926622868 62.827919214963913 180.28007596731186 53.837441235780716 861.83045168966055 255.90998770296574 600.90430649369955 405.46719393134117 718.53576804697514 391.20221228152514 121.65806376188993 239.71137661486864 1227.307459153235 1329.8571934476495 1067.219890601933 1006.0134020522237 107.99136050790548 585.01318008452654 136.34247473627329 157.53959650546312 202.79432372748852 13.416424229741095 1221.3280036151409 245.7260085940361 483.79011724889278 25.010588794946671 1854.3252744153142 776.08623611181974 146.02886145561934 684.70648731291294
leaf_count=425 1030 338 1168 362 6786 1739 5288 2008 4113 2683 833 1659 11504 11786 5939 7782 891 4582 888 1007 1275 71 9066 1968 3300 143 18316 6746 742 4099
internal_value=0 0.0311695 -0.0256423 -0.0298089 -0.0104261 0.015304 -0.044004 0.0621753 0.0581004 0.0230674 0.00622625 0.0509657 -0.0265507 -0.0516958 0.0733792 -0.0143223 -0.0129626 0.0118411 0.0173866 0.0139782 0.00970109 0.0273593 -0.00120886 -0.039432 0.0312747 0.0926579 -0.0613032 -0.0188199 0.0517281 0.0460758
internal_weight=0 6770.78 8626.93 8181.93 3458.93 4478.94 4723 2291.84 2204.64 1124.06 3585.38 445.002 2334.86 3785.09 1472.69 1261.92 937.915 976.215 2323.45 2201.79 2044.25 731.952 1357.67 1473.03 686.584 205.291 2455.23 884.078 893.563 830.735
internal_count=118537 43625 74912 71942 28553 31069 43389 12556 12131 8295 25890 2970 20258 35390 7947 9521 7999 7265 16369 15536 14529 4184 9954 13472 4575 1311 23604 7637 5179 4841
is_linear=0
shrinkage=0.1


Tree=7
num_leaves=31
num_cat=0
split_feature=614 250 249 614 582 596 270 0 593 602 592 263 578 592 582 605 578 393 573 610 263 594 263 263 263 161 490 263 335 70
split_gain=993.937 261.13 230.799 138.919 136.694 129.045 111.734 77.4269 69.8665 68.8976 63.8789 61.544 60.4419 61.4641 60.2694 57.9285 51.5493 50.4963 48.5568 46.0024 45.8356 45.6249 44.6214 43.3878 41.1414 37.6827 37.4882 34.5234 32.5304 32.3202
threshold=21.500000000000004 2525.5000000000005 21.500000000000004 8.5000000000000018 503159.00000000006 427758.50000000006 7741.5000000000009 1635.5000000000002 23734.500000000004 2.5000000000000004 129789.00000000001 129.50000000000003 68165.000000000015 15122.500000000002 503159.00000000006 7.5000000000000009 38569.000000000007 1.0000000180025095e-35 29.500000000000004 1.5000000000000002 129.50000000000003 92668.500000000015 120.50000000000001 120.50000000000001 120.50000000000001 612838.00000000012 1.0000000180025095e-35 291.50000000000006 2.5000000000000004 758.50000000000011
decision_type=2 2 2 2 2 2 2 2 2 2 2 2 2 2 2 2 2 2 2 2 2 2 2 2 2 2 2 2 2 2
left_child=1 12 5 9 6 8 10 21 -2 17 -4 -9 -1 -14 16 -15 -11 -3 24 -7 -6 -5 -10 -12 -8 -13 -17 -25 -28 -23
right_child=2 3 4 7 20 19 18 11 22 14 23 25 13 15 -16 26 -18 -19 -20 -21 -22 29 -24 27 -26 -27 28 -29 -30 -31
leaf_value=0.10078619471505626 0.11029582436992356 0.055196304638927933 -0.025261306297899445 0.051880810704028973 0.075044231095341168 0.017103352034436581 0.0044508364569164792 0.014616206695852993 0.038447997462250361 0.090982682545249063 -0.038925662396775078 -0.021331507532927327 0.1215772572352497 0.077341553498131835 0.18757188825599322 0.065182457848268802 0.014021250318647472 0.13028403809295894 0.0073310373520816281 -0.039347044450376588 0.00066435950424658264 0.056049403164473127 0.0011774938047822816 -0.078691683170506441 -0.03898430081515461 0.055792237967002202 0.0091744982460736646 -0.051123913528312193 0.064930220358007149 0.0056851413929865898
leaf_weight=310.76569293439388 84.870754420757294 297.68323542177677 1055.463065803051 441.81143536418676 121.78348723053932 184.55143885314465 291.49947027117014 1014.6897005438805 550.43668138235807 99.417958244681358 1186.0259710475802 1341.4744883328676 117.36401963233948 410.78309442102909 23.066752359271049 251.11894851922989 698.54645745456219 128.1028293967247 583.81741573661566 662.87079122662544 259.15357141196728 150.01082802563906 771.415373057127 822.21770974248648 865.69780492782593 66.493067748844624 543.55915779620409 1015.0922379121184 129.59108977764845 846.0043651163578
leaf_count=1529 468 1594 9428 2838 663 1490 2315 6797 3711 517 10900 10186 541 1958 118 1269 3954 652 4757 5913 1898 1061 5945 8689 8410 384 3205 10325 751 6271
internal_value=0 0.0275791 -0.0236288 0.0161243 -0.0335905 0.00377387 -0.0373891 0.00675155 0.0223444 0.0451447 -0.0464417 -0.00415864 0.0607595 0.0521952 0.0282163 0.0460959 0.0236098 0.0777873 -0.0161809 -0.0270533 0.0244432 0.0251346 0.0166974 -0.0538359 -0.0280429 -0.0176892 0.032209 -0.0634608 0.0199083 0.0132706
internal_weight=0 6870.48 8454.9 5107.3 6200.75 2254.15 5819.81 3860.48 1406.72 1246.82 4078.8 2422.66 1763.18 1452.42 821.031 1335.05 797.964 425.786 1741.01 847.422 380.937 1437.83 1321.85 3023.34 1157.2 1407.97 924.269 1837.31 673.15 996.015
internal_count=118537 43625 74912 34372 57385 17527 54824 27537 10124 6835 39342 17367 9253 7724 4589 7183 4471 2246 15482 7403 2561 10170 9656 29914 10725 10570 5225 19014 3956 7332
is_linear=0
shrinkage=0.1


Tree=8
num_leaves=31
num_cat=0
split_feature=605 250 159 583 263 596 573 176 263 583 590 593 0 263 578 577 3 276 156 491 592 611 275 250 379 590 490 578 582 604
split_gain=815.838 256.222 198.581 141.615 92.6137 92.5564 71.7991 69.3945 67.6785 63.4904 60.9241 55.1128 54.7031 54.5258 48.6458 47.1637 46.9804 40.4602 41.0172 38.8838 38.8706 37.5089 37.4228 36.2923 36.1386 34.417 33.0768 32.9557 31.9699 58.3838
threshold=21.500000000000004 3838.5000000000005 105404.00000000001 162383.00000000003 129.50000000000003 425115.50000000006 29.500000000000004 609683.50000000012 136.50000000000003 5660.5000000000009 10198.000000000002 14021.500000000002 1642.5000000000002 162.50000000000003 28643.500000000004 32916.500000000007 100589.50000000001 4013.5000000000005 13329.500000000002 1.0000000180025095e-35 521927.50000000006 1.5000000000000002 817.50000000000011 2223.5000000000005 4.5000000000000009 464429.50000000006 1.0000000180025095e-35 50343.500000000007 495234.50000000006 7.5000000000000009
decision_type=2 2 2 2 2 2 2 2 2 2 2 2 2 2 2 2 2 2 2 2 2 2 2 2 2 2 2 2 2 2
left_child=2 5 10 9 11 6 23 12 20 -3 -1 -4 14 -10 -6 -13 -12 18 -11 -8 27 -20 -9 -2 -18 -14 -7 -5 -17 -30
right_child=1 3 4 8 7 26 19 22 13 17 16 15 25 -15 -16 28 24 -19 21 -21 -22 -23 -24 -25 -26 -27 -28 -29 29 -31
leaf_value=0.12189989433155229 0.032806720681721281 0.10312145034753457 0.095967369150342263 0.013226553702056608 0.10076661879070102 0.052704933905014045 0.14557508741044928 0.028404969334894337 -0.064058651872793498 0.046104084232319646 0.062111809707863813 0.10710733658379581 -0.032036115531889751 -0.036470728941092413 0.0060850212322674235 0.016780009596940891 0.023217470995684986 -0.04921995836235396 0.040952718818433313 0.045354856805970747 0.050495506251469938 -0.014214971002234861 0.1301351538477655 -0.0090218658616617545 0.090429868401697464 0.0073567133200384098 -0.026077781124704515 -0.031351645633731599 0.026712250773699316 0.12668625451426416
leaf_weight=119.30842078477144 335.13718867301941 51.394820794463158 126.09461706131697 183.72647879272699 57.604678198695183 58.060041107237339 41.912603378295898 441.61334539204836 1262.1735435798764 148.26887692511082 1068.9739248380065 70.94541148096323 781.62454389035702 1656.84677490592 935.79783976078033 1265.7991303652525 744.1730979681015 225.72496842592955 135.85705622285604 507.13579635322094 67.002721421420574 1327.4270032271743 39.385666534304619 544.33835972845554 89.632151380181313 309.65400717407465 648.9202251881361 1703.3455109223723 221.90429989993572 79.285226553678513
leaf_count=565 2348 345 619 1559 351 393 237 2372 13442 1191 5416 398 5732 16796 6589 7797 4372 2082 977 3389 355 11046 180 4303 495 2151 5869 15401 1296 471
internal_value=0 -0.0202112 0.0267075 -0.029748 0.0146241 0.00998544 0.0246312 0.00249691 -0.0387575 -0.00650197 0.0525807 0.0322624 -0.00540284 -0.0483996 0.0115753 0.0273581 0.0482343 -0.0095685 -0.00401465 0.0530053 -0.0243539 -0.00909299 0.0367349 0.00691754 0.0304426 -0.0208583 -0.0196078 -0.0270115 0.0237475 0.0530294
internal_weight=0 8897.27 6351.8 6761.77 4329.71 2135.5 1428.52 2565.68 4873.1 1888.67 2022.09 1764.03 2084.68 2919.02 993.403 1637.93 1902.78 1837.28 1611.55 549.048 1954.07 1463.28 480.999 879.476 833.805 1091.28 706.98 1887.07 1566.99 301.19
internal_count=118537 79733 38804 63194 27956 16539 10277 17375 47553 15641 10848 10581 14823 30238 6940 9962 10283 15296 13214 3626 17315 12023 2552 6651 4867 7883 6262 16960 9564 1767
is_linear=0
shrinkage=0.1


Tree=9
num_leaves=31
num_cat=0
split_feature=614 594 614 582 263 269 582 574 250 249 608 583 490 161 592 276 159 94 573 276 379 396 249 70 587 249 588 577 588 596
split_gain=667.205 185.344 181.61 117.072 98.753 95.0062 89.4066 71.7837 66.5105 66.2725 54.7709 54.2281 51.8265 51.8622 50.4124 50.2364 47.9441 43.5925 42.7877 42.7345 38.7705 38.4378 35.9379 33.5275 32.1017 31.7731 30.9946 30.7613 29.9047 29.4498
threshold=21.500000000000004 259511.00000000003 9.5000000000000018 361355.00000000006 120.50000000000001 2875.5000000000005 23893.500000000004 29.500000000000004 4163.5000000000009 10.500000000000002 1.5000000000000002 29849.500000000004 1.0000000180025095e-35 615503.50000000012 521927.50000000006 2083.5000000000005 37527.500000000007 5897.0000000000009 29.500000000000004 684.50000000000011 2.5000000000000004 26.500000000000004 23.500000000000004 48112.500000000007 2259.5000000000005 24.500000000000004 38673.500000000007 11771.000000000002 57355.500000000007 360021.50000000006
decision_type=2 2 2 2 2 2 2 2 2 2 2 2 2 2 2 2 2 2 2 2 2 2 2 2 2 2 2 2 2 2
left_child=2 3 9 6 14 11 22 19 20 -1 17 -4 -7 16 15 28 -14 -11 -18 -6 -8 -17 -2 -12 -24 -9 -10 -13 -3 -23
right_child=1 4 5 -5 7 12 8 25 26 10 23 27 13 -15 -16 21 18 -19 -20 -21 -22 29 24 -25 -26 -27 -28 -29 -30 -31
leaf_value=0.07812294041848733 0.086222750558215253 0.076654995914941293 0.046493428096913481 0.061174587762253443 0.0076723739351851452 0.065141162020601509 0.00074507775800656672 0.015572219114685286 0.0047957921005940202 0.092279839724332569 0.041568437774336581 0.10583194360776969 0.051015574727240103 0.071302897728484624 0.07015240871458174 0.01960239029873646 -0.0017411223931949864 0.039394048458298553 0.026322505188188551 -0.054846697116235021 0.058777844995255416 -0.0001090459249228635 0.23501953076763693 -0.012124677295546159 0.0089896738968393494 -0.030948976768564319 -0.029591198620010667 -0.01819687281709504 -0.00014764934756131428 -0.041233887889616502
leaf_weight=461.59935031831264 120.0549081787467 56.622878395020962 152.39649425446987 273.48813460767269 114.96461664885283 238.8651539310813 649.31876090168953 232.6902214512229 316.63947810977697 177.15315099060535 183.24885533004999 20.295623145997524 298.24508782476187 163.37040138989687 67.355587288737297 150.03393097966909 1495.764801107347 1296.6857668086886 853.17987006902695 2232.2167957797647 139.92982187122107 210.91587004065514 6.5018008947372428 318.29788778722286 187.07992757111788 397.78312093764544 1522.3002896159887 1357.8322051763535 484.46655900031328 998.3877714574337
leaf_count=2065 720 431 935 1661 1031 1185 4642 2123 2703 872 1011 127 1684 862 349 1391 10776 6794 5316 23997 1005 1844 51 1814 1597 4002 14033 10184 4033 9299
internal_value=0 -0.0200984 0.0219542 -0.00140819 -0.03225 0.010219 -0.00722622 -0.0437375 -0.0132485 0.0440089 0.0360373 -0.0101109 0.0204227 0.0166221 -0.0148672 -0.0178804 0.0132475 0.0457508 0.0084521 -0.0517845 0.011034 -0.0281383 0.0432389 0.00749304 0.0165813 -0.0137793 -0.0236702 -0.0163703 0.00788944 -0.0340613
internal_weight=0 8160.75 7016.93 3215.31 4945.44 4579.95 2941.82 2977.65 2628.19 2436.99 1975.39 1530.52 3049.43 2810.56 1967.78 1900.43 2647.19 1473.84 2348.94 2347.18 789.249 1359.34 313.637 501.547 193.582 630.473 1838.94 1378.13 541.089 1209.3
internal_count=118537 74912 43625 26412 48500 31069 24751 31153 22383 12556 10491 11246 19823 18638 17347 16998 17776 7666 16092 25028 5647 12534 2368 2825 1648 6125 16736 10311 4464 11143
is_linear=0
shrinkage=0.1


Tree=10
num_leaves=31
num_cat=0
split_feature=614 270 250 610 596 592 578 275 594 599 176 577 573 275 263 263 0 263 249 159 592 575 602 159 224 534 167 275 578 250
split_gain=543.397 170.806 156.762 106.556 82.0369 77.568 81.6449 70.9002 69.6978 64.8806 60.2493 57.0924 55.7191 48.5599 48.2823 48.1371 45.2627 45.5112 44.8323 43.5675 37.5885 37.125 37.104 32.5677 32.3583 31.3433 29.952 29.4408 29.261 27.3583
threshold=21.500000000000004 7741.5000000000009 3649.5000000000005 1.5000000000000002 348883.50000000006 521927.50000000006 24722.000000000004 10.500000000000002 40912.000000000007 1.5000000000000002 58269.500000000007 36922.500000000007 29.500000000000004 31.500000000000004 120.50000000000001 132.50000000000003 1641.5000000000002 120.50000000000001 16.500000000000004 215045.00000000003 95169.500000000015 29.500000000000004 3.5000000000000004 22180.500000000004 100234.50000000001 3.5000000000000004 487566.00000000006 6.5000000000000009 15812.000000000002 1487.5000000000002
decision_type=2 2 2 2 2 2 2 2 2 2 2 2 2 2 2 2 2 2 2 2 2 2 2 2 2 2 2 2 2 2
left_child=2 3 9 7 18 6 -3 14 10 19 -4 -10 15 16 22 -8 -13 -18 -5 21 -14 23 24 -1 -2 -6 -25 28 -20 -17
right_child=1 5 8 4 25 -7 12 -9 11 -11 -12 13 20 -15 -16 29 17 -19 27 -21 -22 -23 -24 26 -26 -27 -28 -29 -30 -31
leaf_value=0.08100705499051998 0.052556041782296441 0.054319673129866547 0.014619224487954427 0.021353245198181492 -0.056274557557355886 0.072083814859687304 0.010661426751671249 0.05067837968183031 0.057922203078126011 0.012266020343009063 0.071743726415472373 0.010579675823664687 0.050222111348971026 0.070813983891016452 -0.029034204963475831 0.029433816759470023 0.0043263599103803936 -0.02691330992480058 0.055361909424667843 0.028092163945986477 0.0010022175949367896 0.088043534599345649 -0.0060553101106138874 0.034053402776680175 0.36342198423221839 -0.029151544926875092 0.13861411262388668 -0.042767819298018747 -0.018987152011984039 -0.033436382506449681
leaf_weight=236.63817241042852 112.45257014036179 230.52649047225714 540.62421514093876 225.31555291265249 1740.2857925742865 146.70321244001389 401.30623559653759 195.97568708658218 172.48082212358713 698.62368140369654 280.38954274356365 1399.1954455003142 200.34017242491245 91.460688292980194 757.677006714046 73.874997019767761 833.96846550703049 1057.9140968695283 57.652328260242939 725.50355510413647 687.9781945720315 323.63641304522753 264.13020171970129 687.82356210052967 3.451184317469596 564.18192089349031 28.532553166151047 621.088024482131 646.84303414076567 1097.2056729272008
leaf_count=1049 762 1688 3202 1456 18930 840 3150 1514 1091 3892 1452 9657 1364 447 7253 550 5372 7973 500 4214 5591 1543 2162 3595 23 5983 138 6001 6183 10962
internal_value=0 -0.0184514 0.0195594 -0.0292392 -0.0376675 0.0012736 -0.00258637 -0.00487514 0.00786694 0.0385046 0.0341282 0.00180204 -0.00791751 -0.00105962 -0.0144445 -0.0192279 -0.00305702 -0.0131424 -0.0198861 0.0476602 0.0121027 0.0587807 0.0146432 0.048843 0.0618125 -0.0496343 0.0382181 -0.0268957 -0.0129028 -0.0294704
internal_weight=0 8026.99 7076.79 5189.05 3855.37 2837.93 2691.23 1333.69 4376.03 2700.76 821.014 3555.02 2460.71 3382.54 1137.71 1572.39 3291.08 1891.88 1550.9 2002.13 888.318 1276.63 380.034 952.994 115.904 2304.47 716.356 1325.58 704.495 1171.08
internal_count=118537 74912 43625 50767 39053 24145 23305 11714 29194 14431 4654 24540 21617 23449 10200 14662 23002 13345 14140 10539 6955 6325 2947 4782 785 24913 3733 12684 6683 11512
is_linear=0
shrinkage=0.1


Tree=11
num_leaves=31
num_cat=0
split_feature=596 270 249 594 610 263 577 612 578 0 176 574 571 593 593 575 263 592 570 519 610 275 492 612 250 263 20 17 592 159
split_gain=460.544 204.194 157.849 108.37 87.4014 76.1237 67.1836 65.9853 65.4352 62.5675 61.0841 57.1169 40.8909 38.9396 38.3309 37.3502 40.0401 36.7836 36.4264 34.2689 33.6201 38.928 34.2128 31.7642 30.0991 29.477 29.465 29.4295 30.0466 28.5404
threshold=200127.00000000003 7741.5000000000009 23.500000000000004 123524.00000000001 1.5000000000000002 129.50000000000003 62318.500000000007 3.5000000000000004 83379.500000000015 1642.5000000000002 165826.00000000003 29.500000000000004 1721.5000000000002 48100.000000000007 18116.500000000004 29.500000000000004 120.50000000000001 502832.50000000006 742.50000000000011 17.500000000000004 1.5000000000000002 3.5000000000000004 1.0000000180025095e-35 5.5000000000000009 3614.5000000000005 162.50000000000003 34148.500000000007 721.00000000000011 502832.50000000006 24234.000000000004
decision_type=2 2 2 2 2 2 2 2 2 2 2 2 2 2 2 2 2 2 2 2 2 2 2 2 2 2 2 2 2 2
left_child=2 3 6 14 13 20 23 -8 19 25 15 12 -9 -3 -2 16 -4 -13 -10 -6 21 -5 -23 -1 -22 -7 -20 -15 -29 -26
right_child=1 4 10 5 8 9 7 11 18 -11 -12 17 -14 27 -16 -17 -18 -19 26 -21 24 22 -24 -25 29 -27 -28 28 -30 -31
leaf_value=0.11094555410057567 0.14196341516106195 0.10056067167647174 0.010093707957810703 0.067486133351602681 -0.013284671417128347 -0.052979942408999982 0.050259731535197638 0.028227272842776676 0.041061410720564635 -0.05282784645486327 0.028382790395687165 0.036478200541832005 -0.016844941709743998 -0.02189982742255717 0.024755159363087711 0.019617230645808004 -0.019525153479576025 0.16265769002584662 -0.048410989220252658 0.046560841186133559 0.0075559256442750749 -0.0072905990978464202 0.32776802494440127 0.039604807391786484 0.15275826212719978 -0.018502354722766061 -0.013190977866564955 0.019010380830877801 0.062361928752923207 -0.031151587147641813
leaf_weight=170.65249417722225 33.067915394902229 69.772164434194565 714.18550022691488 85.525329142808914 140.6610856577754 307.33314149826765 1148.0681995972991 335.92145004123449 105.33686058223248 1680.7762660756707 874.36017366498709 584.90000082552433 502.20425878465176 125.85493268072605 178.59758578240871 601.68731009215117 1264.5413515940309 24.053520336747169 291.08100429177284 299.23540139943361 262.74396366626024 517.03326770663261 3.065589800477027 98.396886736154556 8.4988603815436345 1283.9483760669827 1291.2621983289719 635.495091766119 213.61925963312387 1182.1324236392975
leaf_count=862 195 411 4619 609 1203 3223 5658 1859 730 18105 4808 3159 3225 999 1388 3933 10097 115 2739 2331 2093 3914 20 552 72 12729 11199 4884 1291 11515
internal_value=0 -0.0155274 0.0199307 -0.0271075 0.00470559 -0.0298937 0.0372889 0.0323576 -0.00692583 -0.0393729 0.00553976 0.0181546 0.00122004 0.0283925 0.0430663 -0.00220048 -0.00883476 0.0414623 -0.0158793 0.0274247 -0.0148299 0.00496528 -0.00531568 0.0848548 -0.0230785 -0.0251612 -0.0196699 0.0232279 0.0299167 -0.0298388
internal_weight=0 8715.04 6318.97 5542.72 3172.32 5331.06 2864.2 2595.15 2127.58 3272.06 3454.77 1447.08 838.126 1044.74 211.666 2580.41 1978.73 608.954 1687.68 439.896 2059 605.624 520.099 269.049 1453.38 1591.28 1582.34 974.969 849.114 1190.63
internal_count=118537 79650 38887 53863 25787 52280 15430 14016 18202 34057 23457 8358 5084 7585 1583 18649 14716 3274 14668 3534 18223 4543 3934 1414 13680 15952 13938 7174 6175 11587
is_linear=0
shrinkage=0.1


Tree=12
num_leaves=31
num_cat=0
split_feature=605 276 204 593 242 578 594 599 574 491 602 605 263 249 129 580 593 575 393 588 518 564 334 549 177 160 178 574 263 161
split_gain=390.545 146.446 132.505 83.8476 69.2666 58.9581 55.88 55.6063 53.2506 53.0485 48.7097 44.3134 41.2036 40.6894 39.3822 36.3084 35.711 32.8374 34.6428 44.7189 32.2337 30.4003 28.4976 25.5577 25.3335 24.7107 24.1497 25.5075 23.6586 23.0934
threshold=22.500000000000004 2093.5000000000005 1644.0000000000002 146862.50000000003 24932.000000000004 29984.500000000004 67078.000000000015 1.5000000000000002 29.500000000000004 1.0000000180025095e-35 2.5000000000000004 7.5000000000000009 132.50000000000003 15.500000000000002 7339.0000000000009 10167.500000000002 20032.000000000004 29.500000000000004 2.5000000000000004 194479.50000000003 4.5000000000000009 20.500000000000004 25.500000000000004 11614.500000000002 149801.50000000003 67020.000000000015 11659.500000000002 29.500000000000004 125.50000000000001 47690.000000000007
decision_type=2 2 2 2 2 2 2 2 2 2 2 2 2 2 2 2 2 2 2 2 2 2 2 2 2 2 2 2 2 2
left_child=2 5 6 16 -4 -2 -1 11 12 21 -11 -6 -5 25 -10 -13 29 18 28 -20 -16 -7 -9 -8 -14 -12 -18 -28 -17 -3
right_child=1 3 4 8 7 9 23 22 14 10 13 15 24 -15 20 17 26 -19 19 -21 -22 -23 -24 -25 -26 -27 27 -29 -30 -31
leaf_value=0.024550734912348934 0.051983477868602482 -0.017317766371263355 -0.0026645643301572977 -0.019258790917526837 0.058371077258291042 -0.042309434443899008 -0.015841507513131094 0.0014695757020873306 0.11099777403477158 0.064367460003269969 0.064241236652790287 0.083401356027950124 -0.0048588507722795013 -0.018139562655172133 -0.039349870051884311 0.032094295502623563 0.27291562442502165 0.04851921091770961 -0.013533593190808475 0.13744542114712255 -0.0091699772075813733 0.091100637408218887 0.041797525943092155 0.012549772661131426 -0.051479536126324311 0.0054651995638714257 -0.021034553774143178 0.011407360018019019 0.0064293154674884313 0.067114802160561149
leaf_weight=597.14601225405931 239.27783916890621 45.92899352312088 728.30604600161314 645.50604292750359 767.96939317137003 21.007968187332153 1619.1842547506094 782.26288485527039 23.393377728760242 97.11997951567173 85.656155057251453 122.96143557876348 124.63515013456345 1250.6738042384386 544.16729386895895 597.77588142454624 3.0301921591162673 551.97682548314333 30.870471984148026 53.821831069886684 1012.1218956261873 91.364031702280045 225.80471631884575 394.27348486334085 1798.3340061828494 433.71404115110636 699.24202934652567 370.91642370074987 899.86499132961035 109.92663849890232
leaf_count=3390 1673 320 4679 6098 3498 131 11838 4777 216 640 518 617 1272 11861 5325 3321 23 3053 178 306 9616 556 1286 2855 21660 3170 6287 2726 5906 741
internal_value=0 -0.0165178 0.0157916 -0.025437 0.0257185 0.00509762 -0.00231437 0.0308437 -0.0322341 -0.000569746 -0.00458573 0.0376216 -0.0411196 -0.00836911 -0.0177868 0.0305622 -0.00249606 0.027518 0.020192 0.0824133 -0.0197226 0.0661596 0.0105029 -0.010282 -0.0484579 0.0151587 -0.00899197 -0.0097902 0.0166734 0.0422334
internal_weight=0 7596.02 7372.22 5377.2 4761.61 2218.81 2610.6 4033.31 4148.16 1979.54 1867.16 3025.24 2568.48 1770.04 1579.68 2257.27 1229.04 2134.31 1582.33 84.6923 1556.29 112.372 1008.07 2013.46 1922.97 519.37 1073.19 1070.16 1497.64 155.856
internal_count=118537 72833 45704 54284 27621 18549 18083 22942 44187 16876 16189 16879 29030 15549 15157 13381 10097 12764 9711 484 14941 687 6063 14693 22932 3688 9036 9013 9227 1061
is_linear=0
shrinkage=0.1


Tree=13
num_leaves=31
num_cat=0
split_feature=595 249 270 599 126 243 580 249 159 592 275 577 593 276 250 575 156 583 336 395 178 562 612 0 594 176 590 600 275 263
split_gain=325.702 154.263 144.332 85.7537 69.8427 64.7879 60.3153 53.9306 51.2499 44.3473 44.3263 41.7849 39.4954 39.246 38.8135 36.1725 34.009 31.3505 30.8822 30.226 29.2634 28.6763 28.568 28.4837 27.9989 27.9391 27.7641 27.42 28.6999 27.2512
threshold=248938.50000000003 28.500000000000004 7741.5000000000009 1.5000000000000002 157329.50000000003 225026.00000000003 314623.00000000006 53.500000000000007 22180.500000000004 521927.50000000006 25.500000000000004 19798.000000000004 12305.500000000002 4017.5000000000005 1422.5000000000002 29.500000000000004 181277.50000000003 187352.00000000003 3.5000000000000004 126.50000000000001 286736.00000000006 1.5000000000000002 3.5000000000000004 535.50000000000011 173999.50000000003 12267.500000000002 30461.500000000004 1.5000000000000002 2.5000000000000004 132.50000000000003
decision_type=2 2 2 2 2 2 2 2 2 2 2 2 2 2 2 2 2 2 2 2 2 2 2 2 2 2 2 2 2 2
left_child=1 3 5 8 9 7 11 24 -1 -4 13 -3 25 16 -5 20 19 -9 -17 26 29 -6 -13 -20 -2 -10 -7 28 -16 -14
right_child=2 6 4 14 21 10 -8 17 12 -11 -12 22 15 -15 27 18 -18 -19 23 -21 -22 -23 -24 -25 -26 -27 -28 -29 -30 -31
leaf_value=0.066296393373449128 0.0410354231241363 0.040464569068496388 -0.013761828438495466 0.045737875517898846 -0.013398137005309466 0.093460910667323552 0.022996262809625495 0.29398279650057435 0.035763191452860117 0.04236544203525773 0.082010983512630253 0.0044514991791887726 0.031794183949483176 -0.057581133845344051 0.042767171298165735 0.028873735473616831 -0.022618364898375019 0.033942033997573388 0.21108549508382715 0.23213668556739689 0.077170373298563744 0.032339824841994436 -0.019951229425628336 0.065053108956209652 -0.045541063234809206 0.094688459423771118 -0.0025920540410666556 0.011394211937552521 -0.030019161488504028 0.0043400764956251772
leaf_weight=452.42851105332375 38.148608699440956 155.0696155205369 1700.7011995241046 191.87316303700209 166.36935056746006 31.43648786097765 718.45834099501371 5.1494295299053183 177.16663557291031 153.47670748084784 44.823668338358402 666.5971916988492 567.6915960162878 231.40778501331806 62.12900023907423 429.66463658213615 1598.9830787032843 46.516760356724262 14.202848039567469 5.7272345051169387 77.738304242491722 778.59876075387001 1711.3977408632636 224.19150019437075 1794.2751992866397 147.4205367565155 704.01284684240818 590.00979426503181 423.02541623264551 995.68782160431147
leaf_count=2147 329 1167 14754 936 1410 290 4368 52 827 915 315 4323 3139 2748 407 2407 16016 522 71 51 436 5638 13994 1203 19327 695 6664 4021 2871 6494
internal_value=0 0.0139023 -0.0156692 0.0262114 0.00216068 -0.0267588 -0.00257739 -0.0408977 0.0352044 -0.00911598 -0.0165772 -0.0098309 0.0298634 -0.0182956 0.00430672 0.0252723 -0.0144108 0.0598596 0.0448888 0.00329577 0.0172868 0.0242873 -0.0131107 0.0737533 -0.0437387 0.0625258 0.00151369 -0.00308705 -0.0206981 0.0143092
internal_weight=0 7604.75 7299.63 4353.23 2799.15 4500.48 3251.52 1884.09 3086.19 1854.18 2616.39 2533.06 2633.76 2571.57 1267.04 2309.18 2340.16 51.6662 668.059 741.177 1641.12 944.968 2377.99 238.394 1832.42 324.587 735.449 1075.16 485.154 1563.38
internal_count=118537 49506 69031 25654 22717 46314 23852 20230 17419 15669 26084 19484 15272 25769 8235 13750 23021 574 3681 7005 10069 7048 18317 1274 19656 1522 6954 7299 3278 9633
is_linear=0
shrinkage=0.1


Tree=14
num_leaves=31
num_cat=0
split_feature=605 249 160 612 599 491 596 491 263 176 592 390 582 0 379 582 578 0 276 167 396 582 263 573 573 582 568 81 235 602
split_gain=279.222 120.945 97.291 63.8756 62.9163 64.0751 58.9745 58.4313 57.2776 51.1889 43.828 43.8028 57.0457 43.4653 40.9788 39.1394 40.3914 37.292 36.8321 36.7351 30.0512 30.8172 29.754 28.094 26.8183 26.4722 26.2771 25.8014 25.5728 25.4752
threshold=22.500000000000004 24.500000000000004 41849.000000000007 3.5000000000000004 1.5000000000000002 1.0000000180025095e-35 510584.00000000006 1.0000000180025095e-35 132.50000000000003 587655.50000000012 493492.00000000006 1.0000000180025095e-35 491095.50000000006 1642.5000000000002 3.5000000000000004 23893.500000000004 75960.000000000015 1603.5000000000002 833.50000000000011 9897.5000000000018 22.500000000000004 491095.50000000006 162.50000000000003 29.500000000000004 29.500000000000004 46692.500000000007 980.50000000000011 90326.500000000015 14036.500000000002 2.5000000000000004
decision_type=2 2 2 2 2 2 2 2 2 2 2 2 2 2 2 2 2 2 2 2 2 2 2 2 2 2 2 2 2 2
left_child=2 6 -1 14 5 -4 7 -2 18 11 15 19 17 22 -3 -9 -17 -13 -5 -7 21 -8 -10 -18 -6 -20 -14 -12 -28 -21
right_child=1 3 4 8 24 9 20 10 13 -11 27 12 26 -15 -16 16 23 -19 25 29 -22 -23 -24 -25 -26 -27 28 -29 -30 -31
leaf_value=0.038679878045700056 0.1025582059110489 0.00072159179808743224 0.057086104574597209 0.037626395248316083 -0.019437248713167321 0.04008730508173973 0.012640261523490924 0.050153241657260421 -0.056706282348462679 0.033173894424582802 0.024988605776979606 0.02654744994766153 0.054540427532229721 -0.050435011038981695 0.093838118653950309 0.023716384405729467 -0.021959723045413031 -0.0038191480487275186 0.020147336931185953 -0.025712358611174192 -0.031307288083490675 0.21140866913712322 -0.015875034076757527 0.0082842052105175576 0.0097130369049498507 -0.022457075127778725 0.27260447526551435 0.11605211174148554 -0.00011016634492672969 0.023471682770652036
leaf_weight=1243.4360858201981 66.42860596626997 384.38230104744434 316.45596984028816 127.28454088419676 991.87066940963268 118.85481037944555 55.554593555629253 164.90864741057158 220.87040300667286 812.28372088819742 72.232157953083515 558.455407589674 395.55368810147047 1292.736660413444 53.886839218437672 488.16064817458391 780.97572366893291 1466.1088615059853 161.91934651881456 778.84260612726212 585.37350735068321 9.0741153061389905 929.62150493264198 506.2296170592308 462.8965537622571 1468.7401370704174 3.5178885012865058 54.657749846577644 152.23744782805443 121.77576603740454
leaf_count=6116 367 3368 1421 990 7006 588 571 1012 2701 4008 408 3777 2397 15865 479 3677 7289 10415 1257 5212 6209 83 10228 3940 2896 14089 23 300 985 860
internal_value=0 -0.0142708 0.0131582 -0.024158 0.00802218 0.0136219 0.00220824 0.0102422 -0.0279479 0.0105013 0.00727564 0.00537894 0.0123229 -0.0378523 0.0121706 0.00355198 -0.000776682 0.00455717 -0.0141825 -0.0121661 -0.0241628 0.0405481 -0.0237138 -0.0100654 -0.0101618 -0.0182266 0.0408408 0.0642142 0.00604936 -0.019062
internal_weight=0 7423.04 7422.29 4639.44 6178.85 4724.09 2783.6 2133.59 4201.17 4407.63 2067.16 3595.35 2575.87 2443.23 438.269 1940.27 1775.37 2024.56 1757.94 1019.47 650.002 64.6287 1150.49 1287.21 1454.77 1630.66 551.309 126.89 155.755 900.618
internal_count=118537 72833 45704 48977 39588 29686 23856 16993 45130 28265 16626 24257 17597 28794 3847 15918 14906 14192 16336 6660 6863 654 12929 11229 9902 15346 3405 708 1008 6072
is_linear=0
shrinkage=0.1


Tree=15
num_leaves=31
num_cat=0
split_feature=269 243 595 577 205 582 610 70 612 592 275 612 578 574 249 0 167 616 612 159 569 263 591 70 592 637 204 537 159 176
split_gain=246.885 139.666 96.6917 84.4071 77.5154 57.6041 54.2956 46.3257 44.5523 40.9664 36.8814 34.1756 32.6171 32.4787 31.287 28.975 38.9167 27.4881 27.4064 27.1749 26.6283 25.9894 26.6143 25.923 27.5489 25.7944 25.4976 25.3943 24.5035 24.0084
threshold=7220.0000000000009 221038.00000000003 182177.50000000003 27931.500000000004 10997.000000000002 270956.50000000006 1.5000000000000002 3793.5000000000005 6.5000000000000009 68623.000000000015 39.500000000000007 3.5000000000000004 75960.000000000015 29.500000000000004 21.500000000000004 1646.5000000000002 69205.500000000015 11312.500000000002 3.5000000000000004 243139.50000000003 3076.5000000000005 132.50000000000003 138437.00000000003 21104.000000000004 511637.00000000006 62068.000000000007 290.50000000000006 6.5000000000000009 28430.500000000004 214798.50000000003
decision_type=2 2 2 2 2 2 2 2 2 2 2 2 2 2 2 2 2 2 2 2 2 2 2 2 2 2 2 2 2 2
left_child=2 9 5 8 23 14 15 17 -3 -2 13 -11 28 18 -1 16 -4 19 -9 -6 26 22 -17 -5 -25 -18 -14 -20 -8 -7
right_child=1 3 6 4 7 29 12 10 -10 11 -12 -13 20 -15 -16 21 25 -19 27 -21 -22 -23 -24 24 -26 -27 -28 -29 -30 -31
leaf_value=0.018232085844444166 0.015133201493972546 0.085590388794329175 0.13161343579049395 0.018092240193262246 0.057666627085168565 0.025961930577713739 0.16455204871009632 0.022346512058606518 0.01574615802558053 0.0051375805710051278 0.074929649375172269 -0.025852000989493945 -0.043199965271586128 0.029238567701267822 -0.014280102268005482 0.11930805934668456 -0.0043600979554925612 -0.020242745927083063 0.16612985296300009 0.012733140162630991 -0.068345763878593604 -0.035394493895944006 -0.0059610979177505104 -0.013232940241173323 0.026132196350279347 0.062185595107560492 -0.021106343121261813 -0.0041341728909497942 -0.011416019046483067 0.090420759638850726
leaf_weight=404.48819329589605 486.94661069661379 271.58664831891656 24.211863204836845 530.76043087616563 651.44779775291681 305.91229321062565 8.0460347905755025 719.66049326211214 137.60154940932989 486.37666376680136 107.54989933222532 1326.1981767192483 1168.4265954270959 1055.1349269375205 1103.4229716658592 17.94159360229969 570.16474448889494 62.834040656685829 8.8307695314288122 169.6449648141861 241.94525383040309 495.75228118896484 310.00963177531958 1262.8459533713758 206.90669685974717 64.876556433737278 944.68166049197316 1088.6509162895381 479.92473090440035 71.238684289157391
leaf_count=2298 3323 1561 180 3827 3524 1794 66 3894 986 3054 488 11879 13469 6098 8902 114 4932 406 60 1118 3319 5026 2400 10299 1283 539 10170 8104 5066 358
internal_value=0 0.0104638 -0.0157178 0.0181914 0.0151274 0.00318356 -0.0239541 0.0234002 0.0621032 -0.0106183 0.0174364 -0.0175364 -0.0320453 0.0152837 -0.0055589 -0.00844212 0.0071824 0.0435047 0.00718066 0.048383 -0.0369209 -0.0209472 0.000892142 -0.000850578 -0.00769125 0.00243829 -0.0333228 -0.00276416 -0.00851452 0.0381373
internal_weight=0 8572.98 6211.04 6273.46 5864.27 1885.06 4325.98 3863.75 409.188 2299.52 2979.83 1812.57 2843.02 2872.28 1507.91 1482.96 659.253 883.927 1817.14 821.093 2355.05 823.704 327.951 2000.51 1469.75 635.041 2113.11 1097.48 487.971 377.151
internal_count=118537 59904 58633 41648 39101 13352 45281 23692 2547 18256 18644 14933 32090 18156 11200 13191 5651 5048 12058 4642 26958 7540 2514 15409 11582 5471 23639 8164 5132 2152
is_linear=0
shrinkage=0.1


Tree=16
num_leaves=31
num_cat=0
split_feature=243 269 593 599 577 593 249 156 570 573 275 379 160 263 177 250 5 599 223 0 618 275 616 369 336 129 568 595 158 70
split_gain=206.725 127.257 74.4193 74.0222 63.067 55.6029 52.3376 46.6215 45.2745 32.7751 34.6337 32.5869 31.9111 28.7502 28.5629 28.0188 27.1254 25.8442 25.5918 24.969 24.565 23.8145 23.1264 22.9832 22.9475 26.1223 22.2731 22.2562 21.7524 26.1939
threshold=221038.00000000003 7220.0000000000009 146862.50000000003 1.5000000000000002 28496.000000000004 18116.500000000004 54.500000000000007 178833.00000000003 1817.5000000000002 29.500000000000004 48.500000000000007 3.5000000000000004 141745.50000000003 125.50000000000001 599332.00000000012 1422.5000000000002 61.500000000000007 1.5000000000000002 60411.500000000007 1642.5000000000002 52.500000000000007 6.5000000000000009 1.0000000180025095e-35 1.0000000180025095e-35 2.5000000000000004 231469.00000000003 649.50000000000011 125091.50000000001 112708.00000000001 1.0000000180025095e-35
decision_type=2 2 2 2 2 2 2 2 2 2 2 2 2 2 2 2 2 2 2 2 2 2 2 2 2 2 2 2 2 2
left_child=2 5 11 4 -3 -2 9 16 24 10 13 19 -10 -4 -14 -5 18 -9 21 20 -1 -7 28 -13 -6 -26 -20 -15 29 -17
right_child=1 3 6 15 8 7 -8 17 12 -11 -12 23 14 27 -16 22 -18 -19 26 -21 -22 -23 -24 -25 25 -27 -28 -29 -30 -31
leaf_value=-0.0018687335149176938 0.047849660471675583 0.068901253102636381 -0.016543180972300255 0.027803766689179846 0.02748592589025451 0.025525745793805277 0.055499417012580377 -0.011036988751414458 0.027030158862954529 -0.015479851713773694 0.10929809502690704 0.24552921053157781 3.0111112830699428e-05 0.0098951835950731541 0.033592497241092839 0.073571257696742262 -0.015631335788349132 -0.034139080691260211 0.0243239921703696 -0.01703844165106402 0.044320055396277848 -0.007392485796449637 -0.032628301389736131 0.033184184226795803 0.085127355817034456 0.03160503055908969 0.1381200239539942 -0.048079258958906163 -0.0079054745429105039 0.0077653510870773091
leaf_weight=452.2951348721981 175.3526364788413 286.71738696843386 464.13488885015249 311.9948260858655 721.5543335005641 444.12158885970712 75.455089256167412 1363.5077909380198 1142.2535750940442 1148.3275984451175 16.068630918860435 5.2452608421444884 1505.2242630235851 69.646879211068153 304.93869995325804 73.111874185502529 462.78232628107071 750.92580952495337 41.271871153265238 796.13548701256514 154.46905860304832 435.05089965835214 253.99280935153365 180.49641237407923 181.66739046573639 183.0935530140996 29.489662699401379 1345.0784813351929 1002.0656154826283 350.32209336012602
leaf_count=3159 968 1643 4207 1625 4048 3596 761 12594 6357 10373 86 31 11177 453 1585 458 4145 8258 330 5733 1022 3648 2191 1268 899 1013 235 16022 8318 2334
internal_value=0 0.00760896 -0.0177973 0.016237 0.0235822 -0.00711163 -0.0267711 -0.00984404 0.0203649 -0.028811 -0.0368896 -0.00018038 0.0139426 -0.0381399 0.00568401 0.000283597 0.00422132 -0.0192415 0.013893 -0.00539173 0.00988993 0.00923644 -0.00482875 0.0391807 0.0378197 0.0582616 0.0717482 -0.0452252 0.000124519 0.0191277
internal_weight=0 10019.4 4707.35 6316.94 4325.45 3702.5 3118.71 3527.15 4038.73 3043.26 1894.93 1588.64 2952.42 1878.86 1810.16 1991.49 1412.72 2114.43 949.934 1402.9 606.764 879.172 1679.49 185.742 1086.32 364.761 70.7615 1414.73 1425.5 423.434
internal_count=118537 75422 43115 41648 26722 33774 31902 32806 25079 31141 20768 11213 19119 20682 12762 14926 11954 20852 7809 9914 4181 7244 13301 1299 5960 1912 565 16475 11110 2792
is_linear=0
shrinkage=0.1


Tree=17
num_leaves=31
num_cat=0
split_feature=518 596 573 612 263 604 378 592 599 592 612 588 582 67 577 577 179 638 612 590 582 275 582 592 70 249 164 611 549 378
split_gain=182.244 120.866 99.1901 86.9698 68.0484 50.5013 49.3795 49.2618 35.2811 31.6633 46.5259 40.9451 30.2099 30.5393 27.8164 26.3002 26.7287 25.6409 25.3457 25.3271 25.2491 28.5868 24.8221 25.3073 24.6165 24.1228 23.5058 23.0862 22.6754 22.5637
threshold=4.5000000000000009 425115.50000000006 29.500000000000004 3.5000000000000004 120.50000000000001 10.500000000000002 170.50000000000003 18421.500000000004 1.5000000000000002 435313.50000000006 1.5000000000000002 34968.500000000007 491095.50000000006 9486.5000000000018 59515.500000000007 38386.500000000007 436348.50000000006 13108.500000000002 6.5000000000000009 333044.00000000006 445348.50000000006 477.00000000000006 77041.500000000015 521927.50000000006 4652.5000000000009 28.500000000000004 141008.00000000003 2.5000000000000004 10831.500000000002 33.500000000000007
decision_type=2 2 2 2 2 2 2 2 2 2 2 2 2 2 2 2 2 2 2 2 2 2 2 2 2 2 2 2 2 2
left_child=5 2 3 15 17 26 12 -4 -8 11 -11 27 13 -3 18 -2 24 -5 -6 -12 21 -16 -7 -24 -17 -13 -1 -9 -22 -14
right_child=1 6 7 4 14 22 8 9 -10 10 19 25 29 -15 20 16 -18 -19 -20 -21 28 -23 23 -25 -26 -27 -28 -29 -30 -31
leaf_value=0.015623146968992297 0.08814653428690368 -0.028971694211282664 0.071193086394363739 0.0054018803918060299 0.034278679445104314 -0.0079186828469970522 -0.010755463003851305 -0.020263065082713423 -0.03913602717762138 0.011286412906272331 -0.026439417508285663 0.021145972634541307 0.12977796143692141 0.01315837031791737 -0.023428782800662327 0.036448626605698975 0.080817519394185106 0.04009242176969096 -0.029274287352410736 0.089680454596992934 -0.036334497805247855 0.17798327761424534 -0.03587819506375696 0.0095646933626408661 0.0097534321237931904 -0.0019070080499605183 -0.014618416127609477 0.060522708412932405 0.049144650631670866 0.029153070320687487
leaf_weight=445.10982668027282 55.450531892478466 268.0362442843616 228.57653184980154 782.52643123269081 193.19980822503567 496.09955122694373 1131.4121004678309 40.248076692223549 714.73756892606616 184.85998170822859 20.685694813728333 1251.5193324238062 26.473767980933189 480.50410588830709 1895.4559658616781 453.96602642536163 66.111716002225876 292.7821876257658 92.94069941341877 204.24087116867304 46.123332835733891 7.0731441229581824 1872.2262449711561 131.13391331583261 1444.8173519149423 712.23383013904095 608.22779610753059 292.09274558722973 94.858716800808907 140.81647591665387
leaf_count=2859 286 3050 1128 5386 1527 4202 11183 217 8411 882 184 7562 189 4727 17038 2467 330 1943 857 1098 337 31 20392 892 8591 5330 4102 1665 580 1091
internal_value=0 0.00581099 0.0118031 0.00379205 -0.00596074 -0.0202048 -0.0123255 0.0266141 -0.021743 0.0228484 0.0484543 0.0182785 0.00665858 -0.0019275 -0.0155652 0.0202288 0.0183121 0.0148473 0.0136362 0.0790013 -0.0196541 -0.02268 -0.0279446 -0.0329036 0.0161358 0.0127849 -0.00183921 0.0507392 0.0211795 0.045077
internal_weight=0 11121.7 8359.76 5425.31 3404.96 3552.8 2761.98 2934.46 1846.15 2705.88 409.787 2296.09 915.831 748.54 2329.65 2020.35 1964.9 1075.31 286.141 224.927 2043.51 1902.53 2499.46 2003.36 1898.78 1963.75 1053.34 332.341 140.982 167.29
internal_count=118537 86090 57439 39373 27699 32447 28651 18066 19594 16938 2164 14774 9057 7777 20370 11674 11388 7329 2384 1282 17986 17069 25486 21284 11058 12892 6961 1882 917 1280
is_linear=0
shrinkage=0.1


Tree=18
num_leaves=31
num_cat=0
split_feature=269 283 249 249 604 608 573 613 583 577 275 275 164 612 263 507 582 393 582 223 545 637 263 160 629 70 577 344 582 5
split_gain=156.268 82.7722 68.1217 65.5382 52.6345 50.4049 44.2967 39.0632 37.408 36.4259 36.3724 31.1985 30.0176 28.5633 30.7447 28.1041 28.0046 47.8814 27.2355 26.6733 25.9048 27.1484 26.9938 25.2472 24.7155 23.8873 23.8073 23.2021 22.8162 28.9839
threshold=7220.0000000000009 3.5000000000000004 21.500000000000004 47.500000000000007 11.500000000000002 1.5000000000000002 29.500000000000004 2.5000000000000004 14450.500000000002 21443.000000000004 31.500000000000004 5.5000000000000009 125472.50000000001 3.5000000000000004 120.50000000000001 5.5000000000000009 436141.00000000006 1.0000000180025095e-35 8908.5000000000018 55743.500000000007 1632.5000000000002 48037.000000000007 113.50000000000001 28512.500000000004 82.000000000000014 1631.0000000000002 9366.5000000000018 168.50000000000003 499334.50000000006 109.50000000000001
decision_type=2 2 2 2 2 2 2 2 2 2 2 2 2 2 2 2 2 2 2 2 2 2 2 2 2 2 2 2 2 2
left_child=2 5 8 4 7 9 10 -4 -1 11 13 -2 -8 -3 -15 23 18 -18 -11 27 21 -9 -23 -7 -6 -20 -5 -10 -28 -30
right_child=1 6 3 26 24 15 12 20 19 16 -12 -13 -14 14 -16 -17 17 -19 25 -21 -22 22 -24 -25 -26 -27 28 -29 29 -31
leaf_value=0.072996931520719094 0.11333047692772778 0.0031768303558283766 0.069496145693825853 0.15141920646737772 -0.037022927062619899 0.028183006463584154 0.02949934668442868 -0.013009443893924902 -0.0069004741977569482 0.057072928299248163 0.055817360317117815 0.028576796805006723 0.00044200438638775569 0.0035737370285731703 -0.027967042550572831 0.019996013543189112 0.010258479466696779 0.062289207447638377 0.036002652709596246 0.040319565140126683 -0.04453835769218329 0.21418020762257117 0.021332554771928167 -0.014802561264700701 -0.003141636714360815 0.0078729781237836111 0.0018207392529220009 0.043190795319594959 0.047310214759263225 0.34949713394773108
leaf_weight=78.06621491163969 83.883224561810493 777.60458751767874 59.330355301499367 12.36160948127508 2013.2261225953698 164.36247368901968 564.07881654798985 1292.8042106069624 1170.1258802823722 153.12727981805801 80.226897075772285 90.067237500101328 961.56034803390503 412.16269760578871 1235.2989562638104 597.41426531225443 316.32505489140749 401.17879730835557 373.58224717527628 160.52568719908595 226.31411958858371 7.6156729981303206 154.67401391267776 810.0016155205667 241.08555730059743 1572.898960120976 430.95881017670035 100.40490062907338 77.773893933743238 3.3090359941124907
leaf_count=353 459 5012 290 120 23909 905 3792 11152 9323 759 407 469 6735 3102 12332 3966 1559 2155 2077 1247 2140 54 1346 6314 2768 9861 4624 760 527 20
internal_value=0 0.0081936 -0.0128076 -0.0189503 -0.0233132 0.0174179 -0.00224796 -0.010251 0.00558806 0.025037 -0.0104285 0.0694471 0.0111855 -0.01262 -0.0200762 0.00291901 0.0222948 0.0393505 0.0164663 0.00191081 -0.013065 -0.00816988 0.0303822 -0.00755146 -0.0333995 0.0132718 0.0142876 -0.00294196 0.010977 0.0596426
internal_weight=0 8593.77 6028.58 4519.45 3995.05 4562.84 4030.93 1740.74 1509.12 2991.06 2505.29 173.95 1525.64 2425.07 1647.46 1571.78 2817.11 717.504 2099.61 1431.06 1681.41 1455.09 162.29 974.364 2254.31 1946.48 524.403 1270.53 512.042 81.0829
internal_count=118537 59904 58633 46950 41659 28524 31380 14982 11683 17339 20853 928 10527 20446 15434 11185 16411 3714 12697 11330 14692 12552 1400 7219 26677 11938 5291 10083 5171 547
is_linear=0
shrinkage=0.1


Tree=19
num_leaves=31
num_cat=0
split_feature=243 204 610 70 584 578 336 490 276 20 537 54 507 159 97 176 577 0 335 263 20 545 110 594 175 616 263 164 274 396
split_gain=142.718 90.4641 57.1865 53.8351 48.9019 47.1037 43.2647 36.2105 31.8354 32.9547 30.903 29.9923 29.2115 29.1897 28.7638 27.5595 26.5879 26.0473 24.7348 24.6878 23.3663 23.3023 22.4369 25.5361 23.9347 21.8384 21.5483 22.6376 21.1669 20.8279
threshold=220081.50000000003 2925.0000000000005 1.5000000000000002 3793.5000000000005 77957.500000000015 28643.500000000004 2.5000000000000004 1.0000000180025095e-35 4019.5000000000005 62425.500000000007 744.50000000000011 2138.0000000000005 4.5000000000000009 232790.50000000003 68315.000000000015 587655.50000000012 62318.500000000007 1642.5000000000002 5.5000000000000009 125.50000000000001 22738.000000000004 1608.5000000000002 83769.500000000015 450873.50000000006 667461.00000000012 35.500000000000007 120.50000000000001 125472.50000000001 1761.5000000000002 52.500000000000007
decision_type=2 2 2 2 2 2 2 2 2 2 2 2 2 2 2 2 2 2 2 2 2 2 2 2 2 2 2 2 2 2
left_child=2 4 17 13 -2 11 7 12 9 22 -8 -4 -5 -3 -12 21 -14 -1 19 -19 -7 25 -6 24 -24 28 -16 -28 29 -9
right_child=1 3 5 6 8 20 10 15 -10 -11 14 -13 16 -15 26 -17 -18 18 -20 -21 -22 -23 23 -25 -26 -27 27 -29 -30 -31
leaf_value=0.013115575942385455 0.019323031453844265 0.037994375121490974 0.28889465760985311 0.00092774879268248079 -0.028626540692332947 -0.050218739040103488 0.061964605935274225 0.029898400657907515 -0.047794277565598765 0.0028723560108421128 0.066016762336331983 0.0090991471300970617 0.15281777049826628 0.0051208933983880609 0.027510806831204777 0.020544443665869966 0.042268651084927528 0.0025933536980827197 0.040401065071146859 -0.030646644209336129 -0.02421956336850728 -0.029357317010033218 0.011830013740133705 -0.027165362953487562 0.20204981964177804 -0.033218764712580437 0.030538321454404611 -0.012287328984893223 -0.0080548993582307913 -0.00013295851062581517
leaf_weight=753.4436563923955 611.52721373736858 1123.6069080643356 3.879049912095069 189.28292217850685 915.27053453028202 414.51157592609525 178.44773110374808 394.13658941537142 226.04010647535324 1294.7624587118626 111.14022139459848 310.17706911638379 24.344781875610352 355.59038564935327 526.65963887423277 484.35018548369408 204.57128808647394 392.73324234783649 83.972780425101519 518.34531604871154 2081.6053046956658 352.07218467444181 302.3518508002162 246.38697280362248 6.7627450227737418 200.23365449160337 172.35684267058969 434.81833670288324 1102.2628302834928 557.73374737799168
leaf_count=5652 3800 6531 29 907 8568 4843 1101 3034 2673 11553 549 2523 109 2679 3137 2574 960 2610 665 4704 21917 3204 2550 2663 54 1773 1255 3172 8325 4423
internal_value=0 0.00623427 -0.01511 0.0133591 -0.00644412 -0.0239447 0.00834107 0.00237603 -0.0117114 -0.00876213 0.0230459 0.012555 0.0299926 0.0300918 0.0174676 -0.00136063 0.0540253 -0.000910847 -0.0115315 -0.0163181 -0.0285371 -0.00543121 -0.0190043 -0.00315022 0.0159916 -0.00169459 0.0127087 -0.000130551 0.00137833 0.012302
internal_weight=0 10014.7 4558.67 6411.61 3603.1 2810.17 4932.41 3508.99 2991.57 2765.53 1423.42 314.056 418.199 1479.2 1244.98 3090.79 228.916 1748.49 995.051 911.079 2496.12 2606.44 1470.77 555.502 309.115 2254.37 1133.83 607.175 2054.13 951.87
internal_count=118537 75594 42943 43733 31861 29312 34523 25309 28061 25388 9214 2552 1976 9210 8113 23333 1069 13631 7979 7314 26760 20759 13835 5267 2604 17555 7564 4427 15782 7457
is_linear=0
shrinkage=0.1


Tree=20
num_leaves=31
num_cat=0
split_feature=518 573 612 263 586 348 164 159 601 20 33 537 205 582 577 264 156 608 507 583 178 592 546 160 108 5 189 577 125 250
split_gain=129.69 89.3788 90.4213 70.9133 47.9001 37.554 36.6286 35.6238 33.3121 32.3698 31.6911 31.358 28.8143 25.4223 26.4406 25.3851 24.421 24.0757 23.9482 23.2135 25.8987 22.36 21.3254 20.8322 20.6632 26.1096 20.7823 20.6178 20.5185 20.256
threshold=4.5000000000000009 29.500000000000004 3.5000000000000004 120.50000000000001 537017.00000000012 11.500000000000002 141008.00000000003 175854.00000000003 1.5000000000000002 28739.500000000004 14411.000000000002 927.50000000000011 28542.500000000004 13558.500000000002 8439.0000000000018 1789.5000000000002 24644.000000000004 1.5000000000000002 43.500000000000007 37921.000000000007 102111.00000000001 502832.50000000006 5.5000000000000009 9129.5000000000018 14074.000000000002 42.500000000000007 653014.50000000012 24299.000000000004 3913.5000000000005 1487.5000000000002
decision_type=2 2 2 2 2 2 2 2 2 2 2 2 2 2 2 2 2 2 2 2 2 2 2 2 2 2 2 2 2 2
left_child=6 2 15 16 5 19 8 21 -1 12 17 -7 -8 -13 -15 18 -4 29 22 20 -3 -5 -2 -11 25 26 -21 28 -25 -9
right_child=1 4 3 7 -6 11 9 10 -10 23 -12 13 -14 14 -16 -17 -18 -19 -20 24 -22 -23 -24 27 -26 -27 -28 -29 -30 -31
leaf_value=0.012024124269804752 0.01281213763259394 0.027085332523299963 0.035352161490838342 -0.0068437573215465973 -0.011181236566856625 0.10127850589159654 -0.056686158843762879 0.046595873366436828 -0.019072738547926366 0.096057494399088908 0.070955878166679212 0.12712673532248364 0.31935447710845155 0.16691714955273751 0.024419805805173965 -0.0013294477084487262 0.0022277594514953213 -0.038465521415597746 0.12734874189280751 0.032700607342986208 0.093275597559645915 0.069133238172974051 0.039006628268587307 0.24068781642704412 0.0025006259812770967 0.001829665244303077 -0.066703470325096603 -0.023902275436933809 0.014764965187343824 -0.019860577068610628
leaf_weight=637.67480955645442 1247.9843992032111 311.49901828914881 274.35950746387243 1148.5712667256594 522.97045312821865 85.198814138770103 330.41979448497295 48.135656490921974 749.23622203618288 15.250793054699896 33.171759247779846 28.146582141518593 2.0503383800387374 13.450628705322741 408.02843179553747 762.08688294142485 1179.097393155098 1017.2734075896442 20.783397160470486 940.59049760550261 72.959662027657032 40.087273705750704 413.86745377629995 4.2191892378032199 1040.1434080451727 475.29090619832277 21.513302393257618 1628.0356314815581 85.143845051527023 972.15571140870452
leaf_count=4833 7942 1471 1688 9547 4918 494 3639 306 7727 77 336 132 20 70 2556 4548 9215 12231 120 5996 367 244 2452 32 7084 3667 153 15365 754 10553
internal_value=0 0.00485377 -0.00179357 -0.00988873 0.0169919 0.0213294 -0.0173446 -0.0180801 -0.004775 -0.0257862 -0.0260008 0.0456526 -0.0543671 0.0351121 0.0289673 0.013812 0.00848044 -0.0275793 0.0206698 0.0167841 0.0396464 -0.00428145 0.0193356 -0.0203019 0.0132363 0.021005 0.0304779 -0.0213352 0.0254317 -0.0167253
internal_weight=0 11077.4 7157.57 4712.85 3919.79 3396.82 3452.03 3259.4 1386.91 2065.12 2070.74 534.824 332.47 449.626 421.479 2444.72 1453.46 2037.56 1682.64 2862 384.459 1188.66 1661.85 1732.65 2477.54 1437.39 962.104 1717.4 89.363 1020.29
internal_count=118537 86090 59182 44120 26908 21990 32447 33217 12560 19887 23426 3252 3659 2758 2626 15062 10903 23090 10514 18738 1838 9791 10394 16228 16900 9816 6149 16151 786 10859
is_linear=0
shrinkage=0.1


Tree=21
num_leaves=31
num_cat=0
split_feature=204 249 594 276 264 20 263 605 578 249 534 569 263 159 585 586 177 263 158 582 145 164 559 378 224 123 575 275 0 590
split_gain=107.256 65.3548 60.4902 49.172 44.6921 42.9752 39.9384 32.0058 29.2751 27.8349 27.0501 25.291 25.2855 35.9658 24.5194 23.0023 22.4535 22.3661 26.5932 20.8217 20.7954 20.4373 19.7979 19.7468 19.743 19.4605 20.4569 19.4085 19.158 19.1577
threshold=2925.0000000000005 29.500000000000004 79131.500000000015 4013.5000000000005 536.50000000000011 37258.000000000007 120.50000000000001 21.500000000000004 20012.500000000004 50.500000000000007 3.5000000000000004 328.50000000000006 162.50000000000003 17710.000000000004 72452.500000000015 165637.00000000003 77516.500000000015 125.50000000000001 24752.500000000004 46692.500000000007 116290.50000000001 141008.00000000003 4406.5000000000009 5.5000000000000009 79471.500000000015 44729.500000000007 29.500000000000004 506.50000000000006 1641.5000000000002 10198.000000000002
decision_type=2 2 2 2 2 2 2 2 2 2 2 2 2 2 2 2 2 2 2 2 2 2 2 2 2 2 2 2 2 2
left_child=2 4 15 5 20 14 29 16 -7 11 19 -9 13 -8 -4 28 -3 18 -13 -10 25 -16 -19 -11 -21 -2 -27 -15 -1 -6
right_child=1 7 3 -5 6 8 12 9 10 23 -12 17 -14 27 21 -17 -18 22 -20 24 -22 -23 -24 -25 -26 26 -28 -29 -30 -31
leaf_value=0.021720141206587138 0.055467252910230913 -0.014208137371132037 0.054362465946081663 -0.046495785856190013 0.067441803514294713 0.044325372063782675 0.049551933693053461 0.15288377255915359 0.025525077167460632 0.33314045029175149 0.0089926292044122981 0.093962420231306715 0.0088361598598024303 -0.022199053272287193 -0.012216292626278142 0.049526797296518391 0.01443753376869163 0.019597684551700738 -0.0099829078251367116 -0.019026578546411821 0.015267150242028876 -0.035302812445288441 -0.035489292863281056 0.018325054351571845 0.017381085529197395 0.013283608959124948 0.052415252286626024 0.092425793876719786 -0.0072629211306900615 0.015784830422916896
leaf_weight=406.59156087785959 339.01641668379307 378.74259548634291 38.264564368873835 455.77355881407857 75.230352491140366 117.37730490043759 80.504062995314598 8.5286362729966623 130.99033742398024 2.0135164968669406 785.63626568391919 25.634850211441517 901.1108374260366 871.62162917479873 614.6569711342454 135.84863571822643 985.96235945448279 71.426329739391804 617.33095071464777 1656.8366741910577 938.92915588989854 1019.3709013387561 753.38022088631988 190.33991315960884 163.65820408985019 422.65644468739629 195.33429848402739 15.026507213711737 519.42212394624949 1571.6207495108247
leaf_count=2461 2062 2144 240 5822 341 960 384 59 1131 20 7108 179 6497 6881 6365 861 5967 848 5614 16326 5822 10885 9069 1986 1538 2984 1186 65 3345 9387
internal_value=0 0.00687907 -0.0105698 -0.015188 0.0134659 -0.0120358 0.00679141 -0.0048708 -0.00457807 -0.0141602 -0.00667523 -0.0188222 -0.00321627 -0.0144457 -0.0247656 0.0111002 0.00648758 -0.01982 -0.00583864 -0.0129828 0.0258405 -0.0266186 -0.0307189 0.0216205 -0.0157536 0.0362142 0.0256523 -0.0202564 0.00546288 0.0181446
internal_weight=0 8444.41 6044.43 4982.56 5411.05 4526.79 3515.11 3033.36 2854.5 1668.65 2737.12 1476.3 1868.26 967.152 1672.29 1061.86 1364.7 1467.77 642.966 1951.49 1895.94 1634.03 824.807 192.353 1820.49 957.007 617.991 886.648 926.014 1646.85
internal_count=118537 61495 57042 50375 35609 44553 23555 25886 27063 17775 26103 15769 13827 7330 17490 6667 8111 15710 5793 18995 12054 17250 9917 2006 17864 6232 4170 6946 5806 9728
is_linear=0
shrinkage=0.1


Tree=22
num_leaves=31
num_cat=0
split_feature=518 336 592 269 85 596 604 578 537 263 393 605 614 263 0 578 161 70 336 249 577 407 592 167 353 581 600 98 5 285
split_gain=100.307 70.3028 50.5437 48.4944 35.2351 32.6764 32.4259 29.5348 26.9446 28.0064 26.9223 36.7717 32.4618 26.8979 30.0318 25.5825 25.311 22.8114 21.6915 25.5618 20.8786 23.1791 20.5297 20.2953 20.2237 20.1967 22.8937 21.5572 21.0685 20.0308
threshold=4.5000000000000009 2.5000000000000004 511637.00000000006 4960.5000000000009 69913.000000000015 499477.00000000006 10.500000000000002 60754.000000000007 688.50000000000011 120.50000000000001 1.0000000180025095e-35 20.500000000000004 17.500000000000004 120.50000000000001 1643.5000000000002 32984.500000000007 322649.50000000006 45048.000000000007 9.5000000000000018 46.500000000000007 7067.0000000000009 168.50000000000003 234456.00000000003 476667.00000000006 35.500000000000007 28936.000000000004 1.5000000000000002 578836.50000000012 72.500000000000014 13.500000000000002
decision_type=2 2 2 2 2 2 2 2 2 2 2 2 2 2 2 2 2 2 2 2 2 2 2 2 2 2 2 2 2 2
left_child=6 2 3 13 -5 8 25 -6 15 23 12 -12 -4 -2 -15 -3 -7 -9 19 22 21 -21 24 -10 -8 28 27 -27 -1 -13
right_child=1 5 10 4 7 16 18 17 9 -11 11 29 -14 14 -16 -17 -18 -19 -20 20 -22 -23 -24 -25 -26 26 -28 -29 -30 -31
leaf_value=0.056371802243198516 -0.0024608401969907203 0.11870297765938811 -0.010058741550308633 -0.010254987638399389 0.030344560151068997 0.18782428911674573 -0.023729490867044432 0.017199318903653688 0.025418180746637181 0.006921190635007974 0.059850493457250936 0.045962410520164636 0.06912129661755434 -0.0093897296957321172 -0.036936386847221891 0.036627809421503163 -0.011926657301138748 -0.0036790612224010723 0.021741220999268823 0.31666003046252739 -5.5603839511890631e-05 -0.051794083558008457 -0.038332132236571448 0.083538867754524904 0.01713977271073313 -0.026956288990770013 0.01016083908158265 0.061452311488618828 -0.061865483751513461 -0.0038592241734522054
leaf_weight=99.238163277506828 1104.1873567178845 43.189755700528622 393.42898728698492 1377.6693390719593 538.17262258380651 6.441434644162654 847.96449192985892 842.84365293011069 1023.8702247589827 1258.9724544994533 275.52632911503315 117.48190961033106 59.624496892094612 813.41448570042849 770.81405630335212 314.64394793659449 417.3638186044991 1380.3525758944452 108.4775891713798 4.3729273974895468 269.20460199937224 2.8010074086487293 976.73446299135685 63.825905486941338 141.24693043157458 434.58213253691792 458.53125641494989 29.449513256549835 17.768735464662313 257.73514385893941
leaf_count=554 9669 229 2148 11031 3193 59 8161 5273 6009 9212 1429 799 341 8466 9436 1944 4438 10076 988 39 2935 23 12036 328 1304 3095 3019 186 107 2010
internal_value=0 0.00423235 -0.000774921 -0.00398472 0.00280755 0.0169274 -0.0154287 0.00932456 0.0209731 0.0170755 0.0190791 0.0321102 0.000361816 -0.014442 -0.0227927 0.0465341 -0.00889063 0.00423621 -0.0219321 -0.0240449 0.00443119 0.1728 -0.0280481 0.0288287 -0.0178939 -0.000722372 -0.00568624 -0.0213455 0.0384162 0.0117401
internal_weight=0 11059.6 7931.25 6827.45 4139.04 3128.31 3390.37 2761.37 2704.5 2346.67 1103.8 650.743 453.053 2688.42 1584.23 357.834 423.805 2223.2 2350.8 2242.32 276.379 7.17393 1965.95 1087.7 989.211 1039.57 922.563 464.032 117.007 375.217
internal_count=118537 86090 63871 57144 29573 22219 32447 18542 17722 15549 6727 4238 2489 27571 17902 2173 4497 15349 25486 24498 2997 62 21501 6337 9465 6961 6300 3281 661 2809
is_linear=0
shrinkage=0.1


Tree=23
num_leaves=31
num_cat=0
split_feature=612 578 592 582 362 393 573 275 614 614 604 605 611 610 263 276 602 276 70 592 263 0 223 577 263 280 154 71 586 275
split_gain=88.1542 81.7744 73.5672 76.546 61.3207 43.2491 37.0945 35.9375 35.2656 48.8552 34.2922 34.2058 30.3899 31.6539 29.6203 27.7047 24.0962 23.3911 23.3361 23.2618 23.2254 26.6772 22.9838 22.3464 22.2563 22.0389 21.783 21.7145 21.4361 21.4081
threshold=3.5000000000000004 46069.500000000007 521927.50000000006 46692.500000000007 108.50000000000001 1.0000000180025095e-35 29.500000000000004 7.5000000000000009 8.5000000000000018 17.500000000000004 15.500000000000002 21.500000000000004 2.5000000000000004 1.5000000000000002 120.50000000000001 1853.5000000000002 2.5000000000000004 1009.5000000000001 1969.5000000000002 120465.00000000001 162.50000000000003 1643.5000000000002 7606.0000000000009 58283.500000000007 824.50000000000011 3.5000000000000004 398.50000000000006 17675.000000000004 489443.50000000006 18.500000000000004
decision_type=2 2 2 2 2 2 2 2 2 2 2 2 2 2 2 2 2 2 2 2 2 2 2 2 2 2 2 2 2 2
left_child=5 7 3 10 6 8 14 15 -1 16 27 -4 13 18 -5 -2 -10 22 19 -7 -16 -22 -6 -14 -20 28 -8 -3 -11 -30
right_child=1 2 11 4 17 12 26 -9 9 25 -12 -13 23 -15 20 -17 -18 -19 24 -21 21 -23 -24 -25 -26 -27 -28 -29 29 -31
leaf_value=0.019198703939379426 0.044116197600769569 0.061346960659719979 0.088932863191464886 -0.012197004267143874 -0.0070514654949454109 0.025409195437485623 0.014720306313022472 -0.0089772530587907667 -0.024356102829612751 0.050671597294501505 0.067572140530272481 0.017160974861403677 0.089373607939299743 -0.0026773933555730607 -0.044078728163629337 0.012126102341165292 0.021104079296078496 -0.0076417211679304063 0.033074401702089015 0.088695581392110159 -0.0094869094203999874 -0.045107160298078146 0.033348724026177841 9.3291948616617372e-05 -0.014648767964854457 0.01266100111681329 -0.015317959696016407 0.0033322107486612402 0.10399153592125616 0.39422588405742071
leaf_weight=706.54311179369688 445.78081372007728 69.96811693534255 87.740315303206444 781.01429012417793 249.5905486792326 98.322146907448769 285.70419098809361 439.97279895842075 938.72011262178421 51.015862911939621 107.68125722557306 273.06218487769365 29.203406788408756 275.20324055105448 1204.3820273913443 689.37992199882865 133.13282413035631 1690.4778113551438 1001.0473912544549 141.90167566388845 561.38666770607233 336.15368868410587 323.11806995421648 700.56163148209453 108.29421276971698 285.44997141137719 1557.4475681632757 828.06351992487907 7.4658207446336728 3.8530734851956367
leaf_count=3233 2583 494 448 7104 1590 529 2324 3316 6163 326 973 1839 169 1809 15112 5729 849 16148 5908 762 6662 4568 1873 4715 758 2093 14303 6066 60 31
internal_value=0 -0.00561514 -0.00955498 -0.0115483 -0.01526 0.0112819 -0.0217418 0.015285 0.000943144 -0.00814251 0.0142465 0.0346145 0.0206179 0.0282318 -0.0288256 0.0246887 -0.0187096 -0.00172437 0.0345348 0.0627928 -0.0350043 -0.0228277 0.015742 0.00366607 0.0284157 0.0244246 -0.0106618 0.0078523 0.0782937 0.20279
internal_weight=0 9930.92 8355.79 7994.99 6989.27 4480.71 4726.09 1575.13 2126.18 1419.64 1005.71 360.803 2354.53 1624.77 2882.94 1135.16 1071.85 2263.19 1349.57 240.224 2101.92 897.54 572.709 729.765 1109.34 347.785 1843.15 898.032 62.3348 11.3189
internal_count=118537 91132 79504 77217 69684 27405 50073 11628 12755 9522 7533 2287 14650 9766 33446 8312 7012 19611 7957 1291 26342 11230 3463 4884 6666 2510 16627 6560 417 91
is_linear=0
shrinkage=0.1


Tree=24
num_leaves=31
num_cat=0
split_feature=243 336 568 319 610 164 578 575 593 310 546 590 20 492 158 614 587 376 583 256 79 263 0 151 570 603 249 167 102 349
split_gain=83.1986 53.2367 41.3366 40.6683 34.4916 31.8724 30.0661 26.849 25.6889 25.5071 26.4534 24.0174 23.6238 21.1731 21.1289 20.0695 28.9016 25.1058 19.8052 20.4738 19.2557 19.585 20.7562 20.8211 21.2526 28.3332 20.4001 20.378 19.8501 19.5454
threshold=220081.50000000003 2.5000000000000004 1292.5000000000002 19.500000000000004 1.5000000000000002 141709.50000000003 23050.000000000004 29.500000000000004 5540.0000000000009 1.0000000180025095e-35 4.5000000000000009 5841.0000000000009 31806.500000000004 1.0000000180025095e-35 286197.50000000006 25.500000000000004 36340.000000000007 423.50000000000006 234679.00000000003 1002.5000000000001 62799.000000000007 132.50000000000003 1644.5000000000002 513124.50000000006 2581.5000000000005 7.5000000000000009 51.500000000000007 66521.500000000015 954.50000000000011 116.50000000000001
decision_type=2 2 2 2 2 2 2 2 2 2 2 2 2 2 2 2 2 2 2 2 2 2 2 2 2 2 2 2 2 2
left_child=4 2 3 5 13 11 -6 8 -3 15 -11 -2 -10 20 -9 16 17 -5 -13 -20 -1 26 23 28 25 -25 -22 -26 -23 -29
right_child=1 7 -4 9 6 -7 -8 14 12 10 -12 18 -14 -15 -16 -17 -18 -19 19 -21 21 22 -24 24 27 -27 -28 29 -30 -31
leaf_value=0.028597820262567155 0.14743566716886963 0.0610939965776921 -0.016345634068208176 0.090435559531528154 0.014090040783984528 -0.018260594756387482 -0.022338561353288454 0.04209036050230603 -0.022823457437003015 -0.00093161741902630978 0.018781365081198292 0.025145232444309523 0.011200995639046496 0.19996343114060613 0.010799797894215479 -0.0052414791849598914 0.028404806027334435 0.35560263590800245 0.27075745369110893 -0.012061152526731756 0.0044164145332834899 0.22156737704965171 -0.028370206052130448 0.095208512428651804 0.27064634774955615 0.45626173924362945 0.080895754779228043 -0.042166530874515273 -0.0088297346230854588 0.18884498280553155
leaf_weight=190.16801129281521 12.317033886909483 92.376483857631683 1270.0914637632668 34.799931347370148 249.96988627687097 1202.5149401277304 2419.6892050504684 568.46653485298157 231.93362902849913 2126.5210487581789 1001.2461326345801 302.28242078050971 1698.2973573729396 5.2365340515971175 347.84833962470293 164.78069683909416 566.29319750517607 3.978782817721366 2.5789969302713862 341.36894908174872 546.47301176935434 3.7741756699979296 488.13656139746308 18.891266357153658 2.767605520784854 2.4560376182198516 37.255036495625973 28.120201427489519 406.43888179212809 4.2109528593718997
leaf_count=1367 77 408 11153 198 2011 10514 27301 3208 2236 15267 7062 2121 12043 30 2472 1636 3767 29 25 3378 3637 33 4641 160 18 25 227 265 3189 39
internal_value=0 0.00470948 -1.61822e-05 0.00358532 -0.0117951 -0.00857614 -0.0189276 0.0160114 0.0095781 0.00939225 0.00537881 0.00910779 0.00711267 -0.000813519 0.0302119 0.0256981 0.034124 0.117642 0.00647129 -0.00994052 -0.00142171 -0.00513225 -0.0139541 0.00112549 0.0580684 0.136748 0.00929752 0.0102148 -0.00670996 -0.0120786
